60 50
_ 0.03993836 -0.64411634 0.33012787 0.8659447 -0.48124564 0.68618995 -0.98645324 -0.48442328 -0.5914506 -0.35585803 -0.118394144 -0.1389195 -0.20940787 -0.044166546 -0.09243738 -0.7536994 -0.20071502 1.0180475 -0.98161143 -0.63366824 -0.69171315 0.99499005 -0.25922847 0.7724415 0.47670448 0.83406925 -0.3748791 0.9911348 -1.222456 -0.3433171 0.22599842 -0.3715606 -0.6811727 -0.70669854 -0.06887278 -0.26820624 -0.45774934 -0.09907929 -0.74204934 0.17413437 0.12009597 -0.35583547 0.38500834 -0.41259065 1.1305779 0.7675151 0.4995534 -0.08824478 1.8642597 -0.18978724
e 0.27485445 -0.6579183 0.17471726 0.93801284 0.1599756 -0.42708734 0.29351404 -0.021759106 -0.42021787 0.113189675 0.03653923 -0.6347856 0.8117837 0.49846607 -0.27290583 -0.122424416 0.36547947 0.6252666 -0.61630714 -0.44525787 -0.24245064 0.4439655 0.55689055 0.2867897 0.7692163 0.25399184 -0.097736076 0.88764834 -0.53415436 -0.3121022 -0.017740335 -0.3994125 -0.2208088 -0.4694611 -0.8126637 -0.36332804 -0.5793515 -0.38676563 -0.08235829 0.07256572 0.3355447 -0.050567377 0.4385459 -0.29459256 0.52578515 0.92612815 -0.2398396 -0.57019836 1.5616349 0.018996125
t 0.26872176 -0.6273711 0.32532462 0.7565804 0.11606654 0.7751054 0.010254181 -0.6634079 -0.33831874 -0.6382678 0.4098981 -0.6701291 0.64115506 -0.07329613 -0.4577952 -0.57012707 0.558544 0.53890765 -0.045943726 -0.22677493 0.19997892 0.6042992 0.07748823 -0.06785143 0.6330903 0.23900807 -0.5056666 0.48875642 -0.6823534 -0.51557374 0.78539956 -0.7627513 -1.2910854 -0.08118331 -0.6275127 -0.22230034 0.043914594 0.15808748 -0.08564781 -0.24355027 0.6990555 -0.23382741 0.23621376 -0.38136896 0.89124215 0.53032917 0.10682409 -0.15362114 0.7861692 0.048612162
a 0.031426836 -0.65336245 -0.06612806 1.0519443 -0.5096236 0.005069972 0.2893923 -0.103432894 -0.84824306 0.4189361 -0.073099226 -0.66360885 0.26985672 0.4958085 -0.32181287 -0.20072554 0.7765488 1.1126531 -1.3167552 -0.5020026 0.20364079 0.46021575 0.21154258 0.83028126 0.3908059 0.38831058 0.08674413 0.34621117 -1.1162779 -0.18786325 -0.045068607 0.06805603 -0.6610918 -0.5194996 -0.6087127 -0.11343443 -0.3408089 -0.20754914 -0.028462019 -0.11347598 0.45930257 -0.38234156 0.33828196 -0.33745375 0.330034 1.1005316 -0.010547429 0.10182739 0.64111054 -0.114295706
o 0.011417552 -0.9704021 0.051915925 1.1070257 -0.58948314 -0.21788175 -0.094689265 -0.60028195 -0.9116765 0.00050124835 0.12393042 -0.46682763 0.32801136 0.59683174 -0.16557083 -0.71170706 0.26053384 0.65839607 -0.69068 -0.33885038 0.0604294 0.577893 0.40810964 0.37692705 0.48218304 0.9790814 0.17120051 0.9924143 -0.80859107 -0.83646107 -0.0395808 -0.07816721 -0.29445496 -0.31007725 -0.6456592 0.15870646 -0.19771881 0.08892615 -0.41702548 0.04277201 0.63562447 -0.52212054 0.30837414 -0.41966483 0.4037035 1.2142742 -0.42623875 0.18916762 0.47576427 0.15071583
n 1.0011077 -0.5841747 -0.010061162 0.18720676 -0.406604 -0.013717714 -0.13688813 -0.33589533 0.16905682 -0.43829292 -0.14600387 -0.80858374 0.22953905 0.11916673 -0.29478672 0.032968108 0.018539907 0.24003719 -0.9340003 -0.3305584 0.021057358 0.64356124 -0.37280107 0.8150653 0.4466238 0.55564207 -0.22465952 1.1303679 0.17963326 -0.34343854 0.388991 -0.6186265 -1.4327657 -0.45900953 -0.35721543 0.016426975 -0.67731076 0.17537959 0.38706145 -0.51667345 0.6488614 0.123039916 0.6018185 -0.60659415 0.8688535 0.752563 0.5234103 0.2780938 0.40155315 0.5500567
i 0.31903577 -0.5470551 0.26146233 0.7009357 0.004526877 -0.22356027 0.22492868 -0.33825535 -0.28230324 0.20910761 -0.15012792 -0.7955738 0.11609936 0.5893451 0.047205582 -0.2127122 0.41953787 0.8597409 -0.59480065 -0.57429516 -0.78206354 -0.048865095 -0.06923204 0.92633665 0.505197 0.1535255 -0.024729302 0.8019562 -0.39673275 -0.29501742 0.6603404 -0.21496667 -0.2256919 -0.8315607 -0.8963804 0.15550806 0.4759067 -0.40268344 -0.5863017 0.29888088 0.6313783 -0.72572356 0.25754914 -0.37172025 0.050284714 0.7607323 -0.007447474 0.17862129 1.120182 -0.10072282
s -0.12278694 -0.34844485 0.042082623 0.3164474 -0.3124097 0.3780018 -0.24886435 -0.3723234 -0.21824472 -0.38346547 -0.3767581 -0.48329625 0.71909714 0.25025305 -0.25764915 -1.0269239 0.56682134 0.43448326 -0.44935092 0.046911716 0.2450229 0.65648156 0.03009045 0.54655886 0.103355065 0.2428755 -0.41156948 0.33237958 -0.58910596 -0.49244657 -0.17291476 -0.23254599 -1.005828 -0.42110664 -0.15041733 -0.012407759 -0.16690093 0.49462405 -0.020392945 -0.10983579 0.894246 -0.5121577 0.1252095 -0.2767861 0.7506202 0.46114272 0.30944532 0.015137766 0.915675 0.4274199
h -0.044756036 -0.9634657 -0.07363731 0.059083708 -0.10822725 -0.6457219 0.10470756 -0.08971834 -1.0194408 -0.15105762 -0.5734905 -0.62165904 -0.17478083 0.28422707 -0.62740105 -0.42297077 0.08039866 0.36634558 -0.501077 -0.26565072 -0.49397796 0.714721 -0.9172181 0.39228338 0.3698584 0.5162933 -0.2823672 0.34135833 -0.30871803 -0.4616788 0.13107517 -0.34781402 -1.0721201 -0.8844149 -0.6187831 -0.3467103 -1.230025 0.53610235 -0.04479435 -0.16887848 0.4483281 -0.3401672 0.7138657 -0.42197618 0.3175211 0.26247677 0.3468792 0.5071699 0.90184146 0.51205987
r 0.57024854 -0.6722588 0.21616274 0.21737903 -0.3232286 0.15207806 -0.26424766 -0.74449044 -0.52831244 -0.6597828 0.17837898 -0.34752798 0.09278971 -0.5120457 0.14545707 -0.46179065 0.31904316 1.0032388 -0.6545956 0.15916021 -0.26648524 0.79958344 -0.39717412 0.63824946 0.032491684 0.5133233 -0.19592273 0.6078975 0.29707426 -0.94568306 0.015517239 -0.44225463 -0.58574224 -0.5346162 -0.7631438 -0.23941608 0.13479522 0.5921487 -0.07398097 0.4197155 0.68628 -0.3621282 -0.006981352 -0.26556447 0.6101604 0.5877132 0.42321065 0.24748872 1.1516117 0.26090717
d -0.06946487 -0.49909136 0.290635 0.025028 0.10232999 0.5934714 0.077055745 -0.22822514 -0.602644 -0.6297459 -0.073598765 -0.8212341 0.20694906 0.2004688 0.17557986 -0.7751288 0.54349375 0.5854232 -1.1433135 -0.5904592 0.1578669 0.9143356 -0.039153904 -0.0617457 0.56652904 0.11383995 -0.5195945 0.039212037 -0.81568116 -0.2801148 0.43389702 -0.67764646 -0.60765475 -0.08144652 -0.5243429 0.1980415 -0.33672428 0.27216798 -0.115463406 -0.11668565 0.9483106 -0.28866622 0.13838716 -0.5691712 1.0594232 0.41391072 0.2636197 0.045667123 1.0188017 0.15398932
l 0.80777335 -0.6701304 0.113772996 0.39379466 -0.5222824 0.23748593 0.38881287 -0.3166582 -0.87522686 -0.39035678 0.28793842 -0.2374087 0.10542372 0.10087526 0.306418 -0.8818481 -0.10416753 0.32303077 -1.1042556 -0.41292405 0.1135048 0.9433663 -0.7205861 0.8311738 0.34127754 0.2629474 -0.46305302 0.30204174 -0.37908712 -0.25491676 0.014166677 -0.17366321 -0.3973499 0.0051213903 -0.5696042 0.1381585 -0.5161193 0.14375973 -0.028433299 -0.25207373 0.6271998 -0.049412183 0.13036199 -0.33268636 0.8506705 0.61465096 0.96603066 0.10437646 0.8682919 0.016131463
u 1.241065 -1.0612931 0.34007668 0.15809494 0.14244795 1.0396348 -0.164733 -0.6539137 -0.31988227 0.06476819 -0.1573134 -0.65004027 -0.06454863 0.22861311 -0.3656378 -0.12286068 0.75135714 0.21691479 -0.41894537 -0.7809232 -0.50457376 -0.36318228 1.2299038 1.3967545 -0.106445916 -0.0971685 0.08485958 0.16188818 -0.107229665 -0.40418366 -0.14940417 0.16943516 -0.45033455 -0.94253325 -0.52817756 -0.47226325 -0.70750815 -0.879904 -0.7549956 -0.34851146 0.8147413 -0.7438247 0.9048491 -0.17988053 -0.1585653 0.57442147 0.30207178 -0.64874375 0.6622439 -0.07255785
m 0.40871525 -0.63652784 0.28570473 0.47977462 0.29051632 0.53419244 -0.09976042 -0.5045854 -0.33506262 -0.2508249 0.80589736 -0.2318774 -0.25100255 -0.016842132 0.4646021 -0.7219049 0.5195265 0.35177818 -1.0808246 -0.8738264 0.34187236 0.92222404 -0.031936362 -0.1909619 0.28046235 0.48303106 0.12653702 0.07675282 -0.10884965 -0.61989886 -0.29149488 -0.85934305 -0.6045572 -0.33410913 -0.27758035 -0.38784364 -0.44920048 0.16166727 -0.05896162 -0.12648708 -0.02616289 0.14925584 0.25437877 -0.1143305 0.17239262 0.32391566 0.26547706 0.061070472 0.6226409 0.15347771
c 0.27453196 -0.008676814 0.14529876 0.5995104 0.14424448 0.4823379 -0.5852101 -0.7266528 -0.45400375 0.045968086 0.08285208 -0.29504552 0.6997861 0.08073477 0.25314268 -0.92852795 0.29267606 -0.15386377 -0.6432635 -0.24576943 -0.38199306 0.9672063 0.25401163 0.13023065 0.35704592 0.51399684 -0.6633359 0.9079963 -0.93220425 -0.045445487 0.43714705 -0.87998426 -1.0015664 -0.5798706 -0.20828149 -0.075077504 -0.023127178 0.47379944 0.16165097 -0.19758976 0.7550318 0.02519916 0.08415667 -0.18423231 0.7900458 0.8702312 -0.16203608 0.016283913 0.9762609 0.20517404
f 0.4411114 -0.42384243 -0.4088501 0.882787 0.19308212 0.47333813 0.08896327 -0.44015628 0.32606256 0.027742065 0.10536827 -0.32366338 -0.29315522 -0.18698917 -0.6670791 -0.7218432 1.2867018 0.58668905 -0.50752807 -0.5447135 0.01179551 0.52158725 0.21616778 -0.3468444 0.48456106 0.18862331 -0.66544455 0.7759759 -0.5398504 -0.20425022 0.41900244 -1.3439769 -1.5220596 -0.43789524 -0.34063742 -0.6214306 -0.82449996 0.42342517 0.310972 0.18404175 0.2774367 0.21666113 0.45320684 -0.23578472 0.1724871 0.32667106 -0.07442124 0.48520505 1.1302793 0.4067175
w 0.32866707 0.019063465 -0.04005964 1.0071962 0.78277344 0.48815572 0.3913224 -0.8088465 -0.055033147 0.2681798 -0.01621897 -0.6458188 0.25790063 -0.08097011 -0.13269758 0.47483197 0.5767973 -0.15084463 -0.74364734 -0.5354537 0.14172213 1.399837 0.32765907 0.12958321 -0.024398405 0.08178973 -0.8867035 0.15944323 -1.2150733 -0.4380261 0.7148215 -0.5738377 -1.3360555 -0.07308937 -0.34901467 -0.29163063 0.19135077 0.3331112 0.4763014 -0.14960995 -0.2779225 -0.06469347 0.54859424 -0.66413677 -0.04831814 0.25045368 0.263323 0.32826567 0.17359494 -0.36272913
y 0.1669694 -0.24934664 0.27799523 -0.6429587 -0.04275333 -0.18006258 0.20698443 0.0073371422 -0.34418765 -0.5508172 -0.32198215 -0.6628664 0.37418386 0.052293334 -0.016785108 -0.60888076 0.62063885 0.7869838 -0.4597379 0.8256545 -0.2590863 0.1364165 0.51632816 0.70709705 0.29229558 -0.012979589 -0.8511829 1.1464615 -1.4971095 0.2716973 -0.13190508 -0.12671433 0.11552816 0.018484725 -0.09119123 0.296955 -0.69574225 -0.1380558 -0.18719287 0.5289183 0.96456033 -0.3240426 0.2859136 -0.24134506 0.5254199 0.61735624 -0.41389632 0.17063345 0.7366867 0.38174772
g -0.65801173 -0.7086797 0.55490273 0.77490115 0.17121066 0.96964175 -0.40415233 0.22878273 -0.39211252 -0.17811573 0.053681646 -0.68400997 0.4621362 0.08456011 0.13961846 -0.724176 1.1408472 -0.15026547 -0.7552577 -0.8448139 0.26277432 1.2872242 0.116611525 -0.03477373 0.6344741 0.351935 -0.92607325 0.45108345 -0.9989586 -0.31472576 0.283298 0.0081426315 -0.8083943 -0.1441631 -0.052381285 0.10397347 -0.11732315 -0.03132558 0.3328447 0.0989079 -0.010940057 0.038117614 -0.31659022 -1.0582445 0.28127718 0.40996188 -0.0126943905 0.01997335 1.2112296 0.18354432
p 0.7535324 0.057704505 0.06532159 0.25484976 0.21207358 0.43528035 0.03806893 -1.0311344 -0.10840528 0.2551489 -0.22577137 -0.046334557 -0.0057906904 0.3072988 0.15953504 -1.0166922 0.64294285 0.53686225 -1.0795897 -0.953376 -0.27180797 0.66353315 0.31256554 -0.5792676 0.17266536 0.5046274 -0.29390877 0.75837517 0.054857448 0.37723482 -0.05502418 -0.7555187 -1.2191577 -0.56120616 0.100248635 -0.5317495 0.058689315 0.55989873 0.20291683 -0.12045605 0.38650098 -0.077230945 0.1730082 0.08025465 0.6369908 0.15812229 -0.26633808 0.26809168 0.85957545 0.39852992
<s> -0.9276357 0.5304564 0.0057333102 0.77313894 -0.444713 -0.5236311 0.05551071 0.5117209 -1.1189587 -0.030159459 0.17742096 0.59603715 -0.021033594 -0.32744887 0.68052673 0.057774305 -0.058685433 -0.28335387 0.31551185 -0.21198569 -0.75732225 -0.46401814 -0.10964745 -1.0374664 -0.3786015 -0.38749093 -1.177442 0.7308683 0.27165574 -0.42277744 0.4731952 -1.051215 -0.122894235 0.51825 0.08925895 0.098904274 -0.16612102 0.5395752 0.17093427 -0.7300354 -0.302012 -0.33119965 -0.32663578 0.2970433 0.7345687 -1.198513 0.9685328 -0.55253845 -0.84061545 0.70388633
</s> -2.120429 1.6453128 -0.62500167 0.13701935 -0.9396804 0.3146132 0.93862313 -0.3833947 -1.8260314 -0.2638914 2.0431697 2.2365043 -2.2517068 0.0029453654 0.9329734 0.082902804 -1.7256013 -0.68364227 2.1445787 0.18595171 -0.63957465 -1.8478161 -0.116310485 0.013925373 0.030665427 -0.30854023 -0.0042338385 0.481203 2.239137 -0.009349915 1.5545071 -0.5601815 0.4219535 -2.1090765 1.5675994 0.22833082 -1.0078771 0.7825989 1.8314278 -0.56469613 -1.4110852 0.4043116 -1.9065878 1.170316 -1.7137003 -0.40220854 -2.0245576 -0.09986675 -1.5307097 -1.6623998
, -0.07950753 -0.29095182 0.1798265 1.5972896 -0.7255953 -0.23313546 0.52884024 -0.20818633 -1.4787813 -0.34904954 -0.008786179 -0.37565446 -0.39832163 0.5136292 0.17587109 -0.75775635 0.34008193 0.7238803 -1.2526926 -1.5114166 -0.62227666 0.915218 0.21581987 0.69095814 0.4032186 0.8240139 -1.285726 1.9125702 -0.3755084 -0.5420771 0.63648784 -0.834669 -0.5841323 -0.6733151 -0.84967256 -0.045545585 -0.8589715 0.6471124 0.6567791 -0.51239306 1.0278662 -0.46935374 -0.118682645 -0.26359063 1.369842 0.6038181 0.67494786 -0.4573619 0.8240851 0.44110212
b 0.3794292 -0.25175267 -0.10327911 0.26764095 -0.16473307 0.17492114 0.1367989 -0.5680755 0.5484425 -0.14046349 -0.20089899 -0.25793114 0.647075 -0.8167583 0.19850348 -0.42529818 0.065191664 0.706976 -1.4076282 -0.61247784 0.002351629 0.5817897 -0.12213352 0.203369 0.2537221 0.38545334 0.32092 0.32322234 -1.0058357 -0.46140334 0.463426 -0.76198304 -1.0606716 -0.17247555 -0.21312799 0.59658366 -0.886815 0.48196653 0.32186985 0.3477058 0.31265324 -0.352616 0.33677083 -0.42898968 -0.24279645 0.33655047 0.79521054 0.8864064 0.6855617 -0.14044054
v -0.14979087 -0.34327063 0.68452984 0.14740004 0.9084139 1.1732875 0.20638116 -0.61827886 -0.03348458 -0.6627807 0.42407846 -0.23790312 -0.7614637 0.23997827 0.20194414 -0.34491667 1.1636318 0.8934403 -0.9219562 -0.46782324 0.20880622 0.28594282 0.08065345 -0.13955058 0.13742481 0.20498207 -0.017628763 -0.27095687 -0.7369235 0.44516793 -0.047671393 0.06315549 -1.780146 0.0051278505 -0.20784308 -0.41952172 -0.8629067 0.7854287 0.8469847 -0.34341556 0.15964018 0.11472227 0.5036459 -0.3323352 0.6869198 -0.024337327 0.44436258 0.32497168 0.23665774 0.6812479
. -0.4701935 -0.6312918 -0.55649644 0.3581514 0.17577489 0.351866 -0.73584396 -0.2232163 1.0727761 0.89416283 -0.6603205 0.5876008 -1.1898018 1.296147 -0.38359573 -0.95321983 -0.11427066 0.15692517 0.026723435 0.19991148 0.22106166 0.9862013 0.1809853 -0.32529777 0.97315574 0.18129861 -0.36640507 1.2992909 0.17736036 -0.29500258 -0.30584747 -0.23311108 0.57015973 0.7122386 -1.9503386 -0.7015183 -0.105801 -0.018366992 0.94052845 -0.24227878 0.6479226 0.26637566 0.017855315 0.0035532422 0.07736624 0.44186267 0.41712782 -0.6890932 0.45998216 0.5681726
k 0.23370713 -0.1884285 -0.10710759 0.2999226 -0.76340824 0.1901015 0.08118357 -0.10713893 -0.5193044 -0.28958157 -0.36385155 -1.1593629 -0.57729656 0.4318529 -0.6703787 -0.82211524 0.4824316 -0.027725827 -0.24372554 0.44341078 0.3791641 0.9685918 0.0996866 0.9764848 -0.15205523 -0.5744861 -1.0531353 -1.2802793 -0.51914704 -0.45298693 0.17520323 -0.33479175 -0.5743321 0.26961192 -0.055793844 0.10771418 -0.30147588 -0.090073146 -0.34063187 -1.0205702 0.35217398 -0.99751276 0.13860102 -0.7393157 0.53087443 0.09446782 0.31757596 0.6852129 0.44097933 -0.29101327
; -0.071142524 -0.8014992 0.5599177 1.5410354 -0.24050786 -0.08946572 0.43327388 -0.3763188 -1.8374373 -0.9175304 0.7423084 -0.803305 0.072701566 0.114310086 -0.011330415 -0.47120708 0.65439594 1.3686314 -0.53817713 -1.4053702 -0.7770328 1.1327044 0.49852332 0.9300181 0.70520234 1.8652737 -1.4806627 2.0972173 -0.7712037 -0.83200777 1.1025785 -1.2038672 -1.055618 -0.7650943 -1.2062823 -0.09649408 -1.5486586 0.84111303 0.64779764 -0.37695432 1.541414 -0.90291345 0.081350975 0.43770728 1.0605316 0.7709251 0.67379034 -0.75306743 1.0138441 0.23836005
" 0.13169792 2.1712496 0.05184511 -2.9754472 -0.25071537 -1.3462331 1.1301693 1.714777 -0.41417933 -1.0122899 0.40900332 0.735642 0.10941822 -1.6241678 1.1065487 1.8036621 0.23015788 -0.978589 0.22710644 -1.0185575 0.97959656 -1.1145827 1.6871358 -0.38811284 -1.5683864 0.9122155 0.4257725 -1.9166287 0.73622876 2.3847528 -0.3335823 1.913522 2.7464414 1.1465987 2.32268 0.7898828 1.2238679 0.6640499 -0.22134319 0.9029437 -0.633565 0.12892167 -1.1625985 1.4270138 -0.43204024 -2.0761104 0.8880567 0.18390226 -2.1014483 -0.42574078
x -0.33649325 0.2543197 0.7420792 -0.45894986 0.5127945 -0.401633 -0.48701003 -0.31693226 0.08605027 -0.34996626 0.28258425 -0.7321599 0.33538628 1.1643312 0.48616034 -1.341845 0.67943764 1.0389072 -0.39037552 -0.54426926 -0.527931 -0.29419014 -0.07799617 0.32005042 -0.1003207 0.53919697 0.97134453 0.21095969 0.7133441 0.7026958 -0.8997775 -0.6125408 -1.331073 -0.94306713 -0.17503853 -0.4344406 1.2526616 0.8982809 -0.57930654 -0.3010872 1.406547 -0.09042065 0.56375605 1.0984265 0.612919 0.27299717 -0.036546353 0.20000514 0.7681941 1.3873037
' -0.21695498 0.96900386 0.21167213 -1.5659369 -1.9713769 -0.96883565 -1.3432947 0.4118777 -0.062546894 -0.2423461 -0.20776694 -1.6404153 0.46049306 0.33497274 -0.23766856 -0.17122653 -0.059823923 1.1275969 -1.0554914 -0.98460287 0.3494824 1.2663541 0.9982079 0.3054512 -1.2810512 -0.9064839 -0.9909553 0.09534185 1.3379474 -1.325096 -1.0281143 -0.16809833 -0.275779 2.1507776 0.7890305 1.4151789 -0.049878627 -0.5806753 -0.54703337 -0.53020924 -1.0116676 -1.3690581 -0.03221461 0.5454667 -1.5641611 -0.7688975 -0.45899075 0.05021597 -0.5571984 -2.975056
q 0.5572791 -0.71569043 0.5475463 -0.83402747 -0.19340268 0.29042855 -0.6947025 -0.34835812 0.6286145 0.6113709 0.21235846 0.20760176 1.7525011 -0.05168904 1.2177558 -1.2199035 0.1449345 0.03431926 -1.1877975 -1.2029235 -0.096578375 0.31608206 -0.96720105 -0.3191292 0.53045034 1.7218558 0.85096145 0.4273036 -0.9848299 0.888374 0.30726525 0.5087215 -1.9615571 0.42698616 1.3857821 1.5882505 -0.98855513 1.5638897 0.55180657 0.5112842 -0.0067732027 0.2757891 -1.5606458 0.33743215 0.70043546 -0.22569524 0.29414362 1.1999627 1.1021003 0.058200546
j 1.1175599 -0.88381207 0.32643104 -0.7530356 -0.64269155 0.67897016 -0.70268524 -0.22138004 -0.0060867774 0.8164688 0.8727727 -0.24530739 0.51721823 0.007421752 0.39008564 -0.48171312 0.44353572 0.37445188 -0.25534564 -0.46106917 0.22787593 -0.09827041 0.031378977 0.14864045 0.003652121 0.38777298 0.47122315 -1.0554428 0.09364883 -0.13274854 -0.003858205 -0.15936805 -0.9491148 0.24705203 0.8397024 0.4130817 -0.85942525 0.5005575 -0.12255694 -0.075078435 -0.09789653 -0.44308925 -1.4119979 0.7995865 0.6443416 -0.30156386 0.031919993 0.13605747 0.6638511 -0.80311686
z -1.4148597 -0.6755246 -0.26070026 0.17589176 -0.8258274 0.2047071 -0.1425358 0.60544544 -0.49203074 -0.85338104 0.4903799 0.23396337 1.0009526 -0.6804656 0.15673491 1.4232624 0.8339144 0.20712636 -1.4413949 0.2043138 0.23738153 1.275657 0.5565019 1.8960865 0.6875969 -0.30344793 -0.02626232 -0.96319526 1.2215651 0.8733486 1.310406 0.44897628 0.29171163 1.8698738 0.8955104 1.4997567 -0.99100536 -0.52647674 -0.42918375 0.59883994 -0.10903462 0.92687213 0.49798205 -0.8729337 -0.86068743 -0.21614565 0.053326745 0.31571373 -0.042603187 1.0752318
? -0.01529436 -0.7082553 -0.43577254 -0.59848917 0.0011385381 -0.67794627 -0.96908265 0.8215372 1.2479823 0.5045624 -1.3541268 -0.4748785 0.5120154 0.3948759 -0.8051973 0.57863975 0.44323164 -0.15277442 -0.297692 -1.0082777 0.97081685 1.3872454 0.8702461 -0.035879236 0.41706523 1.1021408 -0.07109707 -0.47551227 -0.7188822 0.45389012 -0.29729405 1.2953557 1.79284 2.8782837 -2.4425492 0.0077921585 0.85890585 0.11892937 0.036322393 0.27795696 1.1288673 -0.33023202 -0.22188525 0.3885166 0.78937805 -0.76025444 2.601387 -0.99165255 0.50891113 0.3346878
: 0.003467348 0.46634313 0.027284617 -0.7203934 -0.58857447 -1.1931651 0.13760838 1.0376325 -0.36206692 -0.3638419 -0.004564505 -0.040023446 0.35957313 -0.5891968 0.15180923 0.4414179 0.472028 0.12795007 -0.02776435 -1.2358351 0.11442473 -0.10244475 1.4467328 0.2327491 -0.359101 1.072533 -0.32957888 0.3561132 -0.18911949 0.5236257 -0.2245869 0.24102981 1.761051 0.86706847 -0.0064388374 0.32509238 -0.0018367539 0.23145445 -0.39538234 0.3650084 0.6476491 -0.5514364 -0.37849492 1.18931 0.06764103 -0.87268466 1.0869267 -0.5881502 -0.47819903 0.11977966
é -0.11411168 -0.008893352 -0.051891487 -0.28603637 -0.2094648 -0.16902916 -0.4514637 0.16981193 0.048988488 0.3763299 -0.25464165 0.1837853 0.17976224 0.25243643 0.11586804 0.1483782 -0.11418378 -0.036930557 -0.03429403 0.05681533 -0.01931788 -0.11288994 0.19073875 -0.09854383 -0.073477656 -0.14457518 0.12243007 -0.1699374 0.09018014 0.19734883 -0.1994484 0.42066276 0.3083928 0.7627326 -0.044032067 0.14935212 0.16370416 -0.113087334 -0.14210582 -0.08607045 -0.30956087 -0.12648277 -0.13264969 0.14529388 0.024405355 -0.43519518 0.30356154 -0.18602356 -0.10045513 -0.10294461
æ -0.062720634 0.03069528 -0.029170638 -0.171671 -0.20322008 -0.1659563 -0.18568353 0.17842215 -0.09401546 0.2884014 -0.08675219 0.22307408 0.10512298 0.17130874 0.15979685 -0.08423772 -0.042777933 -0.042518593 0.040898368 0.028933894 -0.13996607 -0.22131772 0.092988536 -0.29868817 0.06718825 -0.14172554 -0.050775435 0.1403394 0.004292767 0.12226271 -0.04896243 -0.0015232513 0.14699996 0.2645379 0.13549031 0.03811654 0.14812703 -0.074852735 -0.13599153 -0.109382436 -0.18298781 -0.01424481 -0.2387755 0.09300305 0.33578658 -0.23443344 0.047221474 -0.13980725 0.019592073 0.0769359
ê -0.13945463 -0.060036127 -0.10705331 0.12374459 -0.2559609 -0.12402285 -0.11211025 0.13438986 -0.05941867 0.33199894 -0.06775653 0.23554665 0.023335127 0.11518936 0.06908905 0.1609073 -0.01642741 -0.08816829 -0.009638734 0.080320016 -0.043573804 -0.1446216 0.0043190485 -0.2158144 0.040557195 -0.17857198 0.036972728 0.079272196 0.07008575 -0.013920874 -0.045088872 0.07276613 0.13289317 0.27079278 -0.020088725 0.0021066952 0.19631419 -0.1956748 -0.12746583 -0.122605495 -0.354489 0.05838893 -0.09875852 -0.090406366 0.12385166 -0.19409528 0.14149608 -0.06597057 -0.12590034 0.07227914
ö -0.0411161 -0.08746402 -0.06248104 0.09664617 -0.169413 -0.09148501 -0.12906265 0.093296744 -0.08914736 0.21199806 -0.01609327 0.12729856 0.0003843534 0.064015 0.060711708 0.067200884 -0.017649094 -0.03204341 0.0099471165 0.115749575 -0.06601294 -0.15646532 0.013628536 -0.2043718 0.014129809 -0.16718146 -0.020673009 0.14530295 -0.0492366 -0.09765354 -0.08322497 -0.06688155 0.08581059 0.1064581 0.04767454 -0.08825518 0.16921163 -0.13085344 -0.15415217 -0.11389519 -0.2605109 -0.0030626613 -0.09308871 -0.037918665 0.21303117 -0.1729985 0.09823518 -0.043591894 -0.0559255 0.13389927
è -0.07388967 -0.012126063 -0.0039724307 -0.043308906 -0.038676288 -0.094073504 -0.0917756 0.17683052 -0.017044187 0.15484887 0.039081827 0.1407379 0.059654143 0.038917623 0.11871138 0.086968474 0.092122234 -0.002850046 -0.043959677 -0.03691477 -0.010786648 -0.077121064 0.18731447 -0.1296685 0.064852394 -0.007416592 0.00119261 0.08172086 -0.110155664 0.07940853 0.0046433015 0.010216035 0.10451465 0.19896549 0.008496436 -0.00048289244 0.0014050239 -0.015997885 -0.024308749 -0.022768835 -0.11601902 0.02853694 -0.11978064 0.04410638 0.14284787 -0.15844326 0.100706935 -0.10766131 -0.05917447 0.10023405
ë -0.027131397 -0.04914053 -0.032723222 0.020384157 -0.11084176 -0.016519045 -0.03622297 0.050741084 -0.050090726 0.13945562 0.012874698 0.14312352 -0.0084509775 0.05953947 0.08511828 0.008891616 -0.032604504 -0.029918078 0.012114657 0.117034025 -0.015432539 -0.07701248 -0.05181503 -0.06745825 0.06339807 -0.14139575 0.0007725353 0.07543934 -0.0069950493 -0.03738873 -0.03267079 -0.01523992 0.04556228 0.1391779 -0.026649985 0.020634843 0.13389294 -0.10266321 -0.09355374 -0.048680916 -0.1690439 0.028036062 -0.035432246 -0.06722305 0.09713152 -0.068097696 0.07719667 -0.0076343063 -0.062609345 0.07225146
à -0.08129741 -0.015122957 -0.010777577 0.01493726 -0.1555539 -0.08605161 -0.13357054 0.108272195 -0.095787406 0.23287423 0.000255455 0.21038729 0.15804066 0.034552984 0.1693463 0.095861495 0.0682764 0.0007719166 -0.12347416 0.03470194 -0.01393281 -0.12210609 0.0956652 -0.18794928 0.022593947 -0.088206634 0.02922026 0.07830502 -0.014928128 0.042460594 -0.048064373 0.031120367 0.14199297 0.3151767 0.044290558 0.013049834 0.17570758 -0.10096412 -0.13277502 -0.06068786 -0.24441566 0.02907054 -0.10890699 -0.016151149 0.20455542 -0.2438779 0.21459393 -0.10950255 -0.12998028 0.13768946
ô -0.015576327 0.01311093 -0.07197607 -0.007117322 -0.056013703 -0.08432689 -0.048753913 0.02947863 -0.044128712 0.15416199 0.011217306 0.18081433 0.016535016 0.044341035 0.07151737 0.08132792 -0.07832578 -0.03456908 0.06298069 0.14816116 -0.03002262 -0.10565631 -0.040148105 -0.10319218 0.029429335 -0.0637609 0.077080175 0.048224963 -0.00028545276 0.04777154 -0.017112598 0.01596557 0.08139206 0.10268133 0.019146359 -0.02063079 0.0767581 -0.055724535 -0.052518785 -0.013819702 -0.17663339 0.029238809 -0.05651608 0.016032483 0.025323216 -0.0941925 0.026607923 -0.019887064 -0.100661315 0.031485777
ñ -0.14698401 -0.03245181 -0.047055814 0.112010784 -0.16300552 -0.1314999 -0.12189383 0.15633734 -0.16386852 0.17395145 0.01486821 0.2073226 0.07905839 -0.024783593 0.14992444 0.20682007 0.0041252747 0.0135147255 -0.061983213 0.008244587 -0.082033806 -0.09075999 -0.013417923 -0.10022996 0.045447018 -0.072828025 -0.008290608 0.08742582 0.03793253 0.034514647 0.027284175 -0.0062129237 0.12016987 0.20963348 0.09290192 0.03457406 0.10559379 -0.087487124 -0.13894099 0.01549252 -0.24141966 0.06952901 -0.14721748 0.0067440863 0.15357639 -0.24347432 0.1555951 -0.10406548 -0.09816749 0.14675796
ä -0.06275124 -0.06496047 -0.040230725 0.058059324 -0.13486606 -0.06585203 -0.085954726 0.0659856 -0.14740515 0.15728916 -0.0060602846 0.14356299 0.10436181 0.08088119 0.14976037 0.08435285 0.04296072 0.011864234 -0.07467268 0.081806585 -0.044392284 -0.14206031 0.058520094 -0.10184788 0.034175873 -0.13425955 -0.00090702774 0.11844637 -0.026984058 -0.017461034 -0.040362805 0.010222242 0.051758047 0.15987936 0.007486959 -0.012109973 0.1595994 -0.0903929 -0.116566256 -0.100349665 -0.20065889 -0.01718922 -0.05673104 -0.065064415 0.18842356 -0.17994879 0.20673051 -0.065434806 -0.074033335 0.16057105
ï -0.017403306 -0.036467962 -0.011581443 -0.017626667 -0.06492187 -0.023747249 -0.069263905 -0.003915156 -0.05774057 0.095289834 -0.027292563 0.08839109 0.026863547 0.043902956 0.08387312 0.044114377 -0.018340766 -0.055837736 0.01255448 0.10621391 0.008532 -0.05595503 -0.064525224 -0.12067144 -0.008913459 -0.08513695 0.007411459 0.052316587 0.02188672 -0.036801185 -0.022337632 -0.016515493 -0.013434343 0.07611434 0.007568424 -0.06472133 0.1349202 -0.028591117 -0.082012646 -0.049733788 -0.13346705 0.024471357 -0.0028021135 -0.07971842 0.09843573 -0.12638809 0.09127933 -0.0055772355 -0.056116126 0.09138897
â -0.0362939 -0.044419315 -0.0072966362 0.04548167 -0.118891254 -0.058718592 -0.06748677 0.077484876 -0.13217123 0.13414863 0.005248629 0.13749348 0.08064788 0.060404085 0.11617331 0.076895125 -0.014782297 -0.025333615 -0.016448671 0.023530615 -0.07161997 -0.09607965 -0.0046655796 -0.10214458 0.049250998 -0.04518648 0.033822 0.08843794 0.00069380435 0.0044051167 0.002429989 -0.03142173 0.06899247 0.15092807 0.018929357 0.0023100884 0.06944084 -0.01951666 -0.12514618 -0.05063467 -0.13466536 -0.021476228 -0.08495986 0.0035175183 0.1668752 -0.15671013 0.18674293 -0.101498716 -0.054669734 0.14447199
ü -0.017145885 -0.04463043 -0.016725 0.01993779 -0.07290613 -0.013582526 0.0070111896 -0.0039167427 -0.1231269 0.1152642 0.009714318 0.13766626 0.028281983 0.049113613 0.06904453 0.030601138 0.022781938 0.02183585 -0.028949326 0.09353022 -0.078002304 -0.14615588 0.0061866636 -0.07680759 0.030408062 -0.12522502 0.013050135 0.112128556 -0.03815488 -0.020019585 0.006964839 -0.030340653 0.013778527 0.0384587 0.072074726 -0.07615044 0.10779996 -0.10079699 -0.089017026 -0.05982828 -0.16909601 -0.0043532765 0.00022126258 -0.06961825 0.13747151 -0.0978584 0.066852726 -0.018966993 -0.029363798 0.10928935
ο -0.08488366 -0.122177355 -0.09142238 0.09058597 -0.23166795 -0.088002704 -0.22625491 0.13877316 -0.21871103 0.49210995 0.04655089 0.45028973 0.089660645 0.145866 0.28197166 0.16922624 -0.090749614 -0.18787618 0.041168142 0.28073663 -0.07927297 -0.3257949 -0.074264854 -0.32712638 0.07491333 -0.2702009 0.06894853 0.14442828 0.0046213074 -0.015899315 -0.06381804 0.04813944 0.13869596 0.42460045 0.07606756 -0.088982426 0.28707594 -0.17034379 -0.2457052 -0.18666181 -0.5579096 0.030667461 -0.15216014 -0.095453806 0.36627486 -0.45201197 0.44296917 -0.15324362 -0.18023627 0.2736481
ἶ -0.025866568 -0.101497434 -0.05955746 0.116717085 -0.18154421 -0.05627303 -0.20768449 0.09110414 -0.16789874 0.36249533 -0.010473689 0.33200273 0.06097186 0.12202633 0.18100514 0.09090201 -0.08750779 -0.14870897 0.03142021 0.16186532 -0.09266366 -0.19063818 -0.17037097 -0.27859852 0.023461206 -0.17796178 -0.021212764 0.06929667 0.0044988836 0.0039331773 -0.055593416 0.026740966 0.08490568 0.33702937 0.061495535 -0.01241355 0.17324975 -0.12231869 -0.18173742 -0.17692612 -0.38571858 0.03024842 -0.10399337 -0.0623353 0.27353558 -0.33926356 0.31680977 -0.13847148 -0.14068362 0.21018483
δ -0.05206019 -0.07268997 -0.08364682 0.0019381224 -0.1304298 -0.06807561 -0.14479189 0.042260624 -0.17248215 0.2440217 0.039959364 0.23436113 0.06512021 0.10077198 0.17489791 0.077845745 -0.039482918 -0.1512899 0.024133038 0.13129072 -0.030215198 -0.16749524 -0.071783185 -0.17744623 0.048247416 -0.14712213 -0.000363076 0.07076121 0.0028663778 -0.007137129 -0.011406483 0.039043427 0.055344667 0.23244816 0.039222132 -0.04018005 0.14171438 -0.053357426 -0.14114614 -0.12552954 -0.3306113 0.0036510988 -0.0544756 -0.07098967 0.17481817 -0.268325 0.24747139 -0.032753367 -0.0975859 0.14043614
α -0.059245404 -0.06588441 -0.07455409 0.036206882 -0.13341351 -0.057603214 -0.11570832 0.0546346 -0.1938736 0.26462346 0.012527942 0.2570218 0.05977743 0.08429687 0.15034951 0.0627666 -0.048435286 -0.13128299 0.028382262 0.109322004 -0.014252127 -0.1597562 -0.04054913 -0.1961983 0.0027567735 -0.14943317 -0.001557201 0.076285794 -0.0038169017 -0.0015850267 -0.03233864 0.01985251 0.08661397 0.25139052 0.05502675 -0.02114984 0.12773341 -0.06747123 -0.14942658 -0.13159384 -0.2973965 -0.0028684204 -0.09361596 -0.044928994 0.207835 -0.27313843 0.2805665 -0.08260494 -0.09833001 0.1484632
π -0.05885978 -0.046947006 -0.034604616 0.029579036 -0.10884675 -0.02085345 -0.11744599 0.039256345 -0.09906875 0.17380826 0.007980756 0.16657838 0.026301162 0.05102361 0.089794196 0.0746172 -0.007651821 -0.060814936 0.0069345552 0.11592641 -0.028324498 -0.13480331 -0.008572072 -0.13091454 0.019278467 -0.14778286 0.04710396 0.05797121 -0.005727717 -0.010652557 -0.04081361 0.030400658 0.05131669 0.17294046 0.023067567 -0.054648153 0.12694466 -0.06111063 -0.10657861 -0.08118597 -0.21488532 -0.008212522 -0.06871099 -0.058778778 0.11399849 -0.18925275 0.15660067 -0.050407093 -0.06639309 0.105844595
ν -0.05575865 -0.02505631 -0.041377578 0.010938777 -0.056323703 -0.032325592 -0.06353094 0.015900755 -0.08282667 0.15402466 0.033608295 0.13525176 0.030418027 0.053864338 0.086272776 0.047679022 0.018557468 -0.040729288 -0.013274164 0.08826917 -0.024520783 -0.08117645 0.036276646 -0.093688935 0.04421009 -0.10049761 0.0119127715 0.07356519 -0.024083007 -0.018959455 0.00632319 -0.021550095 0.025843175 0.08307869 -0.0069573843 -0.07953632 0.122392125 -0.030243786 -0.0603726 -0.07832887 -0.20619343 0.0063226013 -0.07290931 -0.05129627 0.11315801 -0.12898494 0.11826328 -0.036461223 -0.03388453 0.10080591
υ -0.0622112 -0.087748535 -0.005234521 0.08905528 -0.101292305 -0.0013437904 -0.082439795 0.026847547 -0.14860797 0.18790504 -0.0104081035 0.14928302 0.015219238 0.06560972 0.09205993 0.043637432 -0.03590168 -0.0051442734 -0.032880034 0.048937958 -0.05234386 -0.095724896 -0.017899016 -0.16348465 0.018373825 -0.13359329 -0.026083061 0.09015295 -0.020112593 -0.05716717 -0.041402087 -0.038817033 0.0446572 0.13216823 0.04697818 -0.07300506 0.10633142 -0.07607166 -0.084192604 -0.10027259 -0.21593301 0.010091091 -0.07818925 -0.060892306 0.21646029 -0.16326085 0.15956037 -0.07800559 -0.080060326 0.11677214
ς -0.048816893 -0.028346574 -0.049926497 0.020099044 -0.0772122 -0.009677553 -0.048801396 0.003616738 -0.090374224 0.1100952 0.0039260746 0.110730104 0.040148366 0.06784014 0.04937712 0.05401012 0.025257815 -0.003996968 -0.016129084 0.04024623 0.012584753 -0.06266639 0.04743716 -0.04989773 0.05950561 -0.08721237 0.008051238 0.085155606 -0.018756123 -0.010954772 0.017237628 -0.0066480865 0.042667992 0.048085876 -0.011022429 -0.04930544 0.103506826 -0.037372086 -0.06714492 -0.0678 -0.1676451 0.02248829 -0.038766652 -0.05495044 0.11872389 -0.099098936 0.10096708 -0.042821374 -0.01240959 0.081009194
å -0.03393955 -0.016481876 -0.014784266 0.04436961 -0.02196618 -0.003912925 -0.023328576 -0.015899127 -0.08424851 0.04199079 0.015519538 0.0147321345 0.012542081 0.020900441 0.004845845 0.008643973 0.0015313685 0.01558217 -0.023951706 0.0075076646 -0.012863703 -0.040977344 0.028618414 -0.027691988 0.018706389 -0.056285836 -0.015801867 0.06823758 -0.026581163 -0.013115967 0.008589602 -0.062498562 -0.039296493 -0.001629336 0.0057277074 -0.05174301 0.053178012 -0.016959684 -0.033133186 -0.047492154 -0.07225547 0.016542802 -0.031365093 -0.035984937 0.07682313 -0.05580813 0.014531886 -0.03655693 0.01108471 0.061412927
ç 0.0009959184 -0.022918664 -0.0040585008 -0.040965416 0.018328577 0.018699722 -0.03590853 -0.021397611 -0.018496512 0.00936196 -0.015728317 -0.0009868013 0.01855659 0.021128826 0.017169926 -0.025294553 0.009851397 -0.033166334 -0.008392802 -0.020168174 -0.0043510194 -0.0075152926 0.0056347568 0.006460695 0.012526617 0.013204084 0.014643618 -0.010562503 0.017107736 0.005914487 -0.015870672 0.028159944 -0.021826873 0.00276613 0.02311875 0.0005974232 0.018621413 -0.010581606 -0.0037102862 0.008833314 -0.019802377 -0.019710409 0.012504481 0.006456657 0.0021726931 -0.013655845 -0.003621497 0.025568733 0.0069116685 -0.011050064
î -0.020735955 0.017969137 -0.024553489 -0.006324034 -0.017220212 -0.029927222 0.02550319 0.014802901 -0.028702864 0.021712864 0.01657463 0.019308332 0.01951616 0.029989038 0.026332468 0.0024336758 0.025417944 0.012597854 -0.029739913 0.014146148 0.012921557 -0.005409809 0.05383342 -0.043695405 0.008302075 -0.03455737 0.0055086683 0.048173875 -0.015141447 -0.0013283713 -0.010975107 -0.02746777 -0.01580249 -0.018188883 -0.0014899557 -0.018687889 0.048225578 0.012452337 -0.0045554796 -0.022265332 -0.03955214 0.009696945 -0.0033937893 -0.0021795956 0.053612776 -0.0062584165 0.027883528 -0.017031865 -0.009666889 0.01701362
