60 100
_ 0.14174595 -0.5969149 -0.0183254 0.09014324 0.6537259 -0.2700859 0.10247914 0.6079451 0.04950438 -0.66088784 -0.11148921 -0.4495177 -0.19203019 0.29855838 0.37111723 0.107612446 0.26832518 -0.76988024 0.6175251 1.1751823 0.19656032 0.13791479 -0.78314406 0.111362755 -0.11234266 0.29042566 -0.7126278 0.5192379 0.41627818 0.61118 0.40201673 -0.15868582 0.034675945 -0.8342332 -0.12736869 -0.08984501 0.006896182 -0.3902439 -0.0783513 -0.34802192 -0.08341119 -0.53018594 0.12273076 0.44876337 0.14806919 -0.2680447 -0.39429983 -0.29816914 -0.021604683 0.26170453 0.07108106 0.33082977 -0.509726 0.13576739 0.36210307 -0.06707405 -0.7174085 0.35579577 0.0002459658 0.12051922 -0.061661668 -0.6329542 0.49865508 0.9929907 0.35350856 0.07793138 -0.31160587 0.48683327 -0.014829282 0.52212656 0.14559138 0.20048712 -0.12774833 -0.5763768 0.039783075 0.34846118 0.72078353 -0.07054725 0.19850607 0.09814158 -0.13031957 -0.02024042 -0.22839881 0.28088835 0.83967143 -0.46010813 -0.4333212 0.6225048 1.1669796 -0.45020956 0.40932983 0.7271346 0.01835901 -0.41547617 0.7335983 0.54153305 0.49916694 -0.072208546 0.8462251 0.29392838
e -0.107267894 -0.23912428 -0.16465572 0.18685208 1.1652029 -0.32976907 0.3952298 0.5273826 0.06563199 -0.62394816 -0.33979896 -0.34077233 -0.28918537 0.41938403 -0.17648698 0.29158953 0.15990862 -0.16840735 0.22632498 0.6947944 -0.18905748 -0.21223952 -0.8632718 0.47275776 0.12182726 0.36802876 -0.47346374 0.7880515 -0.06662434 0.3595702 0.027147692 -0.017525828 -0.111030236 -1.119353 0.046454344 -0.35072064 0.081549846 -0.21701269 -0.19741818 -0.3034248 -0.26877353 -0.31783623 0.26653463 0.07620722 0.6507701 0.11369094 -0.5707141 -0.3515416 -0.17553687 0.48827747 -0.3127709 -0.25503656 -0.97151256 -0.11834673 0.50676596 0.02829254 -0.5159783 0.056349795 -0.2933845 0.12680747 -0.052022234 -0.36586335 0.36885047 0.40932068 0.010240625 -0.35398546 -0.3771057 -0.44221497 0.68250823 0.12872879 0.021522753 -0.5557008 -0.25022 0.039291073 -0.086230375 -0.23197941 0.4061585 -0.24303378 -0.115050554 0.073947325 -0.093452536 0.06541961 -0.044155568 0.35082904 0.4943082 -0.33753613 -0.13542727 0.45608747 0.59550613 -0.4461524 0.02159358 0.06308781 0.2065305 -0.31915697 -0.09112595 0.26491234 0.34753823 -0.244509 0.010330894 0.42344418
t 0.047291838 -0.08233521 -0.22384691 0.46986952 0.77227414 -0.17444341 0.8396545 0.68706936 0.28712234 -0.52768284 -0.36517993 -0.4617098 -0.15668394 0.39701614 -0.13344137 0.5198254 0.25494537 -0.20533136 0.14526065 0.46056738 0.08778558 -0.1428973 -0.38931206 0.22240399 0.044413205 -0.06709148 -0.39487037 0.33734474 0.06672577 0.64359945 0.10533044 0.245647 -0.3670894 -0.75965613 -0.09725552 0.08753864 0.1549818 -0.10250775 -0.133929 -0.013245721 -0.18661435 0.13134529 -0.08355229 -0.36749226 0.09947018 0.035050042 -0.22132179 0.1244005 -0.32653484 0.4479103 -0.077152595 0.21753871 -0.43769166 -0.0011258366 0.38764063 -0.060386654 -0.22553527 -0.04677982 -0.63750595 0.021843549 0.034229085 -0.46947855 0.22963078 0.4088304 0.3300964 0.2377406 -0.3820911 0.21893626 -0.044320133 0.5069269 -0.10778626 -0.019572772 0.2870769 -0.3157627 -0.24469218 0.3036877 0.40719643 0.15436739 0.07329989 0.3150498 -0.046968766 -0.042451844 -0.019403681 0.70247173 0.075512126 -0.2317778 -0.120273255 0.7057103 0.75024366 0.14346744 0.18838078 0.29864785 -0.09552831 -0.7450257 0.48439378 0.6957445 -0.41479906 -0.16792913 0.83221513 0.33732444
a 0.24323148 -0.12928243 0.024488866 0.38111785 0.29734975 -0.46482244 0.64863765 0.7676065 -0.36788714 -0.75834435 -0.35531807 -0.46230668 -0.06509737 0.22134617 -0.12173909 0.5455969 0.35655686 -0.46652037 0.15886514 0.3909095 0.037567396 -0.3459095 -0.4202125 -0.10940812 -0.09281871 0.44523412 -0.7769061 0.6733699 0.44423008 0.5159098 0.26202005 -0.11401826 0.23153308 -0.8242778 0.16768764 -0.047979753 -0.001003882 -0.2073414 -0.36756036 -0.8634635 -0.4691939 0.07229556 0.40213418 -0.16531223 0.52578706 -0.13494904 -0.6102006 -0.3191054 0.024086757 0.45504075 -0.20391779 -0.13171923 -0.6306258 0.1221214 0.21807858 0.21983035 -0.22933803 0.020935401 -0.26179457 0.019618582 0.24149303 -0.28439933 0.2270633 0.46124312 0.52907443 -0.23192605 -0.36855254 0.06843843 0.40340975 0.056309972 -0.21285377 -0.2817095 -0.09126367 -0.27252045 -0.11381731 -0.13330144 0.19726628 -0.36005864 0.08834189 -0.05855587 0.22060001 -0.18987563 -0.19745684 0.09949179 0.36595377 -0.19207259 -0.39926985 0.36886904 0.48584926 -0.45798364 -0.23451169 0.2691754 0.040319957 -0.0634539 0.26723078 0.23482703 0.28474686 -0.25113308 0.29867294 0.26797736
o 0.20315556 0.3180853 -0.14267275 0.5556262 0.41720414 -0.19187835 0.65761346 0.5489658 -0.38803902 -0.43874028 -0.55138683 -0.30839437 -0.38208306 0.04317812 0.044994716 0.37728307 -0.27911666 -0.17057712 -0.004779033 0.7389728 -0.07322138 -0.595839 -0.9473029 -0.10780696 -0.22187878 0.34716406 -0.749979 0.5197649 0.12127011 0.3514831 -0.06785498 0.26127034 -0.08523295 -1.268325 0.034710936 0.1398821 0.10683592 0.49831948 -0.4218429 -0.4022502 -0.5264654 -0.1158409 0.17045283 -0.16159894 0.56764334 -0.23434886 -0.5775799 -0.13755241 0.0010784387 0.47622633 -0.11227225 -0.01539806 -0.55887175 -0.17299962 0.027000293 0.0905071 -0.09644618 -0.26939902 -0.78976494 -0.15235615 0.13724758 -0.5107153 0.7219567 0.42198166 0.055342246 0.048218317 -0.42228022 0.25455165 0.61297935 -0.01870133 -0.30013165 -0.2615891 -0.15932558 -0.2774278 -0.27561805 0.36502776 0.23443154 -0.20473902 0.23683238 -0.030027693 -0.23622406 -0.45953527 -0.043802574 0.11052977 0.3960358 -0.21135941 -0.28566962 0.3068174 0.79676014 -0.21050549 -0.10483857 0.3699484 -0.14224105 0.08953407 0.37711224 0.30766076 -0.032655716 -0.37606803 0.31082556 0.14473605
n -0.5176269 0.071942806 -0.099551864 0.41596296 0.2667078 -0.5434361 0.49567655 1.0886575 0.06796636 -0.81551546 -0.37108877 -0.38371876 -0.47893786 0.1914791 -0.15556054 0.41367018 -0.052897267 -0.8962325 0.63354146 1.0200331 0.073853865 0.46806154 -0.4664072 0.26192388 -0.029287212 0.07719474 -0.5274412 0.471493 0.35616708 0.35295925 -0.4299347 -0.031699203 0.1506226 -0.40154365 -0.035990298 0.0042248257 -0.3168853 -0.48234862 0.1707105 -0.6465555 -0.26168033 0.29629442 -0.16085899 -0.022724235 0.21161214 -0.20330094 -0.53997785 0.23293272 -0.11298096 0.5108364 -0.28728002 0.22962369 -0.4739466 0.25137982 0.5387046 0.26465118 -0.5213518 0.2575913 -0.6275299 -0.10271354 0.14158063 -0.48340043 0.40018848 0.3031426 0.48010173 0.25073078 -0.25957713 0.32306582 -0.03703879 0.39845365 -0.039022133 -0.010805621 -0.20291626 -0.742637 -0.19124116 0.11834982 0.25249386 -0.27847397 -0.16820191 0.30714276 0.24888714 0.24268873 -0.062334865 0.3392905 0.34640354 0.23024319 -0.28704265 0.63582677 0.8621551 0.09852676 0.26082808 0.44508064 -0.014034669 -0.21347368 0.17585588 0.06336972 -0.2608046 0.11622611 -0.02844767 0.66388255
i -0.09533467 -0.0606556 0.07980955 0.2911757 0.9324095 -0.47096533 0.7323735 0.83906627 -0.3690078 -0.82350236 -0.4850984 -0.38288838 -0.14192104 0.41020963 -0.2070369 0.5161851 0.29507712 -0.2940325 0.39282975 0.87644774 0.066565864 -0.21504608 -0.65904856 -0.0060440926 0.2505052 0.4234532 -0.44425634 0.3458962 -0.026945088 0.35478613 -0.05041575 0.38346526 -0.096847676 -0.84586906 0.02655758 0.13147248 -0.3513525 -0.20458867 -0.06503147 -0.46834564 -0.32629982 -0.22558962 0.28586608 -0.12206849 0.6084542 0.19807073 -0.35899094 -0.25899395 0.15686512 0.29444212 0.2914675 -0.40443543 -0.322895 -0.2023444 0.115491614 0.27234903 -0.30389354 -0.016724605 -0.10592199 -0.1515458 -0.045207232 -0.10589797 0.20894349 0.21742795 0.09968709 -0.10687338 -0.037897043 -0.11638995 0.346563 0.10587268 -0.21502571 -0.29615304 -0.39003897 -0.2635747 -0.18587446 0.052884724 0.14693938 -0.09730519 0.14373587 0.14733733 -0.11039968 -0.14147429 0.14130014 -0.016813911 0.5833015 -0.19949254 -0.13057595 -0.06778875 0.17682564 -0.15266198 0.05382877 -0.04362544 -0.17027944 0.021146018 -0.21153803 -0.09860709 0.6322534 0.1456368 0.22482672 0.33843958
s -0.068799995 0.05263852 -0.087684594 0.4762694 0.45167804 -0.08544102 0.57197773 0.8479698 -0.06646504 -0.19515958 -0.33362314 0.014441164 0.05560111 0.31476167 0.053571682 0.20319955 0.08087089 -0.54914016 -0.070681736 0.61539805 0.3420582 -0.16011006 -0.044623766 0.07372634 -0.254833 0.022765895 -0.6277995 0.1759657 0.25178778 0.3788447 -0.010619427 0.1485031 0.05733856 -0.5868903 0.024554975 0.22972485 0.034485906 0.12606874 -0.19911265 -0.21340013 -0.3061827 0.036492556 -0.030067304 -0.06640296 0.2676324 -0.056502577 -0.27025557 0.07177138 -0.18912533 0.22569202 -0.272084 0.17343919 -0.31446183 0.019784842 0.1535366 -0.070164576 -0.28109032 0.04797185 -0.2823036 0.0698466 0.011731397 -0.69167274 0.5262115 0.57133526 0.1844441 0.25364867 -0.24444267 0.3773207 -0.002026746 -0.018804109 -0.08867119 -0.1883844 -0.07308001 -0.2409243 -0.198538 0.110394485 0.15222736 -0.23189054 -0.14614916 -0.026117867 0.025426773 0.0092743905 -0.15100968 0.39207405 0.35899606 -0.29115373 -0.11211711 0.6010265 0.9417662 -0.31703284 0.31397527 0.38653648 0.08287706 -0.34228483 0.53239894 0.24652289 -0.39657608 -0.026252653 0.52376294 0.3514456
h -0.55202824 0.54413205 0.03831006 0.5095969 0.1143137 -0.6071695 0.3631968 0.81820595 -0.43775463 -0.4564709 -0.20700787 -0.25881675 -0.1858077 -0.0019675423 0.46061844 0.26404315 -0.49259725 -0.65623915 0.51268363 1.2489306 0.007561023 -0.10740505 -0.2881643 -0.020861749 -0.00573436 0.15874128 -0.64454174 0.32865676 0.750532 0.4022785 0.11850735 -0.022831956 0.09450002 -0.86103106 0.109390415 0.04441813 0.022121089 0.16576052 -0.24733232 -0.478285 -0.19678265 -0.015765496 0.027119178 -0.08573701 0.2822792 -0.15589157 -0.37767878 -0.05267661 0.20176272 -0.037500657 -0.23246315 0.091603175 -0.0047155907 -0.0062200027 0.2859448 0.1993945 -0.19293499 0.18952347 0.17413592 0.13422532 -0.31526273 -0.7535213 0.7034227 0.5193614 0.2916823 -0.3365578 -0.34225306 0.617429 0.4283241 0.36210516 -0.011756836 -0.042156465 -0.2644315 -0.2233431 -0.36193863 -0.14687113 -0.42190057 -0.061444502 -0.018231556 0.436957 0.34162155 0.085673265 0.021437142 -0.2082362 -0.12774417 0.14958867 -0.0916366 0.4909252 0.49580306 -0.09132993 0.22157297 0.116226904 -0.09210626 -0.11477622 0.084461264 0.031481948 -0.7831942 0.15260532 -0.10867917 0.2575496
r -0.2646953 0.06863652 0.00076954364 0.407112 0.37217897 -0.7029098 0.085113905 0.95163095 -0.43784866 -0.45751533 -0.30271646 -0.29959843 0.25140083 0.3431059 0.22189592 0.4530005 0.03324881 -0.47464737 0.29084435 1.2773755 0.35791218 -0.010796282 -0.5889172 -0.12515137 0.17237315 -0.094962366 -0.38529998 -0.08554869 0.07624733 0.14162466 0.2697227 0.029362824 -0.10013122 -0.59036934 -0.100957006 0.24840885 -0.15835164 0.39848307 -0.26094967 0.17303382 -0.19842468 -0.039428476 -0.24506155 -0.2087314 -0.14126313 -0.13843504 -0.11453097 0.15369509 0.080686085 0.47161362 -0.055064753 -0.43886104 -0.075296685 0.20690092 0.15760624 0.11299224 -0.38421038 -0.09151928 -0.5045686 -0.0644088 -0.058683634 -0.31391647 0.27083242 0.8270616 0.30722243 -0.26801294 -0.048943587 0.34984204 -0.017785892 0.3142971 0.072014086 0.024800355 -0.07659091 -0.58987695 -0.10891104 0.2460355 0.10584208 -0.3125537 0.034527104 0.047520667 0.15296161 0.10041738 0.026620844 0.25676647 0.4035605 0.018180156 -0.37292144 0.5623501 1.0028358 -0.33998173 0.55710244 0.3418938 0.21998073 -0.49226794 0.5255411 0.3527993 -0.20522286 0.20595211 0.34052047 0.45630994
d 0.0619603 0.0041004927 -0.098644115 -0.035798557 0.36002952 -0.45915776 0.5758919 0.69395256 -0.32646722 -0.5210262 -0.2864481 -0.42172474 0.35691056 0.35556227 -0.17999667 0.34427294 0.07409931 -0.16678838 0.2150416 0.10509449 0.28276289 -0.16691425 -0.0039019636 -0.2424404 0.002928104 0.07787299 -0.63436776 0.5183285 0.6186705 0.6035247 0.2113816 0.262998 -0.08079645 -0.87356097 -0.12957181 0.35514194 0.08110976 0.035232726 -0.20210528 -0.2065971 -0.3578386 0.2786082 0.17125697 -0.30823165 0.12830369 -0.16122182 -0.19929631 -0.104594395 -0.15691277 0.21361354 -0.3262603 0.39999196 -0.07626993 -0.16083588 0.6081899 0.16658352 -0.34420484 -0.045824036 -0.20293605 0.13679874 -0.27904513 -0.5987881 0.5907551 0.5908067 -0.052933354 -0.12886718 -0.31050876 0.3360601 -0.037937943 0.7774982 0.34062016 0.29990914 0.05692131 -0.16475435 -0.051876627 0.0827303 0.26893088 -0.03849734 0.026211847 0.12326224 0.028697377 0.08303176 0.03455002 0.55064243 0.2563683 -0.19180994 -0.03930781 0.51542425 0.666289 0.0062882155 0.39154604 0.042609856 0.08121699 -0.5027049 0.32039815 0.3439238 -0.024729893 -0.13207324 1.0699846 0.09993751
l -0.08696618 0.1172898 -0.35318467 0.6206421 0.3386418 -0.52592117 0.2629364 0.5748626 -0.4453427 -0.7170782 -0.20570345 -0.45192403 -0.18688655 0.36655992 0.40302792 0.2926162 0.285127 -0.7043307 0.3045832 0.34968188 0.15547748 0.33676267 -0.47749755 0.05875271 -0.031308103 0.038695615 -0.8252524 0.81594294 0.16475582 0.24460459 0.025109956 -0.14323987 0.16202864 -0.20094287 -0.20156862 -0.035429053 -0.3933505 -0.013507596 -0.10459666 -0.51352733 -0.19063044 0.1466074 0.0045016594 -0.3044981 -0.14148133 -0.25326294 -0.2543616 0.35285702 0.2769946 0.68256813 -0.21248809 -0.110207826 -0.26864544 -0.11836046 0.23758015 0.076075606 -0.4110537 0.09741003 -0.30136845 0.07027168 -0.16534968 -0.5671703 0.73209554 0.60059875 0.18106708 -0.21539062 -0.17992613 0.26061577 0.053764667 0.45767212 0.040691786 0.09814111 -0.26095274 -0.57522357 -0.16246018 0.22913295 -0.13124374 -0.530996 0.0052118115 -0.03723961 0.12745996 0.17300668 0.019356439 0.55849725 0.435977 0.032328572 -0.25710785 0.75893253 0.7382667 0.10561923 0.06933598 0.3202327 -0.014358369 -0.37195694 0.32709697 0.30813196 0.074916415 -0.019489577 0.33508036 0.41960466
u -0.085974276 -0.65458363 -0.08358607 -0.030965682 1.2128253 -0.40798143 0.3483645 1.5319067 -0.4740874 -1.0891299 -0.5521077 -0.657528 -0.42593184 0.11193771 -0.3567126 0.08289296 0.5408607 -0.16464254 -0.30387747 0.65559316 -0.038477685 -0.13485219 -0.18312311 0.6437927 -0.070732996 0.042024776 -0.037136234 0.1113775 -0.2074609 0.32999307 0.39374658 -0.47932515 -0.043776795 0.033090014 0.31484857 -0.471232 -0.812025 -0.5935567 -0.165014 -0.8299311 0.004044051 -0.08528232 -0.028452272 -0.25166914 0.861297 0.1791717 -0.25741398 -0.2074345 -0.18753585 0.30734697 0.003962895 -0.7616293 -0.53847134 0.12397118 0.045566566 -0.08792587 -0.23429179 0.15045694 -0.35627633 -0.28963137 0.29382056 0.26026833 0.2049287 0.2573342 -0.46982762 -0.31170562 0.044418946 -0.31169948 0.13216038 -0.27588752 0.29538333 -0.32921576 -0.14462487 -0.098423585 0.039280366 -0.36820292 -0.023953412 -0.11243245 -0.4443109 -0.13262802 -0.32940623 -0.080801316 -0.35106215 0.3584324 -0.12998815 -0.3416277 -0.20173779 0.5348803 0.25916576 -0.5227688 0.21098837 0.6122698 -0.30024672 -0.56533825 0.45877835 0.8428774 0.49341536 -0.370658 -0.10107757 0.06622061
m -0.006985304 -0.27409142 -0.28499576 0.5340533 0.23423566 -0.43261743 0.020002412 0.4474754 -0.5212119 -0.3590428 -0.49706647 -0.39528146 -0.19043653 0.015787994 0.23385206 0.5466342 -0.0476174 -0.11115309 0.16577151 0.39458907 0.37182775 0.1420852 -0.22847031 -0.0034762567 -0.07976239 -0.04658072 -0.5108116 0.434215 0.0127186235 -0.03875085 0.19250377 0.08122932 0.11108404 -0.45527267 -0.305536 0.25655478 0.09299133 0.28468418 -0.3881309 0.22662579 -0.010977301 -0.18543777 0.025006294 0.1220696 0.092983425 -0.12505822 -0.21149088 0.08010839 0.27009514 0.034176797 -0.8363302 0.06297563 0.09380724 0.3778264 0.5262161 0.1269015 -0.21744852 0.06263753 0.24635327 0.21685179 0.32996505 0.11679471 -0.06847732 0.369703 -0.004262396 -0.42873982 -0.15179047 0.21772869 -0.2038527 0.13604824 0.14557962 0.14640401 0.4704927 0.044102598 -0.077720486 -0.10436281 0.236254 -0.29371324 -0.21568047 -0.14386843 -0.15192544 -0.08610358 -0.031498726 0.66401005 0.05610307 0.008474328 -0.44234964 0.5530333 0.65127695 0.253198 0.3299274 0.5887717 -0.20921046 -0.071157716 0.4661675 0.6428964 -0.18646511 0.07197335 0.47362152 -0.084956154
c -0.15298639 -0.023618592 -0.28556973 0.10944374 0.6766063 0.022731572 0.3911418 0.52815485 0.26292658 -0.17277102 -0.2998273 0.07073575 0.14841974 0.3976054 0.116934314 0.49709785 0.19909617 -0.411835 0.23224185 0.5437362 0.034874678 0.22091356 -0.2519121 -0.1892373 0.17741193 0.2599421 -0.45122638 0.20259388 0.407561 0.60285944 -0.14873515 0.42818496 -0.2907752 -0.6256168 -0.063836776 0.08806853 0.054818835 0.016036095 -0.10999729 -0.055953182 -0.22093199 0.20073567 0.064549506 -0.06532781 0.2693266 -0.18151213 -0.46830484 -0.14344914 -0.40560514 0.34222394 -0.15339677 0.14826582 -0.60595715 -0.1368536 0.499163 -0.4744123 -0.3577325 0.115162686 -0.07271228 0.11610393 -0.097184084 -0.56991875 0.21016659 0.8884225 0.15001608 0.21149315 -0.10856471 0.48185655 -0.0975405 0.3121481 0.08721176 0.018125052 0.1219189 -0.36371443 -0.24419534 0.0011971322 0.5714159 -0.19061613 0.13416508 -0.040449183 -0.53071433 -0.27759537 -0.09460605 0.4003576 0.39566448 -0.34056473 -0.2924894 0.5357507 1.0432104 -0.380665 0.47993597 0.8710112 -0.08324934 -0.55069786 0.5912164 0.95322716 -0.1348897 -0.13084587 0.69608575 0.22410238
f 0.3254848 -0.55050474 -0.36064014 -0.0792267 0.36207315 -0.31012842 0.3499843 0.65113866 -0.009637131 -0.44057077 -0.6820421 -0.46936947 -0.5787323 -0.004244889 0.16180284 0.63929516 0.23165809 -0.34024858 0.18737109 0.507858 0.44158316 -0.04028033 -0.623936 0.15340735 -0.11791483 -0.08411762 -0.26082772 -0.2729685 0.3417479 0.44782057 0.17441745 0.16435876 -0.0259786 -1.1054435 -0.2701043 0.4409898 0.08263403 -0.29963356 -0.5323314 -0.13309634 0.022989871 0.22451286 -0.102077685 -0.06916268 0.66045016 0.28446394 -0.55086434 -0.10610451 -0.31690857 0.094347045 -0.5124997 0.27552614 -0.4102117 0.46123275 0.48422086 0.11246571 0.026367044 0.24325101 0.23981886 0.298313 0.04181321 -0.18497968 -0.27370104 0.4834464 0.18004608 -0.18053026 -0.45413172 0.47454524 0.07357999 0.6292147 0.11313708 0.026841296 0.10470753 -0.4680035 -0.29675677 -0.42412448 0.034227584 0.0024038753 -0.13110252 0.2606622 0.14928077 -0.027755644 -0.16869053 0.26597786 -0.03747761 -0.0657917 -0.3563857 0.36436194 0.7216936 -0.28932223 0.65635765 0.42875132 -0.31079325 -0.31804195 0.16982959 0.64116406 -1.0208449 0.23013943 0.22155045 0.24985273
w -0.21219704 -0.08362796 -0.19774881 -0.0602857 0.36642015 -0.6038919 0.6194793 0.6218385 0.103066236 -0.2420597 -0.25336897 -0.2415349 0.12653038 0.2852593 0.018850619 0.6221351 0.508078 -0.0153596 0.46879968 -0.5205305 0.3464457 -0.03028744 0.24834563 -0.4020883 0.04939525 0.10286965 -0.6393607 0.5056615 0.2439602 0.88923275 0.8144826 0.124684975 -0.23506145 -0.58947515 -0.18929973 0.046267632 0.07277458 -0.06486131 -0.13936093 -0.44360527 -0.20370057 -0.11533582 0.084819205 0.029161317 0.13238135 -0.14492384 -0.42937562 -0.24207804 0.1846573 0.1632121 -0.27242166 0.15753534 -0.3238288 0.119240604 0.558162 -0.30002263 -0.48523793 -0.056674957 -0.24215533 0.21067712 0.33488604 -0.024400363 -0.39147246 0.5974716 0.6757307 -0.2015544 -0.33527964 -0.0833635 0.043947197 0.29881978 -0.037962083 -0.007226356 0.49830124 -0.112067565 0.0906114 0.38748628 0.63779086 0.24094686 0.41102347 0.2530016 0.107338406 -0.39010337 -0.40349346 0.15018925 -0.13096146 -0.23870265 -0.42524165 0.40739572 0.34439135 -0.12325597 0.21120444 0.6870535 -0.34379032 -0.14593482 -0.21646804 0.75885403 -0.86488897 -0.3583732 0.10956669 0.025206242
y 0.18596259 0.095795386 -0.30316156 -0.10082537 0.4721222 -0.18375134 0.4791643 0.88687813 0.49687156 0.09370633 -0.21737917 0.20834695 0.46312663 0.40794095 -0.06282397 0.16393957 0.0038043908 -0.52640116 0.07885859 0.51995283 0.2782742 -0.028465414 -0.8082243 0.3336921 -0.20843428 0.01824848 -0.2087401 -0.11556421 0.14827581 0.21144176 0.046606053 0.06275808 -0.30715695 -0.7331775 0.035531886 0.26446417 -0.4770908 -0.13822748 -0.09087253 -0.7073937 -0.3616683 0.34339023 0.13964339 -0.41403413 0.16401652 -0.27999666 -0.19266115 -0.08986884 -0.21181998 0.38512477 0.07977641 0.14644517 -0.55851614 -0.13016883 0.060746297 -0.112022184 -0.41386753 -0.037162438 -0.7023892 -0.2837051 -0.19888008 -0.7595224 0.84718347 0.10258464 -0.31215838 -0.2948818 -0.6734799 -0.08281821 0.26756114 0.36248603 0.16288653 -0.08831508 -0.3996318 -0.14123206 -0.33873302 -0.29080144 0.04816632 0.013791582 -0.36976442 0.26896667 -0.1573333 0.28135958 -0.39961234 -0.10165318 -0.06362882 -0.07294152 0.41244787 0.2808521 0.27836767 -0.1712284 0.21642207 0.16796432 0.05667002 -0.0073351855 0.53669316 -0.2782765 0.34137422 -0.35690504 -0.15455836 0.17779912
g 0.44668767 -0.32143494 -0.1552688 0.33377934 0.84415615 0.19908626 0.8160495 0.690225 -0.13164952 -0.19687578 -0.34888285 -0.51562357 0.27566397 0.26339307 -0.06294627 0.40449417 -0.0056014145 0.11056253 0.46150225 0.27387583 0.359995 -0.088362046 0.38661912 -0.22422154 0.17461012 0.16671881 -0.4517385 0.48469377 0.17436829 0.44516718 0.27854365 0.37271178 0.050987955 -0.9107227 -0.14398234 0.37290752 0.35163498 0.17884932 -0.11185357 -0.8234025 -0.5204188 -0.15340047 0.6189458 0.17960939 -0.018213326 -0.47119462 -0.30182475 -0.48692083 -0.26975143 -0.08002052 -0.22633195 0.80261433 -0.3804552 -0.16887501 0.67992157 -0.45674622 -0.66463643 0.26270035 0.36886716 0.32392463 -0.09514381 -0.56951505 0.46169925 1.1377091 0.20952049 -0.09066992 -0.13988425 0.7272144 -0.17334604 0.58016616 -0.052505866 0.113931045 0.06444043 -0.06230983 -0.35707858 -0.17787915 0.3020848 -0.35049927 0.2857276 -0.097693 -0.23305005 -0.32153872 -0.09822251 0.35953704 0.26901665 -0.28087956 -0.33726287 0.38976645 0.6059674 -0.35330167 0.19059695 0.3994668 0.074731745 -0.16462426 0.20568363 0.5846153 0.0041189273 0.06438933 1.0031048 -0.17157233
p -0.22188495 -0.23048754 -0.027071284 -0.24795438 -0.07427617 -0.326727 0.2081896 0.24506375 -0.45159996 -0.29960573 -0.42495102 0.062143534 0.23442441 0.048339408 -0.1961495 0.5901118 0.13892706 -0.38711274 0.5557675 0.4798746 -0.09108111 0.36798882 -0.6142858 -0.06642288 -0.08127335 0.2750847 -0.4882248 0.20396079 0.13504022 0.3094478 -0.44309282 0.44492966 -0.034434967 -0.62111056 -0.46530196 0.5203691 0.066371664 -0.6235047 -0.41419724 -0.12870869 -0.11827249 0.31243768 0.3168435 0.09198757 0.46359295 0.1689575 -0.5056468 -0.025460776 0.23398197 0.012425569 -0.5897849 0.009798327 -0.14312577 0.27226022 0.6207271 0.30064324 0.1173074 0.40921384 0.6458549 0.40756217 -0.0077553126 -0.2581895 -0.09386838 0.22185075 0.0041789976 -0.087948985 -0.5862874 0.121870644 -0.12882988 0.15082489 0.041798227 -0.12370844 0.20891702 -0.1656484 -0.046802666 -0.18381286 0.64365095 0.10870017 -0.348371 -0.1052287 -0.29399773 0.04523021 -0.11111152 0.7126986 0.21777417 -0.4128745 -0.026275424 0.36400408 1.0228395 -0.122987546 0.6899386 0.47850454 -0.07426529 -0.3743238 0.526287 0.41992846 -0.44297555 0.32667822 0.6805595 0.47628194
<s> -0.94494045 0.02694557 -0.5424424 -0.62464434 0.43025902 -0.34112662 0.038370535 -0.9083686 0.22115967 0.08949853 0.34850144 -0.36948538 -0.6241327 -0.069682315 0.8606168 -0.035283275 0.2961029 -0.07432611 -0.18969534 -0.75144 -0.25006163 0.13272683 0.5226114 -0.58843124 0.023354273 0.3116719 -0.27516663 0.15259767 0.3561815 0.08916643 -0.26455823 0.09395946 -0.43365434 0.10285405 0.07612782 0.17366242 0.7549599 0.67442274 0.194266 1.0501848 0.40072867 -0.55912507 -0.7940388 0.46528086 -0.1822252 0.26252854 -0.02488015 0.22115313 -0.10919534 -0.51318896 0.16792221 0.15898222 -0.39000154 -0.321678 -0.14941457 -0.34053496 0.340979 -0.089657836 0.5883772 0.4936365 -0.27876493 -0.56321496 0.22781637 -0.016642075 0.48992822 0.42538694 -0.18766215 0.7906222 -0.0534894 0.30262798 -0.4536641 0.1890727 -0.009969638 0.011186084 -0.3854546 0.10247041 -0.39147824 0.36373332 0.2161712 0.2554354 -0.48530322 -0.077471904 0.109919935 -0.31040746 -0.57950974 0.14129052 0.43820885 -0.06603896 0.2404738 -0.17275739 0.37438953 -0.22584474 0.39600757 0.12746869 0.649447 -0.2647719 0.83406967 0.11001329 0.14581071 0.3143337
</s> -1.5244371 -0.66488796 -0.4049246 -0.020808768 -0.9028992 0.9871554 -0.13529442 -3.1306572 0.39796948 1.2688444 1.0193503 0.16799116 -0.8393872 -0.509318 1.5976562 -0.54557806 -0.5293361 -0.54003066 -0.26431656 -0.30633256 0.04153792 0.43438035 1.2524184 0.69169617 0.51520556 0.14171246 1.5656838 -0.31085074 -0.27428755 -1.3562754 -0.81362605 0.06256723 1.023163 1.2254771 -0.046492003 -0.40599984 -0.36952397 0.5597964 0.06334005 1.4473124 0.3642321 0.5092161 -1.0930693 0.77590513 0.1726229 1.4460223 0.29119223 0.954507 0.20927364 0.08330798 0.5842579 0.12284229 0.8693969 0.11231614 -0.7950143 0.29895344 1.4481984 0.2024748 1.3741413 0.022666683 -0.9730557 0.64605546 -0.8599018 -1.2577279 -0.36224517 -1.2134973 -0.79497886 1.4417436 1.1447165 0.6251435 0.30164778 1.1469258 1.2111546 0.77168775 -0.6340952 0.025952946 0.8145025 -1.0351666 0.12772663 -0.9431201 -0.6084978 -1.5168688 0.6942597 -1.1911912 0.6312033 0.23763503 -0.91363716 -2.33746 -0.6126417 -0.4285804 0.23312633 -0.081257 -0.8998373 0.8645393 -0.8421174 1.1223798 0.4979683 -0.2419345 -0.19777928 -0.78478444
, -0.8375072 0.06390681 -0.3778365 0.5460083 0.9187977 -0.94492507 0.910804 0.6952621 -0.5870441 -0.94745725 -0.36718938 -0.9511684 -0.6052473 0.46685582 0.64100176 0.49425846 0.38016462 -0.7759234 0.34183982 0.32578114 0.42464525 0.06209791 -0.22937995 -0.082712635 -0.07747136 0.63438773 -1.286908 1.3449867 0.47186184 0.619471 0.07372326 0.09679009 0.1816985 -1.5889089 -0.11041096 -0.0962514 0.09074555 0.22043967 -0.43030638 0.03891335 -0.6008937 0.05168211 -0.14513463 0.088488355 0.31242272 -0.027192056 -0.6807522 0.13138397 -0.0289265 0.62577987 -0.08352242 0.25169322 -1.0993699 -0.041643564 0.27291304 0.0018123213 -0.16716614 0.18582547 -0.16469526 0.16864422 -0.3514129 -0.76960605 0.684039 0.62224925 0.20473726 0.023897195 -0.5260034 0.9339923 0.5024818 0.81327087 -0.21870537 0.13011232 0.07550692 -0.379158 -0.6086055 -0.0015550182 0.4174798 -0.25158417 0.010257211 0.32539624 -0.7551675 -0.35671046 0.2729833 0.43390837 0.45720777 -0.14600894 -0.16668053 0.29043996 1.2424909 -0.3281664 1.1150868 0.109726906 -0.119422264 -0.24218296 0.6053104 0.26763153 0.5522421 -0.035530813 0.606971 0.76903623
b 0.60938144 -0.30343926 -0.40316916 0.36289164 0.124202326 -0.22278959 0.025594711 0.6680624 -0.06280924 -0.44195837 -0.33979622 -0.20055187 0.6171858 0.6032258 -0.16525729 0.2288551 0.45085254 -0.86659753 0.006758802 0.0040665832 0.44363168 0.1012469 -0.5815431 -0.5075057 -0.28700876 -0.06305186 -0.7074139 -0.12935024 0.863283 0.2687712 0.1806932 -0.13736469 0.40660694 -0.43501884 -0.2811344 0.47720808 -0.18681517 0.44743338 -0.09471899 -0.7562106 0.10394534 -0.028179523 -0.4282179 0.071440086 0.38272566 -0.09299468 -0.6107413 -0.050445303 0.003761325 0.07639011 -0.43668592 0.48839462 -0.124382615 -0.03610314 0.3483554 0.050532304 -0.76071477 -0.13054453 -0.16546123 -0.030334389 0.32122654 -0.13003027 0.19962503 0.2466423 -0.047866862 0.09787629 -0.3857561 0.20146753 0.5492344 0.28230488 0.23723987 -0.00899406 -0.37700897 -0.5223247 0.0190371 0.34660202 0.31367168 -0.2419366 0.06842148 0.4309241 -0.0030165038 -0.2895569 -0.2189248 0.08713008 0.30696756 0.23246805 -0.47878078 0.46470815 0.91962314 0.010900994 0.7944288 0.54344463 -0.48364428 0.504186 -0.47046822 0.08338343 -0.5124298 -0.13492379 0.04577963 0.13599758
v -0.20168129 -0.32081535 -0.04836084 0.20028356 -0.12589872 -0.5993352 0.5531341 0.7304919 -0.43372717 -0.27903417 -0.17851068 -0.51867753 0.345653 0.08983062 -0.12713009 0.37143916 0.4572181 -0.2987668 -0.13980292 0.09329159 0.45848006 0.09569764 0.2522223 0.13832626 -0.17775558 -0.2121586 -0.1420593 -0.04652534 0.6787456 -0.04934573 0.13678777 0.060128547 0.16548805 -0.3787354 -0.23366758 0.33670306 0.4168623 -0.31717232 -0.40065756 0.06931257 0.031103315 0.36167833 0.08059162 -0.38702196 -0.06508902 0.0959484 0.1300759 0.26159084 -0.46662217 -0.09869654 -0.78628707 1.0919137 -0.023805212 0.65084344 0.5644474 -0.04321211 -0.20601662 0.4311479 0.14757325 0.2316539 0.29911453 -0.20813961 -0.29951316 0.57799685 0.15959495 -0.70947236 -0.7921786 0.15679234 0.33093494 0.6151759 0.11986275 0.08098442 0.09588986 -0.3485683 -0.32388195 0.4269723 -0.009787313 -0.18769485 -0.17260836 0.5022455 0.4369445 0.06323135 -0.33597726 0.7192411 -0.3153351 -0.054208674 -0.3761133 0.84439945 0.7761776 0.098015614 0.51042855 0.42710695 -0.3160981 -0.51541114 0.6142163 0.59341466 -0.22094253 -0.29105982 1.0402107 -0.16765684
. -0.19038998 0.55199987 -0.113635026 -0.07288248 -0.28199708 -0.09787276 -0.3190883 -0.31779444 -0.32679698 0.5982453 -0.6931399 0.91594666 -1.0555048 -0.96502644 -0.3650182 0.15062918 -0.45097926 -0.41632187 0.13861911 0.89948326 -0.6353797 -0.66633236 -1.212279 -0.054524716 -0.37251478 0.6587897 -0.99831754 0.53956217 -0.04506117 0.40554568 0.30980107 0.13987945 0.014369753 -0.76107514 0.21925656 0.1717504 0.18548025 -0.25492173 -0.45194316 0.23233117 0.07492463 -0.3175568 0.5489149 -0.17901042 -0.108260624 0.0063853124 0.55700886 0.20842233 -0.7577 -0.36548358 -0.5268546 0.4903564 -1.0080185 0.5756877 -0.041942086 -0.7547603 0.048414532 -0.26594958 -0.42301896 -0.36625823 0.3739983 0.1643452 -0.2419633 0.26887932 0.1286993 -0.5279531 0.75506866 0.10764386 0.1290799 -0.6455773 -0.4923673 -0.44512168 -0.040995408 -0.22745453 -0.26464722 -0.56459486 -0.49738058 -0.049705807 0.44651163 0.061506953 -0.56646043 -0.54407245 0.72294754 0.62932014 0.3005817 -0.5436107 -0.37169522 0.18555842 0.0938281 -0.20324105 0.6767969 -0.53602 -0.27222273 -0.38240078 -0.45647034 0.2809711 0.31070095 0.6090005 0.12602642 -0.030623715
k 0.13835754 -0.09740607 -0.07579925 0.57833594 0.16771339 -0.20209199 0.7396246 0.7291887 0.0071492526 -0.09530429 -0.14896506 -0.15202048 -0.35774314 0.13633601 0.63313484 0.27261084 -0.024953779 -0.1393294 0.32905233 0.1285462 0.7322109 -0.5481041 0.5522643 0.0018679894 -0.47581127 -0.17486627 -1.0030962 0.55999905 0.33826956 0.7668163 0.942515 -0.30584478 -0.011016488 -0.50902325 0.25414863 -0.0224697 -0.9152066 -0.30002025 -0.39274988 -0.9918516 -0.1842553 0.011803258 -0.21454352 -0.34495735 0.3484112 0.24325323 0.04655506 0.25098374 0.38212925 -0.018995078 -0.08054168 -0.21091875 0.37375605 0.38118976 -0.26032567 0.33957034 -0.16108906 -0.32432827 -0.024463182 0.009736391 0.06460792 -0.40451998 0.5480215 0.22700381 0.3677014 -0.29202655 -0.14539146 0.63634026 -0.5340513 0.38611415 0.13126528 0.6648186 0.53812057 0.034165334 0.13437013 -0.051892765 -0.16311124 0.47484612 -0.12863909 0.12788902 0.5686605 0.18571739 -0.16270314 0.014486011 -0.20023648 -0.4558339 0.10379915 0.5039342 -0.105433464 -0.0053115785 0.019909713 -0.14234206 -0.21638355 -0.29989994 0.47594526 0.14869362 -0.19604722 -0.14524582 0.39641732 -0.036571726
; -1.1719012 -0.081773825 -0.6743783 1.0525136 1.30845 -0.9283853 1.176897 0.6202208 -0.5146495 -1.0735383 -0.39092532 -1.2096251 -0.5486847 0.6415837 0.8221645 0.7353166 0.8218212 -1.5225178 0.1386734 1.0525644 0.14969864 -0.14226319 -0.98150986 0.16467972 0.027532255 0.6195609 -1.429449 1.3282018 0.45830712 0.75602204 0.47499022 -0.20676433 0.15917902 -1.801377 -0.13744399 -0.07371134 0.28150794 0.55565435 -0.630206 0.33869746 -0.6786331 -0.0900905 -0.38459352 -0.05537143 0.4223071 0.20824781 -0.86009574 0.18331413 -0.20683716 0.8273969 -0.16782607 -0.09833703 -1.5932143 -0.031676546 0.37601763 -0.16552623 -0.08141744 0.008029991 -0.641594 0.039049983 -0.2755265 -0.75353736 0.660784 0.89031345 0.024198493 -0.2908997 -1.0586178 1.1307994 0.9961959 0.98568517 -0.09099847 0.021251906 0.20332986 -0.61102265 -0.60700417 -0.08887218 0.5939804 0.0038544212 0.017003085 0.508132 -1.2459654 -0.8703938 0.032485392 0.58466333 -0.15168512 -0.00501036 -0.48899227 0.5765519 1.364448 -0.42000186 0.9698526 0.42092788 -0.27806318 -0.276876 0.5666375 1.0662795 0.14670573 0.054412536 0.33107713 0.84665084
" -0.104352444 0.69570094 0.8380984 0.35733116 -1.596186 0.43315554 -0.58307326 -0.7688036 -0.6067985 0.37034944 1.4096932 -0.3010329 1.7019339 0.24774493 -0.15777422 -0.96355563 1.1791109 1.6444522 -1.8181084 -3.7018683 0.3424803 1.315016 1.2003326 -0.30147758 -0.16915493 -0.88604575 1.1588602 -0.7726774 -0.98925114 -1.0166134 0.61477625 -1.2963116 0.64534736 1.966964 -0.5026152 0.1008622 0.28175643 -0.07716976 0.47609112 0.19482206 0.56677634 0.6371861 -0.11083212 0.44283065 -1.5499629 -0.89171547 0.3593374 -0.54739434 0.995714 0.051581074 0.8845949 -0.5678513 0.44645253 -0.34967408 -0.76160085 0.42036906 0.5801512 0.21349728 -0.10434078 -0.54683197 -0.3473135 0.99184144 -0.30794114 -1.4191744 -1.3214089 1.5076418 0.22189137 -0.5795288 -1.3088348 0.0051697255 0.42291877 0.6064049 0.533981 0.96214324 0.67926455 -0.5872826 0.4393975 0.60033166 -0.901432 -0.3806275 -0.8873153 0.74677354 -0.2830046 -0.3937824 -0.890113 0.84108186 1.3830987 -1.3446051 -1.7318522 1.0114042 -0.7860822 -0.72344595 0.7770298 1.0477021 0.64960337 -1.8152703 0.73694867 0.079634525 -1.0157015 -0.06724994
x -0.97842103 0.38805136 0.58048993 0.6705231 0.3357373 -0.08187882 0.88351154 0.28091303 -0.31137073 -0.6685264 -0.08682153 -0.08046743 0.64812344 -0.047800757 -0.61291146 0.4303513 0.45450395 -0.79528695 -0.29525983 0.9036829 -0.21248078 -0.044544473 0.23779292 0.3991874 0.30323464 0.1553376 0.16318579 -0.65795815 0.6689858 -0.105451465 -0.40916356 0.46850264 0.36096382 0.597075 0.24851772 0.44642788 0.4992974 -0.28616622 0.12678526 0.5940553 -0.2672972 0.5240035 0.88321143 -0.82117873 0.32860643 0.24882865 -0.18515277 -0.2937336 -0.12712976 0.073142394 -0.3874649 -0.36003226 0.39620236 -0.011637369 0.6347077 0.47449872 0.8096224 0.6073356 0.6145293 0.19120753 -0.0794183 -0.34887066 -0.18088327 0.051525638 -0.37253517 0.21089616 -0.6004922 -0.57734823 0.46169615 -0.43293503 0.17797732 -0.89736533 -0.38836905 -0.06642527 -0.57390743 -0.5373512 -0.32749262 -0.42721635 -0.6382847 0.1873869 -0.05540647 0.11041869 0.045401994 0.79414177 0.65405375 -0.33028606 -0.00981002 0.70543325 1.2551346 0.11071652 0.4844892 0.97934544 -0.17030907 -0.6410724 1.2325029 0.47690433 0.2971847 0.14785956 0.90372866 0.3959121
' -0.4458362 -0.12390877 0.08846347 0.6053083 0.024889879 0.13961169 1.1092253 -0.9343472 0.20348528 -0.1288943 0.3167887 -0.91503584 0.15284431 -0.6948228 -0.42975304 -1.0985317 0.09710117 -0.5683828 0.6894719 -1.7231668 0.5087705 -0.9962406 -0.560752 0.07978192 -0.70417535 -0.26568702 -0.15150285 -1.1065654 -0.3940633 -0.47385445 1.1673063 -0.54764014 0.13392797 0.5484065 0.23855595 -0.53713816 -1.0835749 0.1120085 0.43615228 -1.3583473 -0.591179 -0.9673193 0.69478184 0.17147286 0.07441071 0.047189094 -0.1027101 -0.13674545 0.91821676 0.26389247 -0.35153946 -0.8758875 0.45216104 0.9622853 -0.6533161 0.79902136 1.3742031 -1.3559841 -0.3600471 0.723524 0.6243 -0.67358756 1.8877723 0.3905301 -0.0754144 1.2640673 -0.28474116 -0.0019876154 -1.6874702 -1.050994 0.039159976 0.6521466 1.4104046 0.6198557 0.6903617 0.0038103687 0.41045994 1.0014989 0.72932523 -0.8238994 -0.16888502 -0.24932244 -0.40586177 -0.39032832 0.40864503 -1.5063818 0.29551044 0.06486116 0.43984208 -0.0018851156 0.9364108 -0.030546376 0.70306903 1.3358171 -0.17493336 -1.0781702 -0.36690426 -0.41306758 -0.80497074 0.24337138
q 0.7844221 -0.03946409 -0.3957022 1.2721316 -0.19202104 0.9009552 0.04752491 -0.2971449 -0.38789845 -0.45342356 0.111673325 -0.2580023 1.4979916 0.61358994 0.006967935 -0.07490617 0.27561733 -1.2091912 -0.15941349 -0.3014825 -0.015740737 1.4655908 -0.08502514 -0.69668895 0.50682205 -0.5679246 0.29370067 -0.503335 1.1024724 -0.7138638 -1.8746872 0.7112128 0.46942556 0.04331062 -0.879026 0.44463474 -0.14436506 0.061400145 -0.00035647125 -1.6900986 0.5226732 0.26152137 0.29283592 0.2764065 0.43410948 -0.56317276 -1.1499946 0.13670774 0.09245424 0.46427804 -0.40780044 1.0624559 0.4069776 -0.32474986 0.25391048 -0.24628727 -0.7255536 0.7351554 0.37650928 -0.006713372 -0.006156137 -0.95837706 1.2271831 1.0690951 -0.31353894 0.51287806 -0.36349332 0.5947244 -0.46495873 0.27598503 -0.13477278 0.2800222 -0.80866814 -0.8371254 -0.18422651 0.0539721 0.302856 -0.19967397 -0.11337574 0.37244183 -1.0376523 -0.5555035 -0.09309307 1.0243089 0.40105388 0.4125649 -0.48134273 0.91975784 0.9266397 0.89586693 -0.003349744 0.63968927 -0.57755744 0.5690903 -0.5957549 0.06651355 -0.7575789 0.4438923 0.78040266 -0.2178169
j 0.69538367 -0.39509863 -0.37390327 0.9283927 -0.22908866 0.125563 -0.0057316227 -0.34470484 -0.47956476 -0.47267392 0.01205286 -0.62146646 0.21689802 -0.034226228 0.3421708 -0.060014196 -0.294401 -0.6529224 -0.41478366 0.01723638 0.05161924 0.30225927 -0.25521702 -0.061035763 -0.012527997 -0.8574597 0.2384825 -0.46229658 0.0467792 -0.639813 -0.4113936 -0.35154212 0.2512678 0.28950322 -0.30180368 0.3402764 -0.12407936 0.38441622 -0.4048564 -0.32596374 0.29010457 -0.10442231 -0.13277932 0.0768089 0.568528 -0.016380742 -0.44696584 0.4242913 0.20328209 0.24452229 -0.78654957 0.118691854 0.8432483 0.30029052 -0.023868926 0.6834611 0.0010510342 -0.22285725 -0.17715833 -0.07558141 0.4176804 -0.09256083 0.9390174 -0.18370126 -0.5333149 0.090271264 -0.39294648 0.19964743 -0.6076983 -0.18116598 0.19430956 0.422392 0.2115757 -0.0689622 0.40110224 -0.24911049 0.24560912 0.4553605 -0.48819363 -0.18081203 -0.49671042 -0.18146922 -0.0251305 0.89787436 -0.1833561 0.20600823 -0.27055246 0.60129726 0.046738558 0.6621279 -0.45982242 -0.18880032 -0.0611606 0.2026591 0.16487736 0.23649204 -0.06360391 0.16793647 0.5570101 -0.46653715
z 0.4737441 0.09164475 0.27043217 0.5727599 0.12277598 -0.6801945 0.19740789 1.054362 -0.30423686 -0.62652147 0.1157693 -0.34955975 0.36378545 0.7357251 -0.21690635 0.26872346 -0.05271207 0.83842564 -0.727237 -0.43074262 -0.20095351 -0.10406746 -0.71491766 -0.15489225 0.4760815 -0.63412446 0.54665774 -0.46281996 0.16600369 -0.455144 0.09223828 -0.61309665 -0.027950548 0.7936866 0.38473952 -0.6906114 -1.1942365 0.20355298 0.8148699 -2.082323 -1.3112332 -0.009058608 0.28783315 0.060535673 -0.6644226 -0.78081465 -0.21516378 -0.26355234 0.43522754 -0.11675284 -0.19365355 0.20155312 -0.09090366 -0.32283288 0.46511045 0.84173447 -0.5325555 -0.0470565 0.39327535 0.50293726 0.11270462 1.211747 -0.7825655 0.645177 1.082357 -0.14142627 0.343775 1.1299331 -0.79109025 1.2521713 0.23158886 1.1675996 0.4382481 0.42505887 0.28607696 -0.1042521 0.5298443 -0.26514924 0.27394018 0.13599926 0.85156816 0.37370816 0.3262774 -0.48114994 0.057848103 0.6762881 -0.09360279 -0.3240352 -0.17065623 0.11724044 0.9035227 -1.5176181 1.2742546 0.36687362 0.10964077 -0.52293307 0.68479264 -0.28965315 0.43386745 0.26913625
? 0.61157686 1.5192454 0.7689174 0.80084735 -0.5004045 -0.121834785 -0.25209925 0.9657839 -0.8786337 0.04469705 -0.23310614 0.49580452 0.0024567998 -0.47734788 -0.7452668 -0.2810557 0.9284607 0.18649247 -0.66444093 -0.6771921 -0.6399663 -0.5899283 -1.2797734 -0.6192199 -0.61589414 0.19624259 -1.3721755 0.27284586 0.16902342 0.66923016 0.89874804 -0.55976063 -0.15922661 -0.5956579 -0.03497563 0.17214784 0.4881066 -0.88713616 -0.07511599 -0.55528426 0.5316434 -0.7553644 0.87171 -0.046398055 -0.97855335 -0.9606282 0.59881985 -0.61258614 -0.65017784 -0.4752472 0.13920939 0.23329261 -1.3425685 0.22131905 -0.5050713 -0.8727236 -0.28131574 -0.12069273 -0.9631262 -0.61146235 0.29212496 0.05924307 0.056310788 0.7348174 -0.07237607 1.2250042 1.6680387 -0.5165712 -1.415461 -0.50584334 -0.53573394 -0.41704848 -0.30991936 -0.2268056 0.28643087 -0.8873044 -0.8565941 0.99920005 0.25994706 0.6625061 -0.6578128 0.62892634 0.574252 1.1385065 -0.2109356 -0.45027205 0.9019228 0.769011 -0.622296 0.6812028 0.08967192 -1.5074525 0.65844107 -0.4789353 -0.27793902 -1.5102237 0.08133381 1.2225301 -0.11088103 0.5358729
: -0.41594177 0.68051183 0.23129289 0.718172 0.10319713 -0.011356861 0.30721876 -0.006096985 -0.45225772 -0.3066512 0.3501138 -0.38194463 0.36822405 0.23741464 -0.034980122 -0.33238703 1.0078851 0.11831207 -0.9244302 -1.2028743 -0.12529512 0.042746417 -0.32751563 -0.080940254 -0.28521466 0.13610129 -0.3954735 0.17964853 -0.19564687 0.052922267 0.60214484 -0.6786134 0.19911583 0.06264337 -0.044019192 -0.03606236 0.3192228 0.07326116 0.10992765 0.12562329 0.07925735 -0.19010015 0.03419885 0.14875779 -0.42195687 -0.25419056 -0.05880585 -0.26113823 0.2102887 0.09618521 0.4477689 -0.3816698 -0.78239155 -0.29935706 -0.48180923 -0.02814418 0.5267043 0.021059724 -0.22643672 -0.13845144 -0.2140248 -0.046532094 0.35022318 -0.19739942 -0.69798964 1.0159776 -0.018794086 0.022343438 -0.25251946 0.02006359 -0.05415709 -0.052032314 0.08547415 0.33702898 0.007286431 -0.5536092 0.107877724 0.6210825 -0.3107314 0.282721 -1.1572741 0.053967178 0.037987042 0.1745016 -0.44417912 -0.0113727655 0.83076674 -0.21261129 -0.19868268 0.3307651 0.33052146 -0.5525948 0.44415876 0.30739868 0.50120884 -0.90075153 0.72312665 0.21894974 -0.38632736 0.5769585
é -0.022139456 0.17763068 0.1461187 -0.068265095 -0.07792884 -0.0008544161 -0.09386439 -0.09542716 -0.15970835 -0.06938483 0.13833225 -0.05408105 -0.031959508 -0.21114142 -0.04713707 -0.26497975 0.15025492 0.066774786 -0.089135736 -0.4311502 -0.21533436 -0.051072743 -0.08673686 -0.15086663 -0.0979164 0.009531233 0.03372802 -0.18771675 0.027235841 -0.11902627 -0.020585837 -0.13524792 -0.07878608 0.17433345 0.021225816 -0.026787423 0.014386206 -0.18227215 0.11715341 -0.14480348 0.39777455 -0.4116932 0.07262441 0.2450234 0.04836264 -0.10224483 0.036058556 -0.17957395 0.06128025 -0.16696584 0.12244853 -0.115932204 -0.017337881 0.0033170744 -0.30195308 -0.032348614 0.16050503 -0.064987324 0.07975937 0.052555982 0.08660748 -0.065893576 0.24115327 0.05515793 0.03918271 0.37533554 0.2850605 -0.12177255 -0.5197306 -0.26905337 -0.16546257 0.04577074 -0.030758623 0.10422793 0.16070439 -0.07744339 -0.13388337 0.3001397 0.092177965 -0.05947351 -0.17884584 0.16351524 0.045667004 0.038339827 0.014513405 -0.2207638 0.26795962 0.060366247 -0.124805525 0.08013102 -0.016091716 -0.27338997 0.28845236 0.066134214 0.10366593 -0.45142674 0.49308965 0.13128631 -0.032483436 0.036787003
æ 0.004195963 -0.0061485684 0.01389852 -0.15267576 0.0067357915 0.025573678 -0.0684599 -0.09045328 -0.038474604 -0.008938452 0.039550923 0.03501105 -0.11877005 -0.13695687 0.013861941 -0.09727695 -0.03610668 0.11191388 -0.0033125365 -0.119605966 -0.16356327 0.057671472 -0.01057684 -0.06720973 -0.013492173 0.007013481 0.053858977 -0.05868628 -0.058765735 -0.069926396 -0.15688688 0.027862567 -0.096157126 0.111588165 -0.020804346 0.040059373 -0.009067537 -0.1082969 0.05035623 -0.013716156 0.27222505 -0.17709352 -0.037508793 0.11863206 0.057957485 0.0009938059 0.057899475 -0.017738499 0.031691484 -0.105285525 0.06000053 -0.06402339 0.061150417 -0.04213234 -0.119689465 -0.019884737 0.019886296 -0.0014305483 0.08832791 0.015553432 0.01355053 -0.067063875 0.15253912 -0.030434519 0.010847226 0.09997339 0.08971982 -0.066455245 -0.2180671 -0.13203162 -0.10171441 0.0091362335 -0.037686925 0.062186245 0.031755377 0.01738325 -0.10091317 0.066662066 0.0004142495 -0.09313701 -0.0263224 0.10704267 0.035935897 0.029106153 0.05376356 -0.103124805 0.12331459 0.016321713 -0.07821838 0.028644564 -0.11751834 -0.09189539 0.09913593 -0.04705117 0.10153775 -0.13362215 0.31846693 0.049046855 0.08099906 -0.02787363
ê -0.020374252 0.10979394 0.089661315 -0.10671931 -0.071587116 -0.007942305 -0.07053321 -0.039659135 -0.042135715 0.015007667 0.020244448 0.02884544 -0.17591594 -0.15823801 -0.0128102265 -0.057703864 -0.05287901 0.17414135 0.009505825 -0.12701416 -0.13270748 -0.03528039 0.001186689 -0.11358053 -0.012130955 0.029078547 0.034106184 -0.0961133 0.022288326 0.005100451 -0.03871825 0.025699131 -0.090919495 0.049100798 0.034247488 0.062178396 0.0996288 -0.06683742 0.08906767 -0.0072591966 0.23756959 -0.22179113 -0.009487694 0.13493787 -0.037202276 -0.029710399 0.07937705 -0.09245921 0.021286739 -0.19767414 0.06479183 0.00797135 0.040376015 -0.007865578 -0.09009709 -0.019373203 0.024810866 -0.011991153 0.11726477 0.054534957 0.02806204 -0.0047064624 -0.010824173 -0.009936083 0.17622776 0.1321422 0.20302089 -0.0026411982 -0.22649042 -0.10088352 -0.15930614 -0.013237665 -0.012222794 0.063312896 0.0060274447 -0.018894013 -0.13497332 0.106270194 0.10252582 -0.009013444 0.05582889 0.101423085 0.08199327 -0.06997081 0.009721077 -0.055012304 0.118656315 -0.04834651 -0.13354212 0.04054363 -0.095389225 -0.19099474 0.124202415 0.024403555 -0.021819519 -0.23352091 0.17966264 0.09140086 -0.0032923713 0.0044579217
ö -0.035645243 0.033853274 -0.040626556 -0.19208404 0.0033627567 -0.11533324 -0.08880087 -0.042624738 -0.0793917 -0.044040937 0.0043108207 -0.051940124 -0.20554021 -0.09239932 0.15077095 0.005841326 -0.008484047 0.122048244 -0.015632225 -0.14032039 -0.053947296 0.024960265 0.043305557 -0.13540535 -0.045633946 0.029674629 -0.020471655 -0.042350695 -0.00025583434 -0.010756535 -0.03948456 -0.0008025513 -0.12974988 0.026643042 0.031156702 0.06685307 0.03858269 0.05021177 -0.002183136 0.024162136 0.17470367 -0.1864305 -0.10263727 0.114589624 0.06444929 0.014744652 0.0042174514 -0.035140883 0.109223805 -0.1408162 0.041730877 -0.07858489 0.06938476 -0.031555768 -0.074572794 0.024609726 0.025260597 -0.052140914 0.12782891 0.06248004 0.020896329 -0.066566914 0.08982145 -0.021858456 0.14741303 0.011077403 0.03143852 0.06322749 -0.110576816 -0.0387479 -0.12682883 0.019152654 -0.012699123 0.051541414 -0.0207831 0.006342246 -0.1549692 0.058901045 0.023007412 -0.052153986 0.039641295 0.06347626 -0.0059105065 -0.13015847 -0.046262566 -0.008854932 0.0829977 -0.010987076 -0.03681058 -0.027747145 -0.056041006 -0.031097008 0.056754578 0.023550754 0.14455388 -0.086202554 0.1693831 -0.005436089 0.0059655244 -0.012589745
è -0.065275565 0.0057174396 0.0008453778 -0.16257529 0.006148669 -0.07198288 -0.042753153 -0.056905374 -0.045553155 -0.03619864 0.02210637 -0.035960425 -0.12931708 -0.08362564 0.032527335 -0.060104348 0.05546585 0.10317494 -0.028719805 -0.20509166 -0.108274415 0.0076079033 0.019655323 -0.110511 -0.011134419 0.031609777 0.018847594 -0.03008303 0.038707715 -0.008874495 -0.043416083 0.006385265 -0.110807054 0.023801219 -0.01199583 0.024468247 0.055994093 -0.057609048 0.04846921 0.03836545 0.23282512 -0.201255 -0.088481784 0.13983527 0.022914398 0.025146509 0.03518994 -0.03205218 0.0049807397 -0.14508875 0.042388745 0.022302506 0.010499741 -0.007942616 -0.06353751 -0.012012434 0.015002375 -0.013175608 0.09010568 0.042386014 0.010897482 -0.021439483 0.025155945 -0.009453844 0.09007693 0.10186971 0.08620836 0.0064497143 -0.17369342 -0.020416386 -0.098291956 0.052463233 0.029387884 0.04868267 0.0231871 0.012695714 -0.05900972 0.12707841 0.056689702 0.003477258 -0.03725232 0.07747111 0.026618917 0.009432047 -0.024920331 -0.0642598 0.11029659 -0.0053034285 -0.07927603 0.03172009 -0.0073556374 -0.12932067 0.102008484 -0.014729915 0.027944691 -0.14014192 0.21240214 0.03913634 0.04510891 -0.0019734069
ë -0.04128818 0.016476542 -0.0061252313 -0.1314505 0.009738639 -0.06447987 -0.03968122 -0.019918162 -0.006340651 -0.008333011 -0.0031768782 0.019464446 -0.091015674 -0.044845913 0.02845291 0.008902824 0.0066022533 0.1043453 0.012512312 -0.07598237 -0.06293869 0.011661152 -0.016774302 -0.060439486 -0.0007202484 -0.006956064 0.009962819 -0.03230173 -0.037506152 0.0028838357 -0.020419674 0.024048803 -0.097558625 0.06461605 -0.0034084988 0.06014709 -0.015591954 -0.030927423 0.037126593 -0.004198888 0.14939582 -0.12188909 -0.058606554 0.052044988 0.013925754 0.02741162 0.03547163 -0.012983673 0.07002811 -0.08729219 0.029274466 -0.06045896 0.058144115 -0.011656839 -0.028744962 0.026156973 0.0040756105 -0.023150096 0.08018371 0.057035185 0.01696602 -0.019781781 0.007146328 -0.012700609 0.12725322 -0.024990948 0.041690215 -0.01817821 -0.103690356 -0.016308973 -0.06278018 0.0063149743 0.008893717 0.034290813 0.0044353637 0.02274674 -0.064772576 0.009243343 0.02726527 -0.04336035 0.09062619 0.08708183 0.011913787 -0.030442813 0.029951114 -0.039374303 0.035114195 0.019288836 -0.013188247 0.0028745972 -0.012967696 -0.04074272 0.06521807 -0.036381043 0.05563783 -0.057187054 0.13548157 0.007071192 0.04977757 0.012083059
à -0.051339265 0.068383485 0.016679805 -0.12603149 0.008737193 -0.1089353 -0.030751206 -0.010379326 -0.13871825 -0.08778853 0.053440712 -0.09360528 -0.08226753 -0.08682252 0.061276942 -0.02797312 0.099732585 0.14920086 -0.06651658 -0.30047926 -0.11801857 0.07620091 0.039941795 -0.19268958 -0.0016579423 0.0029185861 0.025966328 -0.06184355 0.013031779 -0.052668728 -0.057317685 -0.0037105975 -0.11376456 0.06285835 -0.04279695 0.09679648 0.13521945 -0.006288005 0.061761066 0.03867442 0.3365235 -0.26132923 -0.080471925 0.19393435 0.03438897 -0.0364077 -0.031098794 -0.09135027 0.104778014 -0.13789546 0.05531994 -0.03821266 0.061671197 -0.054260887 -0.08778008 0.023709547 0.037416395 0.0018728672 0.17380886 0.096494 0.005843826 -0.073888905 0.114525065 0.022737741 0.12754409 0.16211416 0.09714518 0.02845894 -0.2508771 -0.04524307 -0.15777823 0.034627166 0.0038830067 0.0556552 0.010888457 -0.005206466 -0.07101894 0.08026759 0.04524423 -0.065590166 -0.09429569 0.10507631 0.032695975 0.022500044 0.0076327617 -0.053305823 0.12752809 0.0009038079 -0.014069335 0.041397143 -0.03793931 -0.099314496 0.13854751 0.018837756 0.147593 -0.18836042 0.30604044 0.058717992 0.09492171 0.01629972
ô -0.02801208 0.03151408 0.008516994 -0.1311573 -0.0001615134 -0.048771527 -0.049541123 -0.04629087 -0.027566358 -0.027555134 0.01845169 0.0025345462 -0.09997091 -0.06709402 0.021100016 0.021429919 -0.02172742 0.10302811 0.02436734 -0.07265256 -0.1213678 0.036448963 0.013991675 -0.10435848 0.02663989 0.016523223 0.038391992 -0.04897109 0.029863445 -0.01621006 -0.11439086 0.07827861 -0.078649834 0.03689173 -0.0070284186 0.063648134 0.09685484 -0.039871506 0.033752453 0.056187034 0.21231222 -0.13363764 -0.057102915 0.102003865 0.044208046 0.020742957 0.012171111 -0.030175671 0.024022233 -0.11541848 0.037766032 -0.00086700224 0.06251151 -0.037845097 -0.011863577 0.0032824015 -0.0030066767 0.0066619273 0.13675778 0.05871879 -0.009676302 -0.05407138 0.009743099 -0.017759537 0.13190639 0.021954099 0.06822893 -0.032253932 -0.052188415 -0.06523724 -0.11745617 -0.05694003 -0.054746628 0.019176885 -0.034234416 0.015068683 -0.0893055 -0.013288053 0.04101336 -0.019453628 0.04095486 0.06924322 0.055793654 -0.028526042 0.065833025 -0.010245416 0.046669457 -0.005446659 -0.020351559 0.013641172 -0.080391385 -0.042010404 0.04116694 -0.01070492 0.025924418 -0.07786743 0.15529512 0.0408998 0.06781451 9.406098e-05
ñ -0.0070171882 0.015201985 0.002613733 -0.08985289 -0.019087005 -0.046301678 -0.06749357 -0.085727036 -0.05252582 -0.042874273 0.04549345 -0.020854095 -0.08205507 -0.037259184 0.06331969 -0.00090964424 0.047815096 0.1516595 -0.06827981 -0.23037 -0.08895923 0.06730716 -0.008569046 -0.106043205 0.037910923 -0.011812221 0.06848536 -0.067054845 -0.02319696 -0.074686944 -0.07663355 -0.009317437 -0.07249005 0.11337986 -0.00412759 0.019728515 -0.017335868 -0.0059254174 0.06970117 -0.052363984 0.14460166 -0.13845018 -0.07038961 0.11343974 0.0241982 0.0013671765 -0.004615363 -0.050835133 0.09474447 -0.10480299 0.042471755 -0.057217516 0.023291865 -0.068500146 -0.0527387 0.04817033 -4.8346308e-05 -0.016691532 0.15838383 0.06409394 -0.0020833972 0.060739517 -0.022143599 -0.040275075 0.09335364 0.032265685 0.063553475 0.044996604 -0.11280058 0.022797849 -0.07120114 0.06968792 0.0018919698 0.07563874 0.01927032 -0.040403392 -0.058745738 0.023336513 0.028163202 -0.031384744 0.020080606 0.04963355 0.04392968 -0.073640846 0.0015991505 0.013570428 0.07065783 -0.09409022 -0.10898254 0.006206786 -0.021839943 -0.13940406 0.10022163 0.066193536 0.021281654 -0.12715214 0.20649043 0.030681457 0.0033301516 -0.0049306597
ä -0.07757665 0.023276592 -0.017837266 -0.08873179 0.070023805 -0.06936866 0.022804758 -0.016222026 -0.09104537 -0.10628886 0.01909933 -0.10474375 -0.14191286 -0.056727126 0.09307549 -0.018666252 0.035907026 0.12763931 -0.025913218 -0.20641276 -0.07964805 0.05454633 0.06251121 -0.09425853 0.0020447818 -0.024822202 0.05485946 -0.07115471 -0.028583271 -0.03428051 -0.072901785 0.01333955 -0.09096677 0.10627083 -0.015609527 0.0835326 0.03846242 0.0047962135 0.04436389 0.0067247646 0.27919644 -0.20390867 -0.13393848 0.15402053 0.0989021 0.069114804 -0.020202382 -0.02130237 0.10392458 -0.104182854 0.04375287 -0.097022414 0.09575682 -0.049236074 -0.06468848 0.048669744 0.021898204 -0.033918146 0.12836994 0.06371169 0.01845171 -0.077217795 0.11565324 -0.0082813995 0.12008223 0.092647225 0.044331994 0.030886257 -0.16257189 -0.054481465 -0.11849132 0.03648725 0.034967493 0.044630848 0.0020395147 0.058504958 -0.039335508 0.033873435 0.05056168 -0.08167171 -0.008933761 0.03546908 0.011851248 -0.029172944 0.056920215 -0.069098115 0.047522467 -0.007264715 0.007717655 0.0032099332 -0.060130183 -0.02525659 0.05774288 0.012013044 0.09291729 -0.07348464 0.25458506 -0.016668176 0.095793426 -0.021288205
ï -0.043106887 0.025851237 0.0056888727 -0.088450566 -0.027581397 -0.009739174 -0.055016525 -0.09722876 -0.04366354 0.032709464 0.020959232 0.019038886 -0.03875578 -0.06543084 0.038009174 -0.0009969954 -0.0073217982 0.04621551 0.025357073 -0.06597883 -0.06242953 0.021917446 0.028137935 -0.06317589 0.025223399 0.0054820087 0.030729322 -0.04680826 -0.00062466576 -0.027088208 -0.029802395 0.036702964 -0.042733196 0.05020294 -0.007878364 0.039870974 0.035874106 -0.026833046 0.022364948 0.042482726 0.14739357 -0.07989292 -0.03620372 0.07484329 0.030682597 0.047425315 0.024706267 -0.027772723 0.027461775 -0.075015455 0.009401708 -0.021080658 0.060391407 -0.004779604 -0.00030129537 -0.0046954197 -0.0061059883 -0.0024804578 0.07628429 0.013859725 -0.010306301 0.012092732 -0.04000461 -0.025485875 0.07306437 -0.025005428 0.037819847 -0.04132272 -0.043247633 -0.04596904 -0.04954917 -0.010838789 0.009312952 0.033518348 -0.01855744 -0.008016221 -0.040533863 -0.021727983 0.03848191 -0.05206231 0.019164111 0.019830318 0.0350677 -0.025956301 0.05043205 -0.03563115 0.0074347686 -0.033142075 -0.038163938 0.000639495 -0.0491807 -0.032290526 0.009282821 0.0047553787 -0.018667703 -0.020659305 0.105287485 0.03362145 0.053609412 -0.037638005
â -0.02191466 0.024060266 0.0026719084 -0.10149036 0.015369706 -0.03665143 -0.054512497 -0.065261476 -0.06995187 -0.038527336 0.01932282 -0.047162134 -0.043207094 -0.049234387 0.023911906 -0.014183842 0.042363625 0.098023504 -0.0813264 -0.15826772 -0.08573149 0.040833782 0.0073692193 -0.11856959 0.01447528 -0.006619325 0.044904612 -0.08833031 0.001442188 -0.055669814 -0.07228618 0.004628226 -0.06606858 0.0979941 -0.007566527 0.062303472 0.05980071 0.02714806 0.04547982 0.00784745 0.16197465 -0.14651349 -0.055664714 0.109268144 0.005980909 -0.015756797 -0.014189412 -0.06258013 0.04855368 -0.1075522 0.03350673 -0.042881124 0.020706784 -0.056473285 -0.03582278 0.006326538 0.010334062 -0.005503522 0.087490804 0.03525072 0.028678361 -0.015097002 0.04575198 -0.028835932 0.06647743 0.12287395 0.05811201 0.015267352 -0.12832749 -0.057293728 -0.103948206 0.011469622 -0.02890918 0.036677163 0.007682222 -0.012627936 -0.050947677 0.05424617 0.0062731076 -0.01972801 -0.0503528 0.04749832 0.010801326 -0.024692373 -0.017125642 -0.009898392 0.09430587 -0.00567291 -0.022721931 0.023363126 -0.03352783 -0.05648594 0.08769362 0.042826645 0.11205149 -0.11358584 0.21508755 0.037168544 0.06306053 0.01365577
ü 0.024804326 -0.0071273665 -0.03180279 -0.14216492 0.0471822 -0.051164333 -0.07100364 -0.07251943 -0.0034853145 -0.013050465 0.0018132724 -0.011457891 -0.104043834 -0.024796322 0.078966975 0.022122348 -0.021720506 0.1346928 0.02608223 -0.10624107 -0.056440603 0.025930839 0.017921703 -0.09701633 0.027174605 0.006993382 0.03192086 -0.01408254 -0.017580202 -0.030370364 -0.07579445 0.06736107 -0.10239373 0.051161896 0.002414692 0.020633392 0.038093884 0.036503807 0.041014273 0.025156436 0.1335116 -0.13924387 -0.057450473 0.08527448 0.027947178 0.016208645 0.0024354917 -0.016709346 0.051556226 -0.08801047 0.03129113 -0.040273238 0.033203106 -0.07787304 -0.013375963 0.0008580691 -0.037504572 -0.009677505 0.1087131 0.06776217 0.007171182 -0.03544187 0.010464516 0.014675892 0.14808592 -0.023512356 0.057598058 -0.030563418 -0.04528786 -0.019625332 -0.11481783 -0.024190128 -0.06812381 0.018842716 -0.020479396 0.04221427 -0.098336376 -0.022686841 0.045040105 -0.02828197 0.07625015 0.058431745 0.0049863392 -0.049169768 0.015860261 0.0070390035 0.04678336 -0.009107957 -0.032741956 -0.021518853 -0.07602496 -0.048866294 0.06554396 0.023527857 0.030131733 -0.07226978 0.17687581 2.6249581e-05 0.042688724 -0.019657522
ο -0.1320011 0.032610737 -0.033961397 -0.31306133 0.023123039 -0.17290837 -0.1044031 -0.16954565 -0.1374875 -0.07768618 0.0388212 -0.08759846 -0.28184932 -0.17694186 0.15819761 0.005689272 0.004809655 0.22825575 -0.01744455 -0.27620584 -0.20664108 0.09724261 0.03509669 -0.2551698 0.032520257 0.024873251 0.053875286 -0.12118773 0.03198372 -0.07632184 -0.18940158 0.093337126 -0.22103138 0.16229714 -0.016722756 0.12720072 0.13833968 -0.01905639 0.09021611 0.08463753 0.4620735 -0.38341656 -0.15321836 0.26228294 0.07309795 0.05273368 0.021012861 -0.061882254 0.11079766 -0.289647 0.03299422 -0.044326328 0.0936468 -0.082648106 -0.051083244 -0.005970641 -0.034509562 -0.03013647 0.28774494 0.14795816 0.037070177 -0.09179152 0.060851455 -0.020554567 0.31599417 0.055405527 0.12109587 0.0014727591 -0.24289627 -0.10100417 -0.27664962 -0.02588021 -0.072113656 0.0568499 -0.065451 0.054539356 -0.22335696 0.03589686 0.11188337 -0.08065581 0.07047325 0.15066886 0.0530061 -0.07339494 0.056411758 -0.061467465 0.13098861 0.011755372 -0.06454114 0.014569637 -0.13819918 -0.14549883 0.16798641 0.0035996088 0.15576045 -0.21052542 0.4805667 0.06294872 0.15386201 -0.01493977
ἶ -0.07353336 0.0010355989 -0.04705084 -0.20987937 0.006481264 -0.089330204 -0.07926196 -0.16639045 -0.06840713 -0.0068760947 0.053188454 -0.024266033 -0.15228684 -0.0931061 0.08834443 0.0048529836 -0.006533024 0.15624498 -0.040899586 -0.1600009 -0.13362029 0.072980724 -0.010791384 -0.14103568 0.03836186 -0.014628191 0.07799798 -0.11047778 0.013219865 -0.06317471 -0.12151796 0.061256547 -0.124271 0.15017174 0.0013682764 0.07578232 0.062123917 0.0057152305 0.087003276 0.009957981 0.2831822 -0.22048149 -0.09492869 0.15171953 0.0064164284 0.029289542 0.022480087 -0.019069675 0.08301791 -0.19156376 0.0024029154 -0.0444737 0.05879971 -0.080394596 -0.009464641 0.0021823014 -0.048306223 -0.0070133614 0.17873785 0.07824755 0.03014443 -0.052207123 0.032529935 -0.048202015 0.17337051 0.014643695 0.06070098 -0.013310016 -0.14452504 -0.07531661 -0.17614944 -0.02983908 -0.06906873 0.055564705 -0.044329982 0.012212476 -0.16554637 0.016249875 0.034149867 -0.035711147 0.07178136 0.11001018 0.02217442 -0.065746345 0.0035593186 -0.012403035 0.098307624 -0.010323116 -0.06689774 0.024503872 -0.1160963 -0.10198777 0.12554687 0.035861075 0.08568108 -0.16221645 0.29746544 0.047423426 0.087536424 -0.007472588
δ -0.044859923 0.00550737 -0.026737016 -0.18719791 0.012301621 -0.067568436 -0.09316285 -0.14956978 -0.05340525 -0.018331159 0.042366084 -0.01427464 -0.12864056 -0.07670684 0.087760925 0.005427589 -0.014196854 0.14319772 -0.02628184 -0.14610532 -0.11331034 0.053441565 0.0044645723 -0.1295866 0.031691752 -0.0062003583 0.050200615 -0.0792108 0.014083462 -0.05412451 -0.12513806 0.037045177 -0.106757976 0.12721182 0.010486026 0.05302082 0.04048238 0.012256588 0.08000962 0.019533694 0.21315949 -0.19199044 -0.068748176 0.1326579 0.0070183403 0.00996648 0.021474263 -0.022383451 0.06451528 -0.15025938 0.016456468 -0.032922175 0.03151205 -0.05714197 -0.028846001 -0.0013044189 -0.025015034 -0.010727083 0.14901526 0.06206045 0.02720145 -0.017619623 0.006834104 -0.024944521 0.14608894 0.035454046 0.06431404 -0.021018345 -0.110039145 -0.06392454 -0.15076235 -0.029912442 -0.07043884 0.034795243 -0.030843323 0.011715356 -0.14480406 0.03288047 0.04501668 -0.021689499 0.051241636 0.08658567 0.010508978 -0.047596876 -0.0024643198 0.013477385 0.075764425 -0.0063881 -0.06257792 0.01719151 -0.110175736 -0.09762075 0.10474976 0.02569648 0.06838454 -0.13651668 0.24200746 0.0294732 0.04288168 -0.0029308016
α -0.040942192 0.0011074311 -0.04231906 -0.2021661 0.006206441 -0.074660115 -0.0922272 -0.16394158 -0.06374244 -0.019731103 0.03319905 -0.04066082 -0.14144965 -0.10498817 0.0961996 -0.002420931 -0.0031581447 0.15016548 -0.011190692 -0.15643628 -0.12606372 0.07815633 0.005421499 -0.15104744 0.038334135 0.010952943 0.056958158 -0.07528149 0.022779379 -0.06294086 -0.14073351 0.050137203 -0.12305127 0.13182364 0.0061864713 0.0474201 0.060388662 -0.005113306 0.0792308 0.020630307 0.22913438 -0.22422917 -0.06997864 0.15349159 0.013514454 0.021500137 -0.00045943796 -0.035849728 0.06467654 -0.18653087 0.029463226 -0.047412626 0.030829998 -0.08329015 -0.026933847 -0.0102380235 -0.027242625 -0.016954375 0.17023413 0.0867026 0.027058981 -0.044045173 0.0073860884 -0.013019273 0.17360814 0.042218696 0.07571835 -0.021773208 -0.13805288 -0.074205674 -0.1828265 -0.036409356 -0.08990487 0.021593865 -0.031007878 0.021974292 -0.15564547 0.032787636 0.043952968 -0.022299545 0.051157475 0.10799051 0.014106929 -0.0636446 -0.016229449 -0.005199819 0.08716322 0.0023778747 -0.06997018 0.010045275 -0.1099967 -0.10133182 0.12022052 0.041385822 0.092178166 -0.16996409 0.2981347 0.053800263 0.062620975 -0.0076077715
π -0.06111311 0.013776459 -0.0025210865 -0.09206543 0.019827493 -0.08211306 -0.015051023 -0.02616517 -0.063297756 -0.050505906 0.008574657 -0.056769624 -0.119939245 -0.06787817 0.07495344 0.011976197 0.0039366637 0.08802252 -0.009397905 -0.11086919 -0.077563904 0.044319633 0.014182861 -0.10068085 0.0009822575 0.005731792 0.002720206 -0.039117336 0.0032749744 -0.0217343 -0.04288491 0.025044076 -0.07305473 0.051670387 -0.02260127 0.071016364 0.0690556 0.005618003 0.032443315 0.026827488 0.20019262 -0.15146515 -0.075079694 0.10365234 0.043026753 0.023336576 -0.008536495 -0.019209737 0.053141158 -0.10784584 0.0022556619 -0.015948638 0.053641316 -0.014604363 -0.02615461 0.015366353 -0.010377116 -0.01980974 0.11583256 0.06305705 0.01366043 -0.04012544 0.036464103 -0.004242372 0.11562571 0.017753176 0.032745708 0.020615876 -0.107773505 -0.028581273 -0.097372696 0.0081196455 0.008098888 0.03145473 -0.014522852 0.023362158 -0.061321825 0.008947462 0.047823116 -0.04929521 0.030323468 0.05175327 0.022299225 -0.016071035 0.020515438 -0.026256168 0.03615043 0.0031620169 -0.0060141855 -0.013068467 -0.05225188 -0.029845245 0.066760615 0.0062153894 0.063210405 -0.051566273 0.16085996 0.014975481 0.077480786 -0.010640415
ν -0.05754438 0.0075133285 -0.012715205 -0.13904087 -0.004467174 -0.06288391 -0.042579085 -0.06813024 -0.052191712 -0.023059746 0.006843313 -0.027724348 -0.12494321 -0.09712368 0.061581552 0.0030783191 0.008260579 0.11816039 -0.018460523 -0.14903715 -0.09118694 0.03685536 0.024862766 -0.1135888 0.0014213398 -0.0046686158 0.040187802 -0.07553725 -0.004830154 -0.027610753 -0.07349303 0.031171417 -0.09520057 0.08490682 -2.395852e-05 0.07244694 0.06171982 -0.0038046641 0.044140015 0.037079457 0.24088252 -0.17956807 -0.092282 0.1182109 0.044126686 0.02889873 0.020793485 -0.028164491 0.067989804 -0.1489286 0.019320864 -0.036079187 0.06259515 -0.022001905 -0.03454495 0.008253316 -0.027733937 -0.030214403 0.12653087 0.06316227 0.019014025 -0.036153924 0.031378653 -0.014764559 0.15570408 0.024732685 0.04558211 0.007821315 -0.12441512 -0.05592539 -0.12289473 0.007475604 -0.0003584007 0.03625184 -0.009450635 0.024601353 -0.091135636 0.008432351 0.047730807 -0.0551934 0.040710777 0.05922948 0.022823863 -0.04370749 0.015043328 -0.044088036 0.039328147 -0.00023477396 -0.026675139 -0.0020008595 -0.077327184 -0.050784685 0.08178434 0.0110268425 0.07275576 -0.08214812 0.19736119 0.018754011 0.057087623 -0.0092371395
υ -0.044217516 0.011873688 -0.015470689 -0.10287517 0.0037950159 -0.060710687 -0.030843101 -0.067926176 -0.0461608 -0.025546996 0.014385751 -0.035707556 -0.09808595 -0.065698504 0.05731213 -0.007963233 -0.001267406 0.09101995 -0.0051853536 -0.1084528 -0.067079246 0.02203035 0.020193351 -0.09197623 -0.0062863086 0.006278336 0.023565657 -0.06577625 -0.009839407 -0.023359345 -0.06145744 0.026260275 -0.08052122 0.08495471 -0.0013100452 0.041521057 0.040576465 0.014658752 0.040508784 0.018822309 0.17049053 -0.13378944 -0.060745515 0.091356106 0.015001205 0.02103554 0.016655724 -0.018051835 0.06458602 -0.11604042 -0.004835487 -0.035273965 0.05714396 -0.029702054 -0.011898862 0.0038727573 -0.0034464146 -0.019957323 0.09283128 0.061433855 0.026864452 -0.03525184 0.040029004 -0.01234494 0.1143676 0.036718078 0.027133515 -0.0047563803 -0.09793033 -0.05090855 -0.10564876 -0.0023574873 -0.0019501531 0.024164857 -0.0071108607 0.032659948 -0.080768876 0.023615913 0.04130558 -0.045048386 0.045188025 0.06048011 0.0049474007 -0.044984136 -0.0044876095 -0.03269343 0.048507713 0.009803627 -0.014304454 0.001285189 -0.06391051 -0.032529484 0.05295517 0.0045454334 0.06605876 -0.0811576 0.14652543 0.0057659056 0.05023174 -0.00868757
ς -0.0210477 0.0098751895 -0.015849125 -0.12232721 0.0034942916 -0.066195674 -0.040007096 -0.04668593 -0.046027526 -0.033432633 0.002305808 -0.026481913 -0.11530222 -0.08004911 0.06159261 0.010791626 0.00057242176 0.09118666 0.009760903 -0.10488497 -0.06840361 0.027943254 0.010067412 -0.097406104 -0.001948484 0.020775368 0.0054757316 -0.036265273 0.0027009123 -0.014766887 -0.055357646 0.022702191 -0.08826806 0.05570179 -0.0041596657 0.056829803 0.055961102 -0.008733137 0.024106497 0.039294485 0.17503482 -0.14543141 -0.06538203 0.092107445 0.03290907 0.015757132 0.0036017091 -0.030571839 0.040240765 -0.120244615 0.011620634 -0.010910318 0.04691361 -0.026968589 -0.012167082 -0.0123402625 -0.009318092 -0.012231767 0.1033978 0.05778814 0.014636748 -0.034753382 0.015355128 -0.006899414 0.124062 0.0094237 0.061469175 -0.008317175 -0.10254822 -0.04932142 -0.113695666 -0.0024089473 -0.02588745 0.013209858 -0.011020981 0.021021815 -0.08540899 0.02113856 0.040073242 -0.030056236 0.031134877 0.061034005 0.033305213 -0.01493632 0.014354457 -0.02266842 0.027385406 0.0061289985 -0.029455526 -0.008351361 -0.056727756 -0.042424034 0.055735044 -0.01290972 0.05019238 -0.0728727 0.15539525 0.020226527 0.058278598 -0.0028344167
å -0.013702422 0.0050074365 0.0054849815 -0.031727202 -0.0074850894 -0.0034721228 -0.0049260235 -0.015383393 -0.0035445963 0.004020949 0.008522639 -0.0045106867 -0.014159308 -0.0097410185 -0.00023170991 0.0018136208 -0.0060727005 0.03245629 0.00083150354 -0.0070299455 -0.011034653 -0.008045254 -0.0003476371 -0.0032006647 0.005367498 -0.010551528 0.02063796 -0.009146494 0.00040257548 -0.0069257356 -0.0015944024 0.0034259157 -0.02329777 0.012616871 0.0017316334 0.014752977 0.016478535 -0.006891554 0.007979427 0.007840222 0.044657785 -0.0237488 -0.018184014 0.023583867 0.005043084 0.009160079 0.00292867 0.0012281437 0.006732021 -0.014852086 -0.0070976545 -0.011472341 0.025833448 -0.0032850187 0.009164929 0.009870446 -0.015180419 -0.007602646 0.0065195216 -0.0059639094 -0.0060676914 -0.0017093302 -0.0114520565 -0.012069031 0.014908042 -0.0029488574 0.006529698 0.0052988403 -0.010201502 -0.0045291116 -0.01333777 0.014027703 0.022710025 0.0052267737 0.0030331889 0.014466892 0.008550676 -0.011765705 0.004788493 -0.013151435 0.018351657 0.008163944 0.0011543904 -0.0012612808 0.016447984 -0.009635836 -0.0044015236 -0.014282258 -0.015992885 0.00053755275 -0.016181424 -0.010205608 -0.0014778514 -0.008241633 0.005105828 0.0051843766 0.01847572 -0.00074875023 0.01983612 -0.007942392
ç -0.008846384 -0.0022252523 -0.010519162 -0.025830045 0.01829132 -0.008568658 -0.010588604 -0.028154735 -0.014376212 -0.015430986 0.008491533 -0.014400116 -0.018466128 -0.007917495 0.01576165 -0.005243966 0.011483205 0.028661098 -0.007033489 -0.020636635 -0.02432303 -0.0064255223 0.0075740186 -0.026387803 0.01264935 -0.003949304 0.009336836 -0.025073202 0.0024282632 -0.012303759 -0.0156013835 -0.0022057393 -0.016823592 0.019168168 -0.004210215 -0.0017697861 0.017468192 0.008276646 0.015763957 0.01880504 0.033861358 -0.032572474 -0.00049637456 0.022498734 0.011396445 0.015556316 -0.009385761 -0.004710248 0.012415288 -0.02360461 0.010440603 -0.020924902 0.0074316664 -0.016403485 -0.008623347 0.002976046 0.0069161137 0.002699917 0.022291843 0.021066753 0.0043741623 0.010764708 -0.011642549 0.004168331 0.027136408 -0.016217094 -0.001610884 -0.007928008 -0.00812345 -0.01943466 -0.022661872 -0.00887555 0.0009831667 0.0092320135 -0.0055573 -0.015234528 -0.027663477 0.0024761534 0.0059989514 -0.012172731 0.0073778275 -0.0025378 -0.00074530655 -0.004363381 -0.002072039 0.008350148 0.011904311 -0.006444879 -0.010259556 -0.0024503993 -0.0041416585 -0.005112451 0.018751169 0.010581785 -0.0012937696 -0.011604319 0.024882328 0.013712147 0.0032328395 -0.008217928
î -0.014268007 -0.008967166 0.004214241 -0.010084607 0.014177563 0.0096452655 0.015914317 -0.023305329 -0.014124967 -0.01196902 0.0068628765 -0.02478822 -0.011141466 -0.014090975 0.011063632 -0.0071087535 0.012231056 0.03188488 -0.04087117 -0.07834298 -0.0159746 0.018800924 0.03429354 -0.011695273 -0.0015593728 -0.01673482 0.018556576 -0.024210634 -0.028366758 -0.018095179 -0.010873628 -0.0077770115 -0.010411026 0.037906326 -0.0061103506 0.024075171 0.016608624 0.016391674 0.01471162 0.009184971 0.05471903 -0.03471513 -0.026675921 0.027083637 0.0050516264 0.017354423 -0.00011266206 -0.0063178157 0.015538356 -0.011751863 -0.0027311635 -0.022204148 0.02698782 -0.019089118 0.0032545254 0.0034834687 -0.007827569 -0.0037743205 0.007927179 0.013825502 0.002834137 -0.0013996892 0.024337303 -0.036127742 0.0023022657 0.016426489 0.0031577216 0.010313654 -0.024135575 -0.015768465 -0.014583263 0.0054617375 0.018206153 0.018772556 0.012110425 0.0040629082 -0.0055039544 0.008570664 0.0027804004 -0.035562593 0.0012796866 0.011178213 -0.01302252 -0.0043177144 -0.013048059 0.003672053 0.008747653 -0.006313157 -0.0058347485 -0.005641244 -0.035662867 -0.0038103024 0.022380834 0.018109508 0.02156463 -0.005808986 0.037211835 -0.020350646 0.013267701 -0.017392948
