60 50
_ 0.11354351 0.2234499 0.108305156 0.969301 -0.7936952 -1.0691782 -0.050260093 0.07324697 -0.5352915 0.8040256 0.718156 0.91248447 -0.20538394 0.8166851 0.26483846 0.19843385 -0.33699587 -0.6184954 -0.98114806 -1.0733086 -0.05117051 0.8248218 0.047174077 -0.17857864 0.5019775 -0.043677416 -0.84374356 0.27514192 0.09356488 -0.31323653 0.959036 -1.2908084 -0.2817874 -0.6346752 -1.403248 -0.22794116 -0.070166215 0.010813246 0.9039789 -0.6332567 0.17731358 0.17048502 -0.30493283 -0.13202502 1.2804058 0.38600037 0.22169994 0.4620172 -0.57617235 0.027459813
e 0.9648201 0.20347306 0.24860835 0.12236495 -0.2537566 -0.8387379 0.13223135 -0.13262354 -0.18075892 0.42850035 0.37072048 0.8336415 0.055498585 0.020091027 0.7622956 -0.036735203 -0.28469434 -0.14386225 -1.275558 -0.60928094 -0.79041386 0.7969868 0.5290623 -0.5728523 0.3392771 0.26774907 -0.36689627 0.09151878 -0.17761838 0.16296998 0.57827806 -0.09196002 -0.47762 -0.88872415 -1.2340727 0.4311321 -0.08964796 -0.107572444 0.32370356 0.033882163 0.30321538 0.055317845 -0.053586207 -0.14262578 1.1619349 0.61287254 0.029332962 0.08350668 -0.63950783 0.82067895
t 0.06965628 0.28332344 0.09287728 0.5018131 -0.09229172 -1.013321 0.16166334 0.5640544 0.12229223 -0.057430793 -0.008541181 -0.18516369 0.36300576 0.15039505 0.37313646 -0.12098749 -0.4270108 -0.4628949 -0.84163857 -0.89924747 -0.34203935 0.9129392 -0.16019458 -0.9046993 0.75111747 -0.5169043 -1.1277047 0.21498783 0.3871008 -0.17264505 0.37749743 -0.20607291 -0.8614105 -0.76270175 -0.83166724 0.26780504 -0.0070979507 0.031075852 0.4944032 -0.35883424 0.62920165 0.11418665 0.10387271 -0.6446158 0.38589096 -0.17873666 0.3775221 -0.19903497 -0.27102622 0.3492406
a 0.5633792 0.003718386 -0.10580737 0.4214819 -0.21858044 -0.7446645 0.10514214 0.28334764 -0.546577 -0.1402407 0.39002728 0.55772835 -0.24069111 0.7199334 0.3632038 -0.19346437 -0.6901165 0.085156456 -1.3157679 -0.6809179 -0.5344351 1.0160538 0.51600724 -0.5730043 0.14585413 0.2165947 -0.3666492 -0.20051387 -0.19925903 0.6214724 0.33378196 0.07979057 -0.22099146 -0.14510962 -0.45773643 0.36134544 0.05145544 0.3454431 0.3929702 -0.006424403 0.44912615 0.1667899 0.35771486 -0.7194296 1.0722034 0.2534336 0.090229444 0.16872221 -1.1383197 -0.16625448
o 0.6086079 0.051959503 -0.19231229 0.7298579 -0.11901929 -0.789745 0.25501803 0.37885335 -1.0414251 -0.3858467 0.7079049 0.37719822 -0.07489317 0.23260066 0.5228379 -0.04764806 -0.46457857 -0.15189725 -1.0998632 -0.91602254 -0.15140112 1.1233723 0.07996607 -1.3550003 0.11712643 -0.4350634 -0.11944897 0.25876495 -0.1466566 0.46921396 0.065310575 -0.2678175 -0.37539408 -0.67028594 -0.548288 0.34691006 0.34444597 -0.18339856 0.61172456 -0.074883826 0.5363441 0.2978999 0.06274213 -0.3619997 0.8664909 0.60143566 0.21331318 -0.16744591 -0.41139147 0.3711551
n 0.113850944 0.5599075 0.33869436 0.16038401 0.030539075 -1.0680559 0.3961988 -0.06619629 -0.06976331 0.021355763 0.30246434 0.7206711 0.29880205 0.47524852 -0.75682974 0.43854162 -0.19786191 -0.26006827 -1.4358754 -0.4334755 -0.13249691 1.0529184 -0.4314132 -0.4224564 0.19919679 0.19550757 -0.46178243 -0.004889575 0.17214695 -0.009618708 0.5203718 -0.3707154 -1.0024542 -0.57690036 -0.6999621 0.118581206 -0.2209159 -0.12375888 0.60491097 -0.40910643 -0.22810458 0.3269503 0.46864516 -0.77739453 1.6615987 -0.28220126 0.5642814 -0.69902825 -0.5040995 -0.18397717
i 0.73744863 0.20161566 0.6591721 0.3074272 -0.255709 -0.76415193 0.36207104 0.29405937 -0.35938942 -0.11582031 0.2059789 -0.139252 0.12882523 0.6167342 0.37910995 -0.30434403 -0.070214085 -0.20455046 -0.58459836 -0.43174088 -0.77613014 0.76318556 0.7652769 -0.48868582 0.020086983 0.7764276 0.33431062 0.41066286 -0.26975343 0.28390315 0.38122046 -0.11605947 -0.29005185 -0.70455045 -0.8070567 0.10792715 -0.28876364 0.1719665 0.26618096 -0.108484276 0.3036895 0.017708952 0.35991743 -0.6981347 1.2938939 0.79604936 0.30480936 0.27396837 -0.46910948 0.4115269
s 0.25663012 0.46990874 0.15188839 -0.045464925 -0.0026616133 -1.1564054 0.011576036 0.33327976 -0.31756034 -0.0386964 0.33591926 0.23214312 0.0074800313 -0.10155406 0.20918015 0.0028257363 -0.19259197 -0.20393893 -1.0272678 -0.5490767 -0.06921595 0.75638056 -0.21624279 -0.71441084 -0.15293023 -0.4705266 -0.8226963 -0.13158286 0.5254088 -0.121372744 0.22133152 -0.32385042 -0.2635579 -0.37760833 -0.8003629 -0.08089416 0.29706743 0.13978375 0.5300733 -0.075803034 0.4801124 0.134902 0.2065337 0.096048236 0.8211283 -0.0004561214 0.5041421 -0.04241502 -0.27550107 -0.15936051
h 0.54258746 0.8134173 -0.41557515 0.14765705 0.35438895 -0.95473754 0.4274257 0.47270766 -0.11397043 0.09864569 0.51325756 0.64019686 -0.72455245 0.06802504 -0.62125576 -0.120625205 -0.7115224 0.0039568297 -0.9983713 -0.35620216 0.17028604 1.715881 -0.2153798 -0.53645647 -0.06414478 -0.15947859 -0.13296261 0.07685087 -0.596656 -0.12010463 0.4892749 -0.20659786 -0.50689775 -0.370862 -0.9575003 0.13740644 -0.21454345 -0.42525133 0.6055408 0.07000616 0.051114105 0.023310576 0.40657496 -0.53531206 1.3416245 0.47729942 0.61938274 0.46606368 0.08193822 -0.38924235
r 0.63942695 0.24934572 0.45816645 -0.043906342 0.053565074 -0.71687454 0.055802535 0.3335237 0.036671653 -0.017810617 0.5808945 0.31776592 0.036885653 0.3480639 -0.06770272 0.2803044 -0.110235564 0.022674201 -1.2276669 -0.82200605 0.029440599 1.1302408 0.25310534 -0.61594373 -0.09754788 0.08538719 -0.8223348 0.4163273 0.7051424 -0.17811322 0.15683243 -0.3036174 -0.9002514 -0.18688665 -0.61917174 -0.34054348 -0.1492751 0.37555543 1.2687368 -0.8041026 0.23973337 0.02623585 0.21874104 -0.53102845 0.64694357 0.39262813 0.21225153 0.13652937 -0.17208289 -0.05172543
d -0.049517117 0.5462118 -0.08569631 0.5304868 -0.2942418 -1.2698983 0.26646662 0.61498886 -0.14920686 -0.2656728 0.47915962 -0.0701853 0.12337646 -0.23824583 0.37528494 -0.29905602 -0.39261317 -0.46001348 -1.1800904 -0.25580555 -0.47077662 1.0293249 0.5535345 0.2017514 0.08772369 -0.22394168 -1.1442785 -0.19499372 0.09301086 -0.13177513 0.6522509 -0.31024963 -0.50801593 -0.55774647 -0.7693536 0.0069946414 0.011054349 0.09074588 0.9673256 -0.17675488 1.0054396 -0.24934533 -0.31028083 -0.6017851 0.5564069 0.093088105 0.70917857 0.21548106 0.03886028 0.0324997
l 0.8121833 0.06265405 0.36793163 0.39412934 -0.56688756 -0.9223936 0.5518497 0.009494347 0.026597401 -0.37200072 1.1800936 0.50344986 0.09356081 0.4917376 -0.2916319 0.25791687 -0.57711047 -0.14970751 -1.1366419 -0.7129107 -0.60482675 0.8479612 -0.21597247 -0.20598878 0.013537748 -0.17328624 -0.63965815 -0.5067758 0.7214108 -0.0980131 0.5443057 -0.57732886 -0.15757297 -0.19447875 -0.41316164 0.10585893 0.04305024 0.059490662 0.78096795 -0.06429589 0.3731831 -0.03966511 -0.25802818 -0.8102465 1.0356866 0.19092874 0.37885624 -0.19735357 0.11841232 -0.09417737
u 0.5187859 0.1303157 0.5328339 0.5420322 -0.22005692 -0.67531735 1.1200042 0.2648976 -0.061783455 0.58681333 0.03874384 0.7374544 -0.39761698 0.66700375 0.2894289 -0.23223427 0.9544205 -0.072296485 -0.37179697 -0.50383174 0.0005766209 0.3554195 0.36947775 -0.8480298 0.35699338 0.5909686 -0.120279804 0.15798695 0.27949572 0.023085002 0.78449833 0.10214011 -0.2875229 -0.2993113 -0.50440055 0.0065450864 0.008736936 0.07726056 -0.25994956 -0.29143265 1.0183101 -0.5384813 0.22116958 -0.70297307 1.6501967 0.27041852 0.52659327 -1.3473579 -1.1050612 0.44172433
m 0.23029432 -0.006241929 0.45465392 0.26537824 -0.066518165 -0.7223398 0.29787475 -0.017652271 -0.19304293 -0.05396385 0.32491574 0.34196764 -0.52402747 -0.13403298 -0.6010866 0.26178157 -0.363565 -0.6366524 -0.80281657 -0.3461318 -0.1426256 0.944708 0.67444164 -0.21991119 0.19334435 -0.3961449 -0.90321773 -0.18409507 -0.22957224 -0.29879826 0.2164613 -0.3395797 -0.45758995 -0.3616775 -0.17514405 -0.24119769 0.46594593 -0.44505686 0.8497022 -0.42277995 0.8185725 -0.35284483 -0.8681656 -0.8447718 0.3810047 -0.039078042 0.14131176 -0.38916904 -0.08234189 0.18645032
c -0.013731341 0.79048514 0.10763742 0.9287686 0.13135535 -1.1154945 -0.16691372 -0.0122035 -0.23471415 -0.2194345 0.6730534 0.15570866 0.029232629 0.19340721 0.44210538 -0.03553378 -0.2020365 -0.71396005 -0.9346848 -0.54745 -0.18389192 0.83080846 0.03357452 -0.70101225 0.4784112 -0.42637703 -0.49206054 0.101071976 0.18599606 -0.15189116 0.5189416 -0.5833496 -0.7903879 -0.2604131 -0.7938291 0.28914076 0.14153968 0.34766132 0.8677997 -0.35518345 0.4711406 0.5360432 -0.5806137 0.09175048 0.63000625 -0.28160998 0.22760968 -0.30706206 -0.17448084 0.20766567
f -0.0022045649 0.2857375 0.26902926 0.051907253 0.33062297 -0.4945356 0.34471613 0.14855435 0.15162721 0.18313205 -0.6793672 0.3353901 -0.43339804 -0.2330509 -0.62015134 -0.30141088 -0.93227583 -0.9955415 -0.6528019 -0.05215472 -0.6429697 1.3251759 0.2797229 -0.690847 0.5873434 -0.35102427 -1.0278107 0.48623627 -0.37996197 -0.049341783 0.6166227 -0.6840818 -1.2466956 -0.52688056 -0.71474934 0.039283346 0.4788223 0.12596822 0.6195659 -0.25561833 0.6672892 -0.21339647 -0.27343076 0.020995822 0.75202596 -0.38255918 0.1894573 -0.22114754 -0.7770487 -0.21229766
w -0.33913377 0.30291745 0.28501683 0.9149855 0.26204383 -0.5015154 0.74722606 0.33757582 0.05947481 0.34836745 -0.19377686 0.00043022694 0.13260558 -0.15478444 -0.3773201 -0.29626223 -0.24760066 -0.8024154 -0.96734893 -0.11187355 -0.25475147 0.85996574 0.5213415 -0.2838884 0.46893898 -0.03331378 -1.0157666 -0.19413382 0.12798288 -0.41995555 0.4835962 0.51094335 -0.53728837 0.81059396 -1.0210856 1.1454444 -0.26093915 0.030756937 0.6385178 -0.058051843 0.24963391 0.073520705 -0.33619887 -0.7808225 0.13722026 -0.073256955 -0.22391328 -0.060482897 -0.5568274 -0.2454523
y 0.3586381 0.17129602 -0.07609576 0.48696262 0.12225872 0.05251927 0.16153885 -0.026360976 0.02200103 -0.24322428 0.78865385 0.43168733 0.5152788 -0.83067894 0.5795564 -0.5250612 0.54393125 -0.3561463 -1.1706965 -0.27510592 -0.40850827 0.601954 -0.010276826 -0.57902724 -0.27959543 -0.048015058 -0.34183937 0.23780176 -0.0974654 0.2628785 0.50289124 -0.49965647 -0.21035269 -0.86657965 -0.4087091 -0.16726612 0.7412977 0.49881697 0.15173274 0.36686665 0.4958375 0.11518734 0.53005266 0.40823293 1.5076839 0.33835998 0.34147605 0.02839881 0.34434253 0.38529724
g -0.31994283 0.53292674 0.33040285 1.1268148 -0.084760055 -1.4802022 0.017971521 0.43670925 -0.23336272 0.228185 0.12890382 -0.59053946 -0.4735308 0.20883693 0.26989183 -0.17708889 -0.1831285 -0.747911 -1.5666442 -0.2077207 -0.474588 0.9590369 0.2896221 -0.082014605 0.17305717 -0.49231645 -0.7689497 0.07198922 -0.35639212 -0.5103984 0.44174823 -0.762287 -0.44266135 -0.58523536 -0.87199634 0.366571 0.69932574 -0.007957302 0.5795523 0.29133138 0.53634745 0.3016063 -0.015012496 -0.21159562 -0.5525224 0.5769506 0.28805506 0.007592506 -0.49933648 -0.117042094
p -0.20046575 0.528564 0.26721147 -0.19651914 0.3073572 -1.3492122 0.063213915 0.2879166 0.35246688 0.048052125 -0.19928262 0.52020586 -0.3158539 -0.0814325 -0.27609783 0.1710154 -0.8338318 -1.152963 -0.5964018 -0.37390184 -0.19103849 0.3005199 0.9484253 -0.8602257 -0.13277188 0.124137275 -0.56161714 -0.056486934 -0.3752585 0.2071685 0.43945146 -0.7424549 -0.38007128 0.040819544 -0.2024353 0.02481287 0.16272049 0.13665625 1.0725152 -0.7278748 0.42854542 0.13889393 -0.93738824 -0.07511191 1.21015 -0.5615157 0.1151572 0.113991804 -0.18543226 0.01424151
<s> 0.094676465 0.83605725 -0.111207895 0.35278264 0.2222489 0.07750197 0.2767243 0.15143998 -0.30660355 0.068631314 0.57307976 0.7659197 -0.33315003 0.56706923 0.07954869 -0.58194876 -0.5230261 0.5859094 -0.29641485 -0.04202205 -0.33256564 -0.88598 0.14561544 0.403436 0.7182999 -1.2234657 -0.025941454 2.3606606 0.3747038 -0.38697645 -0.0015452725 0.10550725 0.09378674 0.23731823 0.16252284 0.42585734 0.012326433 -0.15400842 -0.025013378 0.34198847 -0.2621255 0.5468973 -0.37048066 0.5490824 -0.19670512 -1.0233195 0.43770802 0.140289 0.92672396 0.034893107
</s> -1.1415557 1.1950568 -1.2544622 -0.3410321 1.2746602 2.2392468 -0.11519049 -0.5820286 0.050098747 -0.517515 0.9284887 0.28732222 -2.1393945 -0.084901206 0.15270284 0.56202084 -1.7116256 0.06160107 3.3676822 0.26954275 0.13445087 -2.9958427 -1.5237851 1.4549053 0.19564934 -0.24776937 1.094563 1.4614828 0.37025076 0.15622152 0.9095411 0.027208911 0.18916392 -2.3922477 1.4231621 0.82395643 -1.4560112 -0.08258273 0.72223717 -0.0003415835 -1.5000752 0.47689745 -1.3795105 0.86343133 -2.1025472 0.7013975 -1.8603375 -0.6305495 -0.71893746 -1.3553177
, -1.8006506e-06 1.3013283 -0.26636836 0.46063584 0.13959195 -1.3683236 0.5927866 0.6343057 -0.8057192 -0.21427053 0.69821304 0.89897174 -0.36851716 0.6139616 0.028223472 0.25735548 -1.146677 -0.17547159 -1.9482092 -1.6989248 -0.88863796 0.58804375 0.73867035 -0.21045294 0.39160436 -0.31980014 -0.54257226 1.3334389 0.12257325 0.46454874 0.8447545 -0.043271296 -0.42772546 -0.97957194 -1.2955606 0.8304736 -0.10874672 0.33933723 1.3195698 0.03268621 0.49731997 0.64281756 -0.41435295 -0.16916777 1.7663635 -0.025491985 0.6761487 -0.46225312 -0.11329588 0.1390093
b -0.027091315 0.52735674 0.37800917 0.5444218 -0.7002066 -0.2869066 0.26867077 -0.003977542 -0.011281727 -0.019770293 0.20770903 0.7051905 0.30610362 -1.0106069 -0.41977817 -0.040009588 -0.62168455 -0.7507124 -0.6207217 -0.31458697 -0.6538788 1.8619627 -0.038615126 -0.43216237 -0.17025031 0.3432387 -0.61762106 0.04867013 0.40927723 -0.049623854 0.46154737 0.15393472 -0.24189547 0.19960658 -0.3210927 -0.22716115 0.42855754 -0.15730003 0.85488975 0.10070144 0.37730202 -0.52357566 -0.5276814 -0.18613285 0.62022555 -0.19259709 0.5628916 0.20492052 -0.85478425 -0.80190086
v -1.0571882 0.23672983 0.026921893 0.5916412 -0.22529058 -0.5322264 0.54672974 0.6027328 0.78840315 0.030803956 -0.22773102 0.30215162 -1.2475505 -0.2146782 -0.7754641 -0.21670201 -0.69664377 -0.22464861 -0.70498675 -0.7843964 -0.28343266 0.5609809 -0.12276054 -0.21347508 0.46829534 -0.54054344 -1.289319 -0.38222525 -0.07116587 -0.102690436 -0.0930363 0.16889527 -0.62340486 -0.53753924 -0.06570872 -0.50956845 0.25602594 0.20177205 0.8379514 -0.23716956 0.9945746 -0.5938266 -0.088015206 -0.836701 0.5323208 -0.09085853 0.26714575 0.34024906 -0.3490129 0.17200407
. 0.3724245 -0.7808702 -0.5773859 -0.19814226 0.6809017 0.6755851 -0.80581784 -0.28238612 -0.03364205 0.8241836 -1.3101968 -0.28217816 0.34084722 1.3157016 -0.054579757 0.53294384 -1.0657729 0.12756199 -0.95989877 -0.25549355 -0.47355032 0.40365738 -1.0079591 -0.5215685 0.8266675 -0.6433084 0.9958108 0.23312165 -0.5750859 0.7208886 0.21009862 0.08086549 -0.3931437 0.1524127 -0.8510309 -0.0040531848 0.6552246 0.5202661 1.5386853 -0.057969116 0.71468544 0.22631659 -0.6452474 0.012663734 0.4200241 0.664547 0.78095794 -0.8465233 1.2503862 0.24904193
k 0.009960769 0.0022545252 -0.20572813 0.23037955 0.15625566 -0.85291266 1.0656818 0.7524034 -0.9018799 -0.062887706 -0.20921661 -0.5672061 -0.5383189 -0.055672105 -0.14020582 -0.82284135 -0.4124036 0.32004783 -0.52907735 0.23521046 -0.2398293 0.42414263 -0.24764399 -0.16848956 0.19327869 -0.17472206 -1.3076943 -0.263598 -0.20128143 -0.6389299 0.16770779 -0.3487983 0.29244688 0.06839352 -0.64052784 0.33041343 -0.6350227 0.012555518 -0.015244347 0.08113788 0.5666053 -0.4286555 0.5853591 -0.16926062 1.3478554 0.25472668 0.20269577 -0.9079468 0.53437525 -0.8773495
; 1.2586623 1.2073503 -0.46050793 0.422009 0.6301098 -0.7516528 0.78318673 0.5450118 -0.07361717 -0.31006268 1.6453186 1.4344038 -0.49681547 0.30342445 0.26063973 0.32275772 -1.2652093 -0.20844135 -2.278875 -2.623269 -0.58410424 1.5700449 0.23363501 -0.7895101 0.9266292 -0.5976895 -1.0190723 1.7314936 0.5562882 0.40467814 1.2702141 0.064146824 -0.35249105 -1.078291 -1.3170395 1.0918192 -0.07856361 0.26607198 1.4093946 0.24716881 1.0994309 0.7318117 -0.1290155 0.014767224 1.4890865 0.11041018 0.9415917 -0.89118093 -0.60833746 0.153894
" -1.8816719 0.5660471 -0.15042837 -1.8960623 0.18909954 0.4628827 0.27441043 0.5381348 0.2563978 -1.6340581 0.46236834 -1.0209507 0.915067 -2.2560964 -0.7246793 1.1343715 2.461985 1.6747617 0.9879199 -0.47611174 1.4792734 -2.8458898 1.8979291 2.7814474 -1.3471538 1.3132819 -0.023699395 0.06113552 -0.62173676 0.035156813 -1.2257006 0.37939432 3.6725285 1.6318564 1.783007 -0.22949055 0.5219814 0.0003829803 -1.9134533 0.8991521 -0.7606093 -0.11781047 -0.30624193 1.0051378 -1.8895624 -1.430001 -0.39361483 0.5661145 -0.1605822 -0.39800528
x 0.3723317 0.9885825 0.7796749 -0.58652073 0.12735894 -1.968696 -1.1423938 -0.23160361 1.1019918 -0.8723148 0.28595006 -0.28004894 -1.1461993 0.7794837 0.039300747 -0.7108665 -0.013219512 0.21807593 0.06024172 -1.0374663 -0.19378288 0.37762773 0.2955473 -0.6105161 -0.08873029 -0.39276534 0.23203373 -0.54819536 0.8460767 0.01998616 -1.0003833 -0.0461242 -0.8412271 -0.70864165 -0.6625923 -1.2624463 0.78946877 0.75185096 0.32257476 -0.49758536 1.0805813 0.16118705 -0.54119474 0.19653194 1.0405858 -0.59279555 -0.14238615 0.35795105 -0.523868 0.11348686
' -0.18312992 0.6976631 -0.36907944 0.29178673 -0.5017598 -0.6184559 -0.45966232 0.0037571397 -0.44603258 1.9426156 -0.6280118 -1.5666038 1.0903054 -0.3381262 0.3883286 -0.15301362 -0.114769354 1.2051178 0.20471999 -0.3046462 -0.23775482 0.22414075 0.5047357 -0.22484863 -1.3512692 -0.2238339 -0.5681987 0.49473354 0.6035737 -1.5257543 -1.3830392 0.19116075 1.7484986 1.1775877 0.68602127 0.9539715 0.5943076 -1.7968802 -1.3840767 1.2127123 -0.3123435 -0.1786142 -1.6741278 1.301394 2.217366 1.3282695 -2.3636565 -1.7681233 0.5439136 -2.1130655
q -0.47785118 1.0762842 1.1830891 0.33274004 -1.429338 -1.0433509 0.18927908 1.0367124 0.9246486 -0.5917974 0.79972595 -0.19296104 0.77981496 -0.7375588 -0.6452399 0.12980808 -0.71396136 -0.5867251 -0.22828013 -0.97251254 0.03777175 1.9402211 -0.6627122 -0.66589975 -1.0175257 0.38369223 0.53814816 -1.0876843 0.13169701 0.33322543 0.7158684 -1.7031604 0.2831415 -1.0765213 0.36605984 0.17120162 1.5077016 0.070080414 0.58961004 0.47208366 -0.1657467 0.12489521 -1.5902442 0.87484926 -0.45815405 -1.0665137 0.5580484 1.7545515 -0.41347876 -1.1963209
j 0.7519554 -0.29159808 1.1383089 -0.46871853 -1.1582358 0.094057895 0.89785874 1.0197335 -0.04488273 0.017610839 0.3209928 -0.18917044 -0.115675405 -0.49855667 -0.27249557 -0.10866061 -0.19884235 1.0342456 0.4733749 -0.46273807 0.2341103 1.1002911 0.08078671 -0.61478806 -0.30231145 0.39214057 -0.38044196 -0.3632914 0.19221894 -0.39280233 0.25128844 -1.153621 0.44545114 -0.959804 0.5991732 0.036184553 0.15053302 -0.31603637 -0.033328597 -0.09784438 0.13980912 -0.93568987 -1.2393786 0.74589163 -0.19692925 -0.47509408 -0.36915013 -0.06729969 0.10362912 -1.1153603
z -1.5177703 -0.9051635 0.7907213 0.017986124 -0.906758 -1.0797853 0.034569755 -1.3524204 0.87202674 -0.43987432 0.89298344 -0.6395022 0.31081825 -0.3502282 -0.20844436 -0.14163391 -0.6292877 0.6059392 -0.60427916 1.501022 0.30663893 0.48734248 0.55735886 0.81878626 -0.1868101 1.8377123 -1.3915436 0.18995479 -0.35129252 -0.18355402 0.14956577 0.18298016 2.0208669 -0.6492099 0.19059949 -0.43365392 0.07294764 -1.6350254 -1.0142688 -0.17142566 0.64537096 1.4686828 1.694464 -0.86402607 -0.44790056 0.19277082 0.3677784 -0.9543095 -0.22675464 -1.0032272
? 0.33257574 -1.0292736 -0.15575168 -1.2134454 -0.09385306 -0.20968744 -0.3365335 0.61108387 0.18475756 0.565789 -1.498713 -1.090573 2.0888221 0.40810007 -0.48531848 1.0356996 1.4467425 1.9821485 -1.832072 -1.0526799 0.748715 0.87374806 0.14574912 0.3817835 0.58820903 0.3745571 0.65444946 -0.2814284 -1.0614824 0.3914308 -0.5456753 0.5465801 1.766019 1.8724263 -1.0922908 -0.15768453 0.9376684 0.203759 0.0089898035 0.64409 0.8493841 -0.19044866 -0.067783065 0.23405902 -0.44180506 -0.4602538 1.8454838 0.14324285 1.8687657 0.39799607
: 0.24665782 0.42775336 0.00062517775 -0.91498256 0.2518487 -0.10834949 0.05532387 0.28491268 -0.05279824 -0.44677597 0.58830446 -0.16221952 0.7992769 -0.5894989 0.14273243 0.747668 0.7282494 0.8975966 -0.5675302 -1.3567199 0.35764232 -0.3988853 1.1461132 0.52049065 -0.09235182 0.47724977 0.095426545 1.2856934 -0.22505991 0.22318584 -0.2931796 0.16158043 1.8443485 0.5896062 0.016225398 0.22990124 0.47211233 -0.025117585 -0.5361195 0.61494744 0.109413095 0.37446547 -0.2365748 0.7932193 -0.09413564 -0.43278047 0.26879603 -0.14924559 0.2877911 0.051727187
é -0.11442801 -0.0012595162 0.16160129 0.0037792488 -0.24614337 -0.11282968 -0.08088745 0.11187019 0.07724741 0.31047106 -0.19511634 -0.09669504 0.16283588 0.11955274 0.039878484 0.012236894 0.3511241 0.62592256 -0.026070574 -0.11106929 0.15265287 -0.110449046 0.20238835 -0.08264084 0.007729962 0.0019664513 0.1957874 0.25492403 -0.11241347 -0.11355075 -0.2590571 -0.011743463 0.41472715 0.090349704 0.076647736 -0.073099695 0.35990348 -0.20679612 -0.2844258 0.13974771 0.048386708 -0.081875816 -0.33182085 0.19365805 0.09720184 -0.10539463 -0.035861745 0.0134792635 0.25876385 0.011385807
æ -0.0820319 -0.118125334 0.052696947 -0.012846394 -0.2103025 0.030478911 0.0021203551 0.12804084 -0.09600396 0.042629097 -0.06013648 -0.04147508 0.2583843 0.14425476 0.098083235 0.07552079 0.23758723 0.4764067 -0.08128099 -0.033459596 0.06751816 -0.14912403 0.023761207 -0.05858453 0.15705988 -0.003354084 0.22311634 0.051956467 -0.21956511 0.018281959 -0.024349099 -0.113421515 0.17035577 -0.0040264702 0.058608245 -0.009584337 0.101054035 -0.03990008 -0.08014497 0.010482691 -0.16789913 -0.050024517 -0.17729607 0.0011770112 -0.05463868 -0.06584548 0.053428005 0.24056052 0.32002133 0.14490248
ê -0.22628418 -0.083510116 0.048016027 0.075641975 -0.25594574 0.06144073 -0.021767247 -0.09615048 -0.0625703 0.15085958 -0.008897813 0.055596635 0.16595145 0.1812135 -0.06932688 0.0019008239 0.17468631 0.44565704 -0.010165347 0.12858364 0.07971897 -0.23773623 -0.019646406 0.16634598 0.11216605 -0.014638779 0.10398503 0.28281695 -0.11770694 -0.10370865 -0.067029156 -0.14021969 0.24645562 -0.025454463 0.0818494 -0.16988376 0.044599883 -0.21385357 -0.21105665 -0.036660448 -0.27488607 0.069786936 -0.0034480512 -0.07422352 0.06030353 -0.111611046 -0.010571113 0.14455569 0.353772 0.036123376
ö -0.15602908 -0.09273491 0.048860535 0.07951706 -0.17514478 0.020541564 0.04489851 0.049042787 -0.22532116 0.033377808 0.008306895 0.01154239 0.14751655 0.08095264 0.031801887 0.007781803 0.13691948 0.3197693 -0.103848554 0.030189993 0.057653297 -0.16164279 0.0937567 -0.009423968 0.13221097 -0.118047945 0.052456833 0.20339324 -0.14601582 -0.0766396 -0.118133776 -0.0804371 0.15217267 0.086154826 0.10358922 -0.059391774 0.09436349 -0.18731588 -0.14317031 -0.02307938 -0.19160989 0.016559558 -0.10697781 -0.0879505 -0.049082436 -0.14774159 -0.00836509 0.2371749 0.26904503 0.13195919
è -0.18663083 -0.0800081 0.025392957 0.12830871 -0.18829946 0.061895248 0.034775913 0.02069042 0.011910287 0.09840867 -0.00541421 0.0325354 0.08312683 0.03807063 -0.002430671 -0.052034263 0.0752226 0.31979898 -0.07905669 0.006906154 0.037282012 -0.09645771 -0.08324386 0.053971563 0.11252648 -0.06029443 0.017429162 0.04433443 -0.117375575 -0.042957835 -0.033494946 -0.026486713 0.21250346 0.009827865 0.03485473 -0.028012952 0.107390836 -0.080686405 -0.092248194 0.062118545 -0.044842377 -0.019573528 -0.11196635 -0.002602588 -0.0534899 -0.10197533 0.021585112 0.12343185 0.21526723 0.023782196
ë -0.15190278 -0.11485858 0.11201786 0.095683694 -0.21717314 -0.03841641 -0.0045683268 -0.04857104 -0.07771661 0.04223613 0.017257119 0.055994667 0.049065094 0.14714739 0.018035298 -0.07033125 0.035049435 0.24065347 -0.06769974 0.12487326 -0.044810526 -0.20401773 0.029575128 0.05654727 0.12620845 -0.068109214 0.008308164 0.09435215 -0.08570619 -0.06393355 -0.068615034 -0.054781906 0.07443369 -0.028933814 0.06401858 -0.047757827 0.052106567 -0.119313315 -0.07812706 -0.020495284 -0.14107801 0.04015815 -0.050998174 -0.14299208 -0.029998666 -0.078229554 0.0049013076 0.20805465 0.17562771 0.08749449
à -0.27639702 -0.0929351 0.20555958 0.18388546 -0.39792514 -0.04637314 -0.048177756 0.006654504 -0.077676766 0.18329796 -0.03862145 0.087130934 0.19800214 0.17722665 -0.015595394 -0.07489978 0.19496606 0.40208265 -0.05672579 0.10938409 0.039736412 -0.23486367 0.047543947 0.04042583 0.17960575 -0.08454153 0.04991156 0.24785428 -0.08645353 -0.1102392 -0.11160718 -0.09939817 0.25839508 0.110410415 0.10980054 -0.14259869 0.15136321 -0.21370901 -0.2071237 -0.009457742 -0.21258909 0.005959767 -0.1343452 -0.0944499 -0.17430572 -0.26736748 0.047192033 0.33896422 0.3013939 0.10933769
ô -0.13397251 -0.03531911 0.031344347 0.03173762 -0.13103417 0.015113413 -0.09264331 -0.06042944 0.073977455 0.0627229 -0.043462455 0.07035005 0.018781254 0.07488461 -0.015801148 -0.010171184 0.018859286 0.1389138 0.054794658 0.08820563 0.016835313 -0.14019798 -0.10682636 0.0439581 0.07544275 -0.037604418 0.078091845 0.027937789 -0.015698794 0.008868274 -0.051945787 -0.0074517056 0.09324412 0.02809377 0.02544314 -0.05069699 0.022631379 -0.037747413 -0.014920211 -0.01244826 -0.08673676 -0.0016900831 -0.08147483 -0.03090683 -0.17613228 -0.109872736 -0.012846955 0.18706259 0.08333978 0.008424518
ñ -0.17241621 -0.06272065 0.11581373 0.07255573 -0.18236677 -0.0028442065 0.035223927 -0.026136197 -0.086043805 -0.028188713 0.05320985 0.018363737 0.10096836 0.043285023 0.034375776 -0.022168452 0.031319402 0.29253393 -0.06244132 0.11943155 0.0163608 -0.10758694 0.07204059 0.0961252 0.120094426 0.04708647 -0.013234722 0.20984527 -0.12974554 -0.036263585 -0.023593986 -0.05546216 0.20537935 -0.029807605 0.06807187 -0.011849555 0.07257939 -0.1440456 -0.110921495 0.024229102 -0.11860945 0.07084184 -0.0516153 -0.088126086 -0.09054615 -0.10373759 0.03338127 0.16264611 0.15278651 0.011609942
ä -0.17934981 -0.011504217 0.14788716 0.12829685 -0.2494059 -0.040929943 0.038027987 0.02934526 -0.14435187 0.033608813 0.009555943 0.01332141 0.123029344 0.0833124 0.0910338 -0.0635223 0.1621779 0.27131584 -0.008883337 0.06777486 -0.014581654 -0.22957224 0.09493706 0.0013909952 0.068202764 -0.062235147 -0.006602388 0.22281112 -0.047105033 -0.084004104 -0.088097334 -0.15322822 0.19225205 -0.019153839 0.16500007 -0.073135145 0.1555628 -0.1436585 -0.19453329 0.0059201056 -0.15685478 -0.010232326 -0.15152586 -0.0072317687 0.022523187 -0.21335578 -0.023826187 0.1280129 0.14636599 0.079153344
ï -0.08400049 -0.049143974 0.058207702 0.026476845 -0.084619574 0.021646716 -0.026611552 -0.03521562 0.011460314 0.018981148 -0.004500254 0.05260049 0.013560622 0.08649398 0.011878929 -0.051128156 0.03801713 0.1371981 0.027084269 0.10854083 0.010875761 -0.1420517 -0.05761111 -0.017746868 0.06933154 -0.049073413 0.02906673 0.038064167 -0.01685081 -0.030593786 -0.00660079 -0.0004078617 -0.0016745607 -0.014000702 0.03370657 -0.03389615 0.0125732655 -0.049102165 -0.04878845 -0.0023211087 -0.085560806 0.016891932 -0.013551851 -0.1371659 -0.05013089 -0.077890635 -0.01540383 0.15565695 0.05419473 0.021040175
â -0.08643009 0.0025056645 0.12291502 0.036118757 -0.13266926 -0.0123534445 -0.017387794 -0.0041825934 0.033239596 0.04049755 0.002672005 0.031146418 0.12336833 0.040083896 0.060716514 -0.04764651 0.14238383 0.20323151 -0.013623439 0.08690351 -0.003056254 -0.15590343 0.06019002 -0.024554852 0.10635748 -0.035478983 0.07769248 0.18940766 -0.082187265 -0.036557928 -0.05881778 -0.041962497 0.1878345 0.035843216 0.018561948 -0.041454155 0.098798044 -0.08335171 -0.15518196 0.05084427 -0.06367826 0.006584554 -0.088545926 -0.053647272 -0.033149354 -0.11408228 0.06386453 0.1472919 0.08827061 0.071426764
ü -0.11617827 -0.06354597 0.058887027 0.105289295 -0.11649461 0.026794884 0.04859094 0.0007287028 -0.11119247 -0.013404858 0.022718899 0.0419405 0.040737327 0.042481974 0.057007365 -0.06683033 0.06464869 0.11064433 -0.036817398 0.107677825 -0.054281823 -0.1602928 -0.059934527 -0.0042673703 0.08024371 -0.11738946 0.033312276 0.02428118 -0.07107671 -0.05316601 0.000586161 -0.047200467 0.016957156 -0.027444122 0.045869615 -0.042525478 0.07056022 -0.08056746 -0.031906035 0.0055989535 -0.13414285 0.0024058449 0.020260006 -0.14012061 -0.03316578 -0.040240962 0.023602137 0.18392602 0.11480252 0.08114039
ο -0.29299864 -0.11950753 0.22323556 0.21597306 -0.40202603 -0.015160004 -0.02283791 -0.02443183 -0.09960436 0.1966509 0.04508818 0.17053123 0.17644556 0.27907485 0.069291644 -0.15744461 0.12444254 0.48325053 -0.0748823 0.28404242 -0.019002663 -0.4560203 -0.041988082 0.04205526 0.2567214 -0.2211996 0.09783801 0.2801885 -0.10069443 -0.13196068 -0.14352219 -0.08458398 0.23638915 0.14123486 0.18455726 -0.06822567 0.10700583 -0.25257623 -0.23690198 0.013692748 -0.33825016 0.0517966 -0.1104081 -0.18320046 -0.24239428 -0.354069 0.0669016 0.46958438 0.42849666 0.15196015
ἶ -0.14565942 -0.041371863 0.13907126 0.104546 -0.2178975 -0.01831458 -0.026900707 -0.004219575 -0.052240215 0.080139354 0.028979791 0.1159941 0.112470925 0.12641212 0.0354578 -0.095413744 0.10588699 0.32454634 -0.05217898 0.15506317 -0.017096117 -0.28028584 -0.062288024 -0.026587518 0.15185988 -0.14537877 0.03602179 0.15922457 -0.06698929 -0.06355685 -0.10175504 -0.046497956 0.15320297 0.07491019 0.104098834 -0.016525907 0.08894595 -0.16379169 -0.14068449 -0.0081805745 -0.20277566 0.023734622 -0.06304022 -0.14203638 -0.1632851 -0.21620929 0.027349584 0.295248 0.19952023 0.07986598
δ -0.16628627 -0.07922509 0.118818685 0.09102228 -0.20976414 -0.013241505 -0.045263004 -0.027610028 -0.064143725 0.089267395 0.031215228 0.08191382 0.1372702 0.1398871 0.06900498 -0.087510385 0.113978215 0.28625575 -0.039985172 0.16855204 -0.011451086 -0.30191997 -0.062224735 -0.0056521473 0.15058666 -0.14296749 0.06284182 0.164256 -0.0771257 -0.058309842 -0.1009059 -0.014429065 0.19695164 0.12396678 0.09353992 -0.017429441 0.09719825 -0.14481132 -0.1629929 0.03252748 -0.20769708 0.032260317 -0.06295804 -0.13156405 -0.1924868 -0.22622284 0.01945623 0.33261883 0.20307189 0.09798957
α -0.12874234 -0.067242414 0.08624844 0.07305257 -0.1356116 0.033167645 -0.011979127 -0.027002571 -0.050154503 0.0861825 0.0017686368 0.07839305 0.12489473 0.08191098 0.03499363 -0.080393635 0.08990716 0.2189496 0.0023536067 0.15700617 0.01729469 -0.24478687 -0.025428878 -0.008514626 0.09084477 -0.1129138 0.063821904 0.121209815 -0.07051617 -0.029977594 -0.077281296 -0.011599578 0.17676973 0.12274639 0.08057753 0.007822102 0.048832066 -0.12214396 -0.118765645 0.026967473 -0.14492458 0.014601114 -0.07477538 -0.10588898 -0.17001179 -0.16031352 0.03526619 0.23416035 0.15632816 0.052615356
π -0.17142384 -0.04112301 0.11019612 0.12663953 -0.21419813 -0.014928953 0.0072993673 -0.024440566 -0.11298207 0.047685146 0.010831177 0.049642757 0.06322035 0.13808934 0.0026633535 -0.066026986 0.10585128 0.3017547 -0.079860814 0.11250031 -0.015450208 -0.1924409 0.005048073 0.016119469 0.1368044 -0.12079553 0.03714084 0.18713656 -0.06661397 -0.0732696 -0.04582947 -0.078880355 0.07904593 0.009651566 0.059700787 -0.097389586 0.057744697 -0.095463954 -0.069230296 -0.03652459 -0.14528732 0.00029624626 -0.08692276 -0.13306497 0.0007539656 -0.1284373 0.014520106 0.19087692 0.20634934 0.064040825
ν -0.1589501 -0.03642999 0.103313476 0.11482507 -0.17161591 -0.014513531 0.014675121 -0.034767743 -0.07076481 0.07387627 0.01443191 0.03990712 0.06659522 0.14512523 0.005395025 -0.07953916 0.10775282 0.2784236 -0.07000008 0.13113728 -0.026083663 -0.16071875 0.0042892443 0.024569526 0.1339103 -0.10495699 0.0127758365 0.1674529 -0.0763865 -0.08539799 -0.02691323 -0.10244856 0.073321775 -0.0052800546 0.041037165 -0.098756775 0.06839449 -0.08699677 -0.051311538 -0.04479174 -0.16992372 0.006215407 -0.1002779 -0.12689883 -0.007203004 -0.10636307 -0.0017131107 0.18525253 0.18242063 0.0661753
υ -0.16991076 -0.050369557 0.10313503 0.12532753 -0.19258524 -0.044311177 0.038288273 -0.0067430586 -0.11972845 0.07103135 0.009758394 0.057741985 0.049150314 0.14482024 0.006625572 -0.063904986 0.05525786 0.27973565 -0.101319335 0.05069801 -0.0195043 -0.12782975 0.04551568 -0.0011761512 0.12291012 -0.116342746 -0.019148713 0.17732365 -0.0480227 -0.09559434 -0.042496894 -0.100409076 0.05677445 -0.03189478 0.061279025 -0.10208319 0.05085749 -0.10102602 -0.039763693 -0.04289301 -0.13579628 0.02421618 -0.060378186 -0.113975234 0.07569909 -0.086870074 0.019555558 0.1511083 0.1754381 0.056993984
ς -0.09243703 -0.050096177 0.045641456 0.07681152 -0.13922328 0.013127271 -0.0013137287 -0.029831037 -0.039577123 0.06278854 -0.020914095 0.028821912 0.07144303 0.11347174 -0.008123198 -0.025625156 0.08084602 0.17479402 -0.019905282 0.079034775 0.015517671 -0.12141961 -0.0032652495 0.04226591 0.09511964 -0.07043765 0.033991817 0.08253129 -0.0451723 -0.037906103 -0.016740557 -0.036207456 0.08384155 0.0039338907 0.028855275 -0.045427006 0.049096443 -0.06945614 -0.07052667 -0.020732066 -0.11859785 0.028464343 -0.03883216 -0.0799703 -0.028017549 -0.07499097 0.0068021505 0.11738224 0.13430421 0.06240608
å -0.06518887 -0.002753167 -0.011592526 0.027767459 -0.025445946 -0.021643762 0.0009170818 -0.0021106303 -0.027168814 0.03086057 0.0021356142 0.0059378995 -0.011110782 0.03357016 -0.030806484 -0.027491882 -0.0107126 0.039966475 -0.010928269 0.022607489 0.004230274 -0.030167025 0.015754217 0.019911172 0.033671793 -0.037858613 -0.013240881 0.0340145 -0.031950533 -0.00843491 0.0015230207 -0.024832161 -0.021774251 -0.0009908562 -0.017708141 -0.03046996 0.01600633 -0.020055922 -0.011859568 -0.023133252 -0.018784735 0.015842874 -0.017465824 -0.027027674 0.014909073 -0.03299309 -0.0028265102 0.00052691926 0.05299207 0.025864277
ç -0.020162614 -0.013776877 0.0031839097 2.0591775e-05 0.016373266 -0.004080781 -0.015267966 -0.007494829 -0.018577123 -0.0029711775 -0.0050312807 0.001218726 -0.0035736838 0.025985116 0.017702831 -0.030846614 0.0065470296 -0.0054565575 -0.01636816 -0.010051122 -0.010513149 -0.017093213 -0.0002708711 -0.009481477 0.035212178 -0.0023890075 -0.0071846703 0.038120117 0.00093895145 -0.005859618 -0.017552853 0.007157783 -0.031459287 -0.009978442 0.010156105 -0.011047259 0.0094994325 -0.012087985 0.021774802 0.0045001684 -0.018802715 -0.0009428995 0.0069321753 -0.008521793 0.0016494328 -0.0076443604 -0.024755483 0.04240752 -0.0064455383 -0.0047741677
î 0.00062013033 0.017127214 0.01270145 0.025876708 -0.025988387 -0.020653738 0.026305903 0.017240101 -0.0071573555 0.00788434 0.025450882 0.02135108 0.012568456 0.031782016 0.02170271 -0.02764051 0.009574266 0.040120926 -0.027335793 0.025599107 -0.0057999818 -0.019166827 0.01408151 -0.030382 0.006804204 -0.0391722 0.0036416205 0.069572344 -0.001958076 -0.00692216 -0.02627809 -0.021369347 -0.012789229 -0.007152047 0.011652742 0.02129018 0.001929453 -0.010853463 -0.013843347 -3.483778e-05 -0.034939997 0.026015624 -0.005828239 0.005607755 0.012813726 -0.016627084 0.0046885363 0.02511017 -0.0077742133 0.017353382
