60 100
_ -0.3039557 0.63548356 0.19053553 0.37478614 -0.6066334 0.12763742 -0.7411164 0.3889414 0.51921004 0.33722892 -0.22501563 0.36708868 0.44204083 -0.046611045 -0.49206308 -0.44110137 -0.058136757 0.27206954 -0.2389123 -0.46770296 -0.23740372 0.26878354 -0.14111263 -0.17064412 -0.14344402 -0.18183838 -0.5527669 0.14057739 -0.6855184 0.81423515 0.9896409 -0.731895 0.24305356 0.7350675 0.089413926 -0.42040685 -0.42888814 0.040393963 -0.022332922 -0.011514607 -0.40444577 0.1885187 0.21923804 -0.13574775 -0.60566485 -0.71152836 0.1906212 -0.18304332 0.37421227 -0.044401575 0.3891832 -0.08867101 0.21779335 0.26378256 -0.001170418 -0.021531723 0.48335093 0.20974062 0.750266 0.72946364 -0.26014614 -0.18319778 0.3763021 0.19311734 0.27346537 0.37010002 0.30135083 0.55781484 -0.31045377 0.027929008 -0.16276424 0.008374262 0.37749815 0.034269698 0.5098208 0.21160202 -0.23559763 0.00398466 -0.022571791 -0.37575132 0.73171115 0.34522796 -0.17161341 0.64677835 0.64521754 -0.3719962 0.22656062 0.37682146 1.3227493 0.22685008 0.96417844 0.59480375 0.22256505 -0.65470743 0.90753996 0.01528731 0.28570074 0.2017887 0.60470223 0.83934623
e -0.46016926 0.5221953 0.017225446 -0.07847559 -0.1500215 -0.07695086 -0.6444093 0.002592007 0.9825774 0.7075147 -0.21917793 0.50509554 0.3058469 0.10952837 -0.37874895 -0.07224253 0.1435327 0.43733448 -0.0029605043 0.05967491 0.0043585715 -0.13056354 -0.2991966 -0.18720494 -0.33144972 0.30390412 -0.70466727 0.7808517 -0.32230508 0.3532393 0.56846833 -0.32492304 -0.29217303 -0.35256505 -0.18436928 -0.10373173 -0.23159821 -0.11855407 -0.034353886 -0.17496772 0.13707715 -0.4630137 0.17281659 0.06060344 0.062141933 -0.7066004 -0.12145323 -0.6491242 0.3863298 0.059229683 0.5478819 -0.11612 0.039981537 0.27967224 0.018322973 0.122379415 0.43824306 0.19996108 0.65194935 0.7503007 -0.38019025 -0.22973014 0.08867988 0.19300549 0.1493796 0.5082599 0.15636279 0.41113806 -0.53518915 0.14650579 -0.1257772 0.1594732 0.17533983 -0.096333995 0.27867046 0.2622486 -0.41716504 -0.027614966 -0.15153572 -0.39426476 0.29150525 0.5109732 -0.08381612 0.41796187 0.68557125 -0.28987613 0.11117318 0.22666886 1.0318948 0.098886125 0.21945532 0.3631638 0.25063813 -0.34521303 0.51336485 0.006800877 0.38435537 0.06646629 0.06227938 0.47074047
t 0.25487205 0.24739547 0.04818425 -0.29565644 -0.3046873 -0.20820168 -0.24700904 0.4150589 0.73375976 0.6266277 -0.31304964 0.7573788 0.4341932 -0.05251288 -0.64980906 0.000697956 0.38816217 0.2547011 -0.24944939 -0.34709942 -0.14045659 0.11751881 -0.36265123 0.008510054 -0.20530224 -0.20087337 -0.9062565 0.272564 -0.7506545 0.608802 0.6959662 -0.4344534 0.3376186 0.33961102 -0.04660306 0.050471015 -0.40519494 0.10642059 0.11863128 0.13388348 -0.05628877 0.2617717 0.06384083 0.025282774 -0.11680664 -0.047610685 0.30055335 -0.12401584 0.112057135 0.042263072 -0.10182582 -0.08857703 0.025711695 0.035170905 0.42674312 -0.07072963 -0.25419673 0.17446326 0.10847161 0.28793538 -0.18289997 -0.5360241 0.43105444 0.09610334 0.13866816 0.18825407 0.20351362 0.3891342 -0.4512561 0.093398996 -0.16803066 0.02241781 0.19175775 -0.19255194 0.29804838 0.5116965 -0.101867884 0.12020575 0.0048846966 -0.15636532 -0.1588146 0.0768932 0.24048667 0.81073684 0.64420813 -0.49326682 0.06830329 0.08934525 0.8676457 0.08587352 0.83638066 0.5727291 -0.073924154 -0.59507453 0.044374626 0.056283142 -0.019500071 0.01055399 0.39039746 0.33190328
a 0.17376634 0.5166396 0.0072195106 -0.5212129 -0.22385238 -0.114562474 -0.762625 0.06773672 0.33082607 -0.047864318 -0.1935773 0.42212158 -0.007889716 -0.15622538 -0.40441668 -0.054551672 -0.13076697 0.14335097 -0.12810402 0.03534977 -0.10976927 -0.25060788 -0.020018699 0.19839063 -0.6689173 0.2578868 -0.99779236 0.7742239 -0.00341932 0.42609447 0.5901529 -0.22222118 0.18271832 -0.066815585 0.0514874 -0.044895757 -0.3116428 -0.42044744 -0.11602545 0.15054435 0.17190877 -0.20333256 0.105995186 -0.17564277 0.036668804 -0.7884004 0.10976513 -0.6918584 0.1457306 0.09907879 0.36715263 -0.10726317 -0.078594916 0.010284589 -0.4608748 0.04854446 0.5716888 0.22884294 0.45623106 0.82202905 -0.14888015 -0.3442812 0.7976304 0.25156057 0.2475134 0.060029298 0.005818743 0.24037723 -0.0026721389 0.050086915 -0.188264 -0.047211427 0.23255448 0.25672624 0.15164481 0.21858312 -0.08680398 0.14160243 -0.19910942 -0.25383008 0.5282443 0.49705422 -0.17442998 0.46117795 0.2236542 -0.42990673 0.38304213 0.49490544 1.0212396 0.09223097 0.88375133 0.35351127 0.09818512 -0.46194994 0.5966085 -0.0124511905 0.22538021 -0.09767125 -0.08158402 0.37803593
o -0.030131558 0.39553794 0.19904874 -0.34161785 -0.2926318 -0.08536472 -0.46996042 -0.15148547 0.4210276 0.45550796 -0.06775491 0.64549416 -0.43514493 -0.2716605 -0.046345472 0.04349754 0.1261844 0.40508482 -0.22363971 -0.2385024 -0.06526039 -0.0046174205 0.41902417 -0.07003871 -0.30936682 0.033066217 -0.69920594 0.7523144 -0.45949134 0.4306025 0.61845475 -0.29102126 0.16744864 -0.0767333 -0.003494427 0.23592576 -0.15599522 0.039774835 -0.010451574 0.34716007 0.67618966 -0.22812 -0.24724247 0.3811442 0.0534497 -0.40055418 0.12230443 -0.38038734 0.11328266 0.07256122 0.6172742 0.20966175 0.04470897 -0.09857609 -0.4616662 -0.071765535 0.4413204 0.29334077 0.3823303 0.48877102 -0.24149741 -0.50218385 0.61728203 0.3739691 0.03132985 0.23908907 0.28492305 0.31661454 -0.07151899 -0.07915648 -0.25485796 -0.13830028 -0.052522287 0.057763726 0.15657988 0.23748142 -0.26294172 -0.0782502 0.08644516 -0.20458086 0.40655163 0.2008755 0.36886662 0.20466194 0.66159886 -0.3359452 -0.124694414 0.1887734 1.0701019 -0.12762232 0.97275376 0.39507377 -0.14873938 -0.41379315 0.52843857 0.34873024 0.010256961 0.19035722 -0.22081752 0.054680582
n 0.0945034 0.2468345 0.0058382982 -0.3165352 -0.67202663 -0.4245442 -0.25602025 0.027860228 0.48627147 0.44048005 -0.4665825 0.3743616 0.3257201 -0.3993504 -0.876794 0.2037137 0.31112367 -0.09977246 0.11909924 -0.0416787 -0.06149682 -0.22360392 -0.13298102 -0.9152137 0.16498397 0.18048866 -0.88719195 0.3139503 -0.10730024 0.5987312 0.53412217 -0.062377177 0.27933726 -0.05840998 0.04445738 -0.06857947 -0.3032346 -0.25227478 0.23732914 0.0764268 -0.36145368 0.27120012 0.31543827 -0.51444757 -0.0128500275 0.25569466 0.3011074 0.3436904 0.65130264 -0.117254004 0.4523189 -0.35078982 0.3743099 0.20815764 -0.22263958 0.14603877 0.37663502 0.090669714 -0.03990959 0.41090664 -0.505267 -0.6889463 0.38066038 0.46265724 0.32814875 0.23605965 0.26910433 0.4328158 -0.31608796 0.23344105 -0.010337184 0.269338 0.44765905 -0.15000433 -0.1458276 -0.023273408 -0.18115339 -0.20366937 0.037574235 0.13025403 0.03345926 0.37607607 0.2039826 0.74191606 0.21613969 -0.43253618 0.3966522 0.26344523 1.1372252 0.5814254 0.8572209 0.27369452 0.3069771 -0.7602627 0.7708387 -0.2691895 -0.07208105 0.21912393 0.13827844 0.78636664
i -0.59499824 0.6637827 0.19664581 -0.3435964 -0.045858234 -0.16195524 -0.37898996 -0.008635992 0.41352516 0.30823725 -0.0037657942 0.47496083 0.02305424 0.11140442 -0.07056045 -0.03268498 -0.14445318 0.45212495 -0.06974902 0.28754565 -0.24006252 -0.08114718 -0.101586625 0.14504942 -0.3765845 -0.05963746 -0.70811206 0.59145653 -0.37714234 0.41845214 0.76890993 -0.49691254 -0.035723493 -0.122242 -0.021741716 -0.12190978 -0.34576058 -0.61760056 -0.3233459 -0.13066241 0.21702749 -0.11675575 0.18574573 -0.10496715 0.15667035 -0.15961419 0.20148015 -0.43488947 0.47190607 0.11052057 0.4280237 -0.4204264 0.010243721 0.13590258 0.034181673 0.061497524 0.2653174 0.2511127 0.31068334 0.6130306 -0.3228087 -0.6315402 0.41227314 0.28866872 0.39375773 0.16039585 0.21536802 0.55986667 -0.64526117 0.04477887 -0.12680553 0.18868233 -0.2975698 -0.042118672 0.13267913 0.16701806 -0.5605042 0.26484337 -0.058019433 0.14266282 0.47828835 0.52890706 -0.12126383 0.48698822 0.2545907 -0.08608025 0.13234161 0.50093454 0.6235674 0.0048811096 0.48691928 0.13920486 0.16312347 -0.5798211 0.64868695 0.17141868 0.23534478 -0.020019123 -0.17026636 0.21436815
s 0.29009748 0.24597298 0.110676646 -0.045048352 -0.20249349 0.031006347 -0.40254003 0.025656033 0.65974945 0.32153517 -0.18797512 0.4073368 0.33932722 -0.26108837 -0.29128614 -0.20397878 0.07619326 -0.081255995 -0.22027047 -0.35519212 -0.009785272 0.06524458 0.16805293 -0.3765442 -0.23022883 0.082559384 -0.6756703 0.15673156 -0.2883137 0.6610445 0.53626853 -0.15704589 0.09934554 -0.02240858 -0.15984184 0.25781012 -0.119900815 0.21006568 0.12851566 0.16928452 -0.17815459 0.099326074 0.2285956 -0.12287813 -0.003358008 -0.19665447 0.025893062 -0.07105002 0.090621315 -0.12796442 0.18053102 -0.34088573 -0.0016117225 -0.04108404 -0.14453389 -0.052501388 0.37719393 0.0916757 0.22446643 0.3409943 -0.19060592 -0.44777784 0.72336817 0.12999606 0.19241624 0.15569815 0.07533429 0.1013704 -0.16429882 -0.023305139 -0.06601846 0.1081589 0.19519813 -0.030344175 0.084137715 0.058006104 0.01824326 -0.029511144 -0.10155158 -0.1221654 -0.110947445 0.1851293 0.06453924 0.61266106 0.33714765 -0.36164495 0.31684062 0.13020201 0.88291645 0.24816912 0.7581993 0.40758508 0.01553568 -0.37159473 0.47479287 -0.07801017 0.21435308 -0.05197036 0.3778863 0.37410417
h -0.18907128 0.46812192 0.39039946 -0.18584554 -0.5969653 -0.5570733 -0.07674315 0.13743201 0.3200554 0.45673007 -0.22352394 0.5016575 0.13861915 -0.55212617 -0.2503387 0.026396163 0.27898479 -0.34000304 -0.24310714 -0.047979433 0.07932251 -0.03723851 0.023652617 -0.53463846 -0.2515903 0.24231538 -0.9346153 0.5804249 -0.25576615 0.6077203 0.41489437 0.08732521 0.17605342 -0.16704844 0.22220019 0.14782307 -0.3779196 -0.23840068 0.13858058 0.118759744 -0.4292591 0.3389912 0.70830137 -0.417476 -0.46739978 -0.54960394 0.18273866 0.09353468 0.4070445 -0.057825048 0.2698289 0.1437144 0.015996883 0.020743182 -0.31755745 -0.05976516 0.22402231 0.19194645 -0.17509355 0.19872549 -0.097383544 -0.6097967 0.6599353 0.66497296 0.29537827 0.34447557 0.5924457 -0.0172126 -0.31753957 -0.04212288 -0.3779123 -0.36522993 0.110305525 -0.13749857 -0.033096194 -0.20288388 -0.5145753 -0.4988438 0.17284147 -0.05010761 0.52155775 0.075691134 0.35563222 0.40394312 0.42079967 -0.25375232 0.15635829 0.4244179 0.7223541 0.012189075 0.55055606 0.26436287 -0.14000164 -0.51692337 0.633245 0.08268319 -0.002034793 -0.23774126 0.5719702 0.43882698
r 0.25980303 0.63935643 0.32546693 0.13852936 -0.32272038 -0.17847191 -0.19720025 0.47188717 0.2895276 0.41694647 -0.2111097 0.68842465 0.4133346 0.09350462 -0.38450015 -0.17878032 0.04449444 -0.016458716 -0.28875154 -0.8044383 0.056441527 0.3251544 -0.028858712 -0.048996225 -0.03785927 -0.1923212 -0.76867425 0.5553964 -0.6886212 0.4008798 0.31777018 -0.20123596 0.11438122 0.36779916 0.057971276 -0.020884616 -0.29919204 -0.12412847 0.15021817 0.2141223 -0.18655133 0.261379 0.44858855 -0.1306425 0.16668527 0.17261067 -9.637497e-05 0.17894909 0.76335406 0.13915095 -0.15624152 -0.15819138 0.43443614 0.0685861 -0.020830816 0.24679206 0.640719 0.058036514 0.5516475 0.74742734 -0.21931608 -0.70289445 0.5901121 0.319855 0.13346474 0.045132913 0.3990898 0.16080238 -0.11327241 -0.016456177 -0.16725875 -0.2422692 -0.101558834 -0.30667263 0.10648357 -0.18596067 -0.03594892 0.044374444 0.06629692 0.21025611 0.15303648 -0.023866104 0.034698766 0.6165725 0.024413744 -0.294183 0.25424576 0.30813906 0.8923251 0.29813278 0.64409965 0.4128225 0.16411081 -0.40653893 0.49634656 -0.19143054 0.07698594 0.06595401 0.40032664 0.4171559
d 0.52824545 -0.030887071 0.08959062 -0.23975478 -0.5024653 -0.078656636 -0.28451657 -0.15168054 0.32540768 0.3501906 0.026077313 0.5018478 0.53244436 -0.22076672 -0.16531846 -0.13979839 0.07179874 -0.14656399 -0.5449214 -0.18312372 -0.05697667 0.1984456 -0.5799874 -0.15044968 -0.43382627 -0.3101745 -0.8889216 0.41262352 -0.33687678 0.62573713 0.713789 -0.42351353 0.41432995 0.15792784 -0.20795916 0.08799536 -0.662251 0.03149209 -0.21503519 -0.59398776 -0.114861056 0.24542096 0.38396642 0.027233632 -0.04271541 -0.41440433 -0.17372267 -0.29825428 0.41581878 0.4074584 -0.12609506 -0.0009839025 0.21305695 -0.098556064 0.07194111 -0.034171112 0.016819997 0.08026005 0.17931126 0.29828218 -0.13783817 -0.29413408 0.5726075 0.021263154 -0.0793731 0.22589424 0.17193235 0.11985598 -0.38786134 -0.024520835 -0.22568345 -0.019760333 0.14180645 0.0004395753 0.5145145 0.22098804 0.19339581 0.26680723 -0.1636931 -0.14028649 0.15728436 0.03855212 -0.22095643 0.5387584 0.5527081 -0.15723749 -0.042404827 0.15668018 0.67892045 0.4085369 0.620019 0.4701156 -0.20467365 -0.30643624 0.41586927 -0.01948155 -0.064523384 -0.19986607 0.6872471 0.535175
l 0.015178674 0.46858987 0.15883335 -0.09457938 -0.930656 -0.5074319 -0.53302044 0.036000967 -0.22347182 -0.082642175 -0.18104242 0.20705128 0.4872978 -0.12973586 -0.8936897 0.20899126 0.67904633 -0.38306078 -0.3090848 -0.4178039 0.05608709 0.19569726 -0.2575086 -0.39915046 -0.07053685 -0.12040644 -0.69577414 0.4771797 -0.35687682 0.53150374 0.55698735 -0.4319586 0.23988788 -0.038154297 -0.33598223 0.0848108 -0.0018918095 0.015184294 -0.0004969585 -0.3023686 -0.32199413 0.14496723 -0.03654166 -0.18223737 0.10727373 -0.2602468 0.038043465 0.15725343 0.47492686 0.41370103 0.12009702 0.082824826 0.37526172 0.18490407 -0.121012926 0.20510155 0.5068369 0.14162605 0.3868789 0.7624127 -0.2888137 -0.53102523 0.9350054 0.0002503337 0.21150903 -0.1106648 -0.011072781 0.21614377 0.0052641365 0.02562052 -0.18951634 -0.0057085003 -0.017194614 -0.32483697 0.07891797 0.19850503 -0.19316807 -0.0039127725 -0.24563104 -0.24042921 0.034006577 0.32791898 -0.115926445 0.5326609 0.14304379 -0.08520836 0.01578002 0.2859024 0.8546313 0.51069957 0.42701522 0.3133869 0.09462758 -0.33245158 0.6761669 -0.29617104 -0.055712942 0.02087745 0.23770629 0.6116631
u 0.28477743 0.55948377 0.8032762 -0.26080042 -0.34150454 -0.10772935 -0.7691365 0.15820807 0.6900765 0.24372868 -0.17867383 0.2600848 0.29067746 0.037873045 -0.7813041 -0.4430701 0.37630153 0.4409574 -0.11806723 -0.28847483 -0.16731703 -0.21026953 0.0031809213 0.44300893 -0.2695399 0.074621215 -0.29743987 0.56380475 -0.37656346 0.097196765 -0.17423667 0.15190831 -0.29386312 -0.44967723 -0.2762052 -0.47394505 -0.4007524 -0.36076683 -0.10379193 0.06375692 -0.11869929 0.17201094 -0.2509624 -0.01482944 0.06083558 -0.098062485 0.25153115 -0.36565334 -0.2856155 0.11933893 0.4001674 -0.48685065 -0.25789422 0.008670876 0.2969978 -0.32975146 -0.075922705 0.3606864 0.022559792 0.35410652 -0.4359342 -0.3264009 0.14343433 -0.06371338 -0.13277319 0.71259004 0.28128743 0.5956944 -0.45525932 0.022949696 0.3493011 0.4411863 -0.3850337 -0.17969334 0.026952554 0.10607859 -0.55453897 -0.4636332 -0.41467875 0.24138387 0.3535337 0.7340386 0.05232245 0.62886053 0.35122824 -0.068079144 0.21072818 0.1320353 0.7670572 -0.036814958 0.81971866 0.07508238 0.46854138 -0.9211497 0.9829417 0.30339554 0.9359824 0.30929103 -0.088106506 0.4954775
m 0.60011774 0.23892695 0.16433069 0.13615564 -0.5333019 -0.7970653 -0.2715535 0.556501 0.3263354 0.15117253 -0.1780956 0.41551617 -0.24856184 -0.16227889 -0.47932595 0.5221722 0.088692196 -0.06447161 -0.16255951 -0.45939523 0.063357584 0.19304098 0.06421112 -0.3079814 0.085333906 -0.44924313 -0.3047292 0.32120392 -0.24760754 0.052011278 0.22240484 -0.13937652 0.08283203 0.03394228 -0.09846316 -0.08996578 -0.34555072 -0.14518236 -0.17563125 -0.32618144 -0.09808225 0.2592129 0.4229586 -0.07657766 0.0016890824 -0.34583426 -0.18707886 -0.20253217 0.28296486 0.3703638 -0.5821685 0.16827796 0.12560628 0.23216017 0.23653077 0.09681305 0.49877092 0.2787514 0.41381556 0.54213184 -0.111568965 -0.46950936 0.6940986 0.24111344 -0.33141372 0.2356837 -0.06721362 0.1951958 -0.16949278 0.10000955 -0.062110998 0.01153756 0.2922947 0.001475504 0.3556957 0.13324668 -0.04497566 -0.19188194 -0.30344766 -0.24470586 -0.14177091 -0.05902521 -0.015802488 0.5827595 0.5253891 -0.40654084 -0.058916762 0.033013098 0.7123498 -0.018427357 0.9933454 0.33651152 -0.21519381 -0.20489004 0.30901527 0.2576271 -0.29278153 0.21712221 0.016103754 0.32037216
c 0.37522987 0.15149684 0.17213085 -0.0812548 -0.41290668 0.21095665 -0.4888981 -0.27997935 0.819062 0.5308505 0.018254764 0.45512998 0.36018822 0.15285012 0.01235989 -0.0042322767 0.12625025 0.030633029 -0.15173936 -0.40009716 0.048550684 0.16061215 -0.03044134 -0.069118254 -0.24431954 -0.15119272 -0.30740762 0.23663053 -0.15620449 0.44304395 0.75053316 -0.85358465 -0.0025822436 0.2911332 -0.046877403 -0.07633335 -0.24206136 0.21679968 0.04243853 0.11596352 -0.19033456 0.2692939 0.26043412 -0.11762088 0.088585645 0.41246188 0.023052527 0.17635879 0.25072297 0.052319095 0.15234722 0.030115247 0.1281922 0.007036878 0.16365643 -0.08172943 0.3232299 0.21220621 0.73656267 0.5745103 -0.2812915 -0.282348 0.1548993 0.14000177 0.14846773 0.19178179 0.07461692 0.3113067 -0.30695853 0.20535354 -0.2238555 0.06307558 0.6461907 0.044864807 0.16628206 0.25442353 -0.03435862 -0.0935228 0.013680199 -0.5791196 -0.5167074 -0.08445007 0.22627997 0.34226978 0.8691867 -0.7815877 0.06539313 0.059593786 0.9865875 0.08491196 0.80883235 0.50126624 -0.022770323 -0.35685757 0.8161986 -0.010306218 0.08607309 0.16494404 0.5699248 0.58957785
f 0.46444973 0.14255913 0.04041659 -0.22796597 0.0056463983 -0.3107057 -0.33261523 0.38016003 1.0201614 0.7349147 -0.29605377 0.82331 -0.17917334 -0.17908472 -0.3888006 0.6622925 0.060474332 0.20473984 0.25460672 0.18013772 0.012327937 0.48906752 -0.10984459 -0.2957692 -0.20016417 0.14009453 -0.6788371 0.10045597 -0.0570857 0.73755866 0.6159454 -0.21336383 0.15351467 0.22642274 0.064869754 -0.20551138 -0.17385213 -0.2616185 -0.34410176 -0.2858461 -0.81510675 0.7074852 0.47826022 -0.44955736 -0.45005187 -0.12439835 0.16136391 0.05312908 -0.11519524 0.049273264 -0.52368367 0.111062124 -0.066961326 0.102957666 0.3752057 0.1768983 0.1318744 0.40544096 0.52090234 0.5417366 -0.09712062 -0.67699444 0.6519117 0.5395176 0.01336384 0.60532683 0.013384195 0.2464778 -0.21935907 0.3894374 -0.16930412 -0.050034374 0.4955284 -0.05316058 -0.17583326 0.08316041 -0.33182165 -0.5348341 -0.02196695 -0.4497182 -0.28870943 0.014325784 0.20457329 0.5304911 0.6083582 -0.51715827 0.04281966 0.18735585 0.46956012 -0.4819104 0.83865595 0.20168918 -0.03470653 -0.35513914 0.23323768 0.071484946 -0.06036996 0.1901894 0.29973546 0.5274899
w 1.0049816 -0.039464958 0.3674539 -0.37452057 -0.60077274 -0.25837034 0.046992783 0.2720151 0.39763084 0.4851522 -0.09329165 0.45024744 0.30324945 0.16889809 -0.40829393 0.2682757 -0.070364535 0.19137019 -0.22908486 0.16574384 -0.3314549 -0.17797695 -0.71601146 -0.07558454 -0.15808432 -0.3007116 -0.65384215 0.066211574 0.17097759 0.08284382 0.08928106 -0.43339792 0.13570744 -0.25767902 0.031606715 -0.034582883 -0.33535534 -0.325685 0.035387583 -0.39931208 0.22522594 0.11966032 0.12373529 0.15545714 -0.29762298 -0.052332398 0.07142204 -0.2556896 -0.46483138 0.052843817 -0.5674968 0.85989755 -0.2074578 0.20205803 0.43278986 -0.010645243 0.18708944 0.40720645 0.45689744 0.51964176 -0.19035795 -0.29667157 -0.084184505 0.3162518 0.5583319 -0.48696604 0.010607722 0.31268665 0.068362504 0.5013918 -0.36244324 -0.10605003 1.001468 -0.014638393 0.15602869 0.25101233 0.17825648 0.032664828 0.028642619 -0.46662697 -0.4840487 0.041740697 0.09702669 0.3773325 0.285348 -0.5603723 0.05940544 0.46862665 0.48387286 0.58945894 0.87739456 0.076129444 -0.1585629 -0.26310524 0.5422517 -0.21655203 -0.15081108 0.46687093 0.48674 0.9967326
y 0.057404198 -0.052548666 0.060075525 -0.3327657 0.12284538 0.66739094 -0.44449967 -0.37600824 0.7658167 0.86084723 -0.20265597 0.49711016 0.26987132 -0.12528053 -0.26320142 -0.39155245 -0.37243438 0.18267506 0.24963593 0.32479203 0.31448975 0.27400434 0.16240546 -0.1608946 -0.53435075 0.37943733 -0.4499605 0.5487353 -0.47204092 0.4535316 0.5482752 -0.54222107 0.107748926 -0.24687938 -0.26212698 0.05486444 0.07342298 -0.00658471 -0.058136128 -0.36737147 -0.1759153 -0.054633368 0.08268967 0.13398159 -0.08659125 -0.52132887 0.07010992 -0.32805294 0.19085106 0.0286368 0.34186617 0.06822772 0.51942515 -0.25669125 -0.12386878 0.25472015 -0.06329283 -0.0072398726 0.041954603 0.3341859 -0.07269252 -0.11780097 -0.21848425 -0.019075494 -0.2263879 1.186226 0.56080323 0.06504652 -0.08281726 -0.11913867 -0.09674952 -0.18302266 -0.073914774 -0.08905328 -0.011708854 0.15673001 0.16845518 -0.031987194 0.0492108 -0.08495945 0.11017637 0.34984517 -0.029355707 -0.017791886 0.015871093 0.09482036 0.06942068 0.00026036368 0.7017007 0.32949576 -0.057167113 0.3105981 0.7015389 -0.315265 1.1427705 -0.34118345 0.567768 -0.01566282 0.3517963 0.42295924
g 0.57963395 0.11761321 0.49418724 0.16834575 0.08073889 0.038497582 -0.1382952 0.1509672 0.8171436 0.25365448 0.24635723 0.080758005 0.48286217 -0.16552891 0.22462979 -0.101209305 -0.11790727 0.18041989 -0.114955656 -0.13585122 -0.16023579 -0.007496437 -0.245265 -0.7508981 -0.31754965 -0.467395 -0.82282966 0.29038417 -0.07638317 0.43586317 1.059577 -0.9144088 0.26660126 -0.45005035 -0.28253296 -0.25695437 -0.28380045 0.099460326 -0.27381584 -0.50426906 -0.51060563 0.35758835 0.763471 -0.0049801534 -0.05615578 -0.14670661 0.037248354 -0.30340868 0.049378883 0.2091806 -0.3809384 0.35463777 0.18729447 -0.06281785 0.46795788 -0.18362157 0.5668436 0.3608316 0.20225771 0.31375778 -0.12257076 -0.25142956 0.350071 0.06337247 -0.045100544 -0.20522687 -0.1571887 0.02506433 -0.2916987 -0.01638639 -0.28602338 -0.019912042 0.40930468 -0.22454831 0.37080795 0.46086934 -0.023804 0.5387665 -0.054894585 -0.5860451 0.0015256628 0.30843082 0.20581715 0.4651752 1.1617974 -0.42915893 -0.06875939 0.28239143 0.9714774 0.38841617 1.049386 0.3380297 -0.15544483 0.019940212 0.7416652 -0.042929966 -0.38642138 0.37008175 0.410608 0.5453988
p 0.565234 -0.36166185 -0.34524378 -0.06608574 -0.6225467 -0.1388459 -0.3717547 -0.14536145 0.8420628 0.38036734 -0.18216103 0.26909 0.12403559 -0.025246939 -0.09421774 0.4661728 0.059335098 -0.48811322 -0.04115322 -0.28476933 0.15746006 0.7182768 0.043999597 0.047477808 0.18085314 0.10339279 -0.030842833 -0.34220204 0.102654524 0.7016179 0.46154717 -0.067403585 -0.10856924 0.43358847 0.11784206 0.27241117 -0.7988885 -0.5774993 -0.2625906 -0.26225173 0.363184 0.13485906 0.49382898 -0.4086079 -0.027285537 0.09632555 -0.31064734 -0.20224236 0.5526438 -0.08049955 0.04921445 -0.51779354 -0.23208132 0.28905904 0.01129281 0.17767785 0.20542336 0.08952428 0.60342306 0.3862206 -0.12717186 -0.36130106 0.38509908 0.24984373 0.10636265 0.5649733 -0.1349386 0.14194295 -0.58713174 0.27633098 -0.114006996 0.28272355 0.5920976 0.3101866 0.010110504 0.058029003 -0.28013977 -0.6332032 -0.13446626 -0.49331698 -0.38986847 -0.13921739 -0.012358076 0.33225554 0.8081595 -0.67084837 0.11668223 -0.05336391 0.8248563 -0.16964711 0.6341262 0.6647703 -0.1808862 -0.38325337 0.5923286 -0.027921846 -0.10691408 -0.20673499 0.23717551 0.70126295
<s> -0.713285 -0.016979154 -0.4613297 -0.21772559 0.99201566 -0.5337895 0.64933765 -0.061896432 -0.56789106 -0.45393237 -0.20507994 -1.0080708 -0.6527117 -0.33314055 0.6694219 0.306387 0.6731754 0.32148314 -0.3637177 -0.8494822 0.023213448 0.16267417 -1.0735236 0.0015517478 -0.12351998 0.08305603 -0.619617 0.25365818 -0.082135834 -0.36098495 -0.21544737 -0.13086669 -0.043038614 0.30670205 0.3554554 -0.2573739 0.2220033 0.5784841 0.14127846 -0.05254701 -0.62263054 0.22571692 -0.15264203 -0.043678988 -0.31628093 -0.19939104 0.040878735 0.47392938 -0.046503287 0.007205578 -0.41193664 0.19538802 0.0074816584 0.15413867 0.73146486 0.2646652 -0.030339798 -0.17729467 0.00038755997 -0.010836781 -0.15500759 -0.37789145 -0.05278464 -0.08187604 0.048343316 -0.3183006 -0.27578706 -0.3671764 0.07714498 -0.08844882 -0.43275976 -0.37694588 0.31028423 -0.50860703 -0.4005418 0.47651666 -0.028704166 -0.46287632 0.24595578 -0.5915437 -1.3743075 -0.35694394 0.5877291 0.12044143 0.29691246 -0.56718343 -0.08984295 -0.10787364 0.5250706 -0.3479705 0.042081356 0.5221285 0.11453174 0.16867845 0.6622724 0.026442919 0.22819486 -0.19131227 0.3688787 -0.069121934
</s> -1.6741688 -0.7800448 -0.1810213 -0.2543267 0.98199296 -0.87631446 1.593848 0.3631191 -1.6373966 -1.6233163 0.60399485 -2.1894546 -0.92577386 -0.095522486 1.3457206 -0.050059516 -0.6983542 -0.87199366 1.0285012 0.7414789 0.7296482 0.4151209 1.5951166 0.7191627 -0.3509019 0.6200342 0.8805114 0.62387717 0.31645194 -0.7354348 -0.26119193 -0.32748988 0.53220934 0.77752686 0.27309543 -0.6382867 -0.40967056 -0.09126189 -0.24330512 0.6591009 -0.5244081 0.79868203 -0.48517507 -0.07324146 -0.44877145 1.416419 0.782372 1.793675 -0.44902822 0.12949392 -0.54529494 0.82475215 0.7774778 0.40217087 0.58057326 0.6161121 0.033531714 0.13354537 0.90873456 -0.07474831 -0.40847588 0.37905306 -1.3561858 -0.63219273 -0.0698106 -1.8249023 -1.3994683 0.2784302 1.8966534 0.49065048 0.5443574 0.2623609 0.28015354 0.30180755 -0.83669496 0.31057212 0.1503717 -1.4179132 0.08147062 -0.15374716 0.2540614 -1.0955532 0.27571058 -1.4909117 0.42368725 0.1876995 -1.3073072 -1.241239 -1.1437036 -0.9272422 -0.23536126 -0.18937416 -1.3818995 0.72554404 -1.6567361 1.6897488 0.8389389 -1.5880901 0.6978662 -1.2954596
, -0.8081798 0.6283663 0.06641857 -0.41317585 -0.08488469 -0.67215484 -0.19331515 -0.035880137 0.2685338 -0.0038557507 -0.27399352 -0.34289837 0.088311635 -0.34387332 -0.105910055 0.057841994 0.8579553 0.25519204 -0.3445038 -0.73763 0.14995556 -0.12947421 -0.23123124 -0.30734435 -0.7277503 0.5686532 -1.7353989 1.3490859 -0.11206173 0.7402642 1.0110626 -0.5766512 0.3333296 0.22504508 0.2722142 -0.77302665 -0.828897 -0.30893952 -0.28802425 -0.2603275 -0.351526 0.266914 0.14967357 -0.12313627 -0.4296303 -0.83338994 0.18659762 -0.32988986 0.39319596 0.30187535 0.51041347 -0.092651576 0.037285667 0.37839258 0.11555998 0.33942145 0.86350244 0.24440339 0.8822873 1.0036732 -0.88064146 -0.8068192 0.5129469 0.19518897 0.22856405 -0.036064405 -0.12040783 0.46285054 -0.39232412 0.3783567 -0.31946757 0.25204927 0.5741522 -0.38829795 -0.009136899 0.64982206 -0.21169387 -0.42414942 -0.045458052 -0.5322022 -0.60149014 0.28691152 0.36305743 0.6077415 0.8945749 -0.7768803 -0.01561863 0.12258645 1.6666834 0.11538608 1.0241256 0.8479383 0.01605734 -0.41215754 1.1333888 0.06762962 0.30788282 0.10684669 0.22817005 0.7027897
b 0.5801922 0.25813589 0.09377863 -0.052734658 -0.32185137 -0.56619257 -0.2576639 -0.20339993 0.6134614 0.6442709 -0.123000674 0.59299445 0.054612104 -0.6720697 -0.1570605 0.3527775 0.022521865 -0.671441 -0.039536707 -0.008895819 0.09232138 0.17738321 -0.7792583 -0.33618397 -0.28885278 -0.04024683 -0.20660058 -0.56445843 0.021159116 0.5338902 0.79650146 -0.40572533 0.34864458 -0.20941179 -0.05416843 -0.20881486 0.057892624 0.10336068 -0.3087398 -0.24165824 0.07549664 0.16745214 0.050106265 0.094989754 0.15124695 -0.32408693 0.00077682955 0.3909789 0.12428945 0.25289056 0.27251014 0.35018072 0.5190758 0.25331154 -0.26317212 0.21410838 0.44364035 0.35873824 0.27405208 0.39415637 -0.20240659 -0.5776974 0.34279698 0.6665753 0.006776177 0.33658308 0.078739695 0.30656826 0.53335494 0.19365825 -0.17806183 -0.05679233 0.6028282 0.12975593 -0.14706178 -0.028683458 0.4565707 -0.21732807 0.075482905 0.14228103 0.063412435 -0.13533068 -0.17051129 0.5279074 0.023869773 -0.39639202 0.14211033 0.3786754 0.44855464 0.35786647 1.1367168 -0.119101 0.2810654 -0.61757815 0.25778183 -0.066015564 -0.1413791 0.0982937 0.24532224 0.4143275
v 1.1250119 0.21875115 0.0038036993 -0.21227755 -0.49348417 -0.022494366 -0.19345267 0.32041752 -0.16115971 0.11237531 -0.29742524 0.2619403 0.41928363 -0.42474955 -0.8137159 0.40073195 0.41625428 -0.21315242 -0.11904998 -0.061366938 -0.07533726 0.2062556 -0.45550606 0.092545584 0.18134493 -0.319833 -0.2644089 -0.04212845 -0.36817926 0.35409498 0.43668547 0.20550278 0.45789668 0.19430768 -0.10557824 0.07960605 -0.76841015 -0.56912595 0.0025129956 -0.5901056 -0.6691482 0.78190154 0.72312945 -0.35243803 -0.10376391 -0.639196 0.045709573 -0.4453941 0.06627901 0.42294276 -0.5353371 0.2659345 0.075941496 -0.020281464 0.32803315 0.20817645 -0.011700159 0.24267954 -0.11229558 0.14066747 -0.070181325 -0.87075496 0.58664936 0.12360668 -0.5451586 0.052518163 -0.47497645 -0.2922042 -0.022366289 0.2143669 -0.13465433 -0.14775236 0.33511338 0.17351769 -0.06550371 0.48438373 0.7427815 -0.15424208 -0.33434615 0.06023079 0.07034766 -0.0065496615 -0.095623046 0.9161261 0.24778983 -0.50386393 0.2154418 0.23446567 0.704941 -0.14140275 0.6483595 0.6250409 -0.059981193 -0.27903217 0.04907761 -0.0445405 0.13116246 -0.41622192 0.34960845 0.0037764902
. 0.26342833 0.21051487 -0.34482262 -0.34717298 -0.3367527 0.8114797 -1.534089 -0.937136 -0.06236417 0.32605517 -0.18046504 0.78399605 -0.61275965 -0.2405557 -0.56645525 0.055799823 1.091773 0.22761573 0.10039678 -1.1999567 0.020261845 0.24400203 0.4536067 -0.19967622 0.009115247 0.5435767 -0.095604226 0.442483 -0.03076237 0.49855056 0.36551833 0.09862934 -0.22083808 0.30092672 0.35072312 -0.40867516 -0.2381758 -1.00907 0.084382735 -0.5300937 -0.7273719 0.1976204 0.7464551 -0.43733156 -0.50833535 -0.30155733 0.5050542 -0.054786835 0.08591194 -0.25374913 0.21579367 0.07590738 0.0076693734 0.1836761 0.23444735 -0.13165632 -0.067368604 0.14621723 1.2530506 0.7744509 -0.04693271 -0.21567546 -0.20515373 0.28466216 0.41918522 -0.28343567 0.32823196 0.08379634 -0.2162964 -0.10484953 -0.25054848 -0.028467914 -0.48301947 -0.4080808 -0.25000355 0.075855635 -0.16385786 0.10967236 0.5737455 0.25317362 -0.16963728 -0.024503106 0.39434838 -0.0019340349 0.46002293 -0.011643392 -0.49077317 -0.35238722 -0.016215688 -0.9759157 -0.36829183 -0.13009097 0.40808508 -0.13764831 -1.0089362 -0.47036663 -0.28514525 0.7389743 -0.38402313 -0.24201778
k 0.34400117 0.07449618 0.51587385 -0.45216805 -0.9412585 -0.34822986 0.13911475 0.26039407 0.19250041 0.26937956 -0.14422633 0.27702257 0.06456105 -0.07323296 -0.3003445 -0.095176525 0.30306953 0.008375178 -0.50732815 -0.6278954 0.28610143 -0.07947962 0.60856897 -0.16264755 -0.7572713 -0.16559069 -0.8068753 0.39054933 -0.21233371 0.4329945 0.32683995 -0.3465036 0.19804843 -0.12750593 -0.11718961 0.34180367 -0.33614457 -0.17981498 -0.14654195 -0.65335035 -0.52012867 0.24494113 0.23134105 -0.16262735 -0.73822576 -0.67415905 0.14374898 -0.098072596 -0.49424922 0.039981283 -0.6460111 0.41351414 -0.62208503 0.28050715 0.16620864 -0.21488671 -0.13142234 -0.055517316 -0.7854346 -0.14662683 0.24717548 -0.17167637 0.2671387 -0.13259433 0.28295547 -0.45939577 0.21018843 -0.21959566 0.15283242 -0.32281557 0.04284738 -0.32536626 -0.38674042 -0.13975799 0.26989183 -0.067536026 -0.47477725 0.07062047 -0.31069717 0.46424133 -0.08980143 0.3009118 -0.097363316 0.6088634 -0.40772688 -0.01796797 0.2724203 0.61706614 0.25401837 0.45827565 0.6245653 0.15290502 -0.24776034 -0.16847365 0.9281228 0.2968812 0.037004266 -0.26299414 0.17471965 0.33586237
; -1.0914643 1.0359068 0.1647185 -0.16508459 -0.11165556 -0.5150967 -0.42584872 0.14890186 0.2652832 0.25071147 -0.41297868 -0.17242464 0.21542925 -0.20881109 -0.5797742 -0.02545066 0.9951293 0.18629111 -0.21207915 -0.8924614 0.2731081 0.014128743 -0.04023657 -0.0062709386 -0.8701127 0.442164 -1.8014957 1.9453304 -0.84737843 0.40402153 0.9358039 -0.97790897 0.3837652 -0.39909342 -0.12656358 -0.18421373 -0.28640452 -0.28374398 -0.08230585 0.32277754 -0.29979342 0.27334598 -0.1644935 -0.08643378 -0.5584976 -1.0253961 0.42169154 -0.39244798 0.12767309 0.39222938 0.47954428 0.37564656 -0.013385269 0.4321962 0.2226356 0.3746366 0.8947701 0.53002816 1.0581862 1.2813345 -1.1428758 -1.3695488 0.8290461 0.641945 -0.179488 0.74376875 0.24264033 0.8156017 -0.42515224 0.5761227 -0.29836345 0.1786818 0.73762614 -0.45896542 -0.09155948 0.7560824 -0.1657883 -0.58447015 -0.017202258 -0.4776545 -1.0082264 -0.057705283 0.75619525 0.87684023 1.0098885 -1.037482 -0.11808065 -0.0037947192 1.9732525 0.06145223 1.5799567 0.8613024 -0.20207566 -0.9152224 0.8052888 0.24395986 0.4601362 -0.13698295 0.67747366 0.72606575
" -0.25244358 -0.8279592 -0.044672154 1.3237399 1.2352175 0.036842663 2.3831425 1.024681 -1.6381085 -1.6565063 0.40685531 -2.5574026 0.3590937 0.98149866 1.2789854 0.22133072 0.32120287 -0.08200213 -0.022149697 -0.4620945 0.47212714 -0.44113404 0.22941795 0.1693201 0.44934714 -0.10124884 1.4313829 -0.90943 1.0862329 -1.1414486 -1.082964 0.35404718 0.18020718 -0.92306584 -0.44308278 0.27442735 0.7504766 0.578784 -0.80956864 -0.0061311703 1.1489749 -0.4996917 -1.6693836 0.9475853 0.5962549 0.25609815 -1.1260048 -0.7341618 -0.09983799 0.5416791 -0.04405779 -0.34925902 -0.23072779 -0.6316368 -0.85831934 0.30445746 -0.25079817 -0.9086337 -1.7328738 -1.7358581 0.29378515 1.1706197 -0.7623105 -0.61174166 -1.6427845 1.4556302 -0.3616501 -0.13134925 -0.15456682 0.7310029 0.7181626 0.54781336 0.85914546 0.7570961 0.21639903 -0.45522532 1.4770943 0.78692615 -0.40255043 0.18939382 -0.964754 -0.63223416 -1.0179391 -1.3871454 -2.5489237 0.9948479 0.455164 -0.34679475 -2.3397815 0.80625707 -1.7027465 -0.7241376 -0.008022072 1.3446479 0.1940826 -0.47182116 -0.2564426 -0.04680963 -0.20603047 0.09689625
x 0.16858825 0.4158088 0.11976937 0.24883622 -0.0013505502 1.0681169 -0.66282076 -0.8588403 0.414136 0.30853844 -0.14624177 0.41055703 0.28004315 -0.16125411 -0.20315358 -0.07521683 0.14600855 -0.055866607 0.07587949 -0.38133687 -0.124277346 0.17769219 0.44215763 0.351524 0.53435224 -0.3739582 0.28108066 -0.049625486 -0.92894787 0.11272362 -0.344088 0.77415466 -0.25043952 0.018206384 -0.07380947 0.4826506 -0.55899596 -0.26291737 0.039504506 0.59240663 -0.015496924 0.29956868 0.6792683 -0.11267866 0.11729133 0.07396284 -0.2239477 -0.28236255 0.9390756 0.10248531 0.008083598 -1.2401633 -0.054165564 -0.02619888 0.2621022 0.19194952 0.18926345 0.11544722 0.2629618 -0.014111138 -0.39921874 -1.4833807 1.2583567 0.2733381 -0.21482569 0.30594122 -0.68027675 0.15335886 -1.3354099 0.03679426 -0.07576856 0.6970351 0.25636867 0.28531128 -0.2478705 0.07945547 0.49840635 -0.102636084 -0.023779565 0.12536487 -0.96700776 -0.3617419 -0.0008475762 0.7543494 0.13685139 -0.41779208 0.3508694 -0.044110026 0.3921578 -0.93633896 0.36528695 0.7459162 -0.45258734 -0.21310256 0.43351766 0.40244415 0.9251882 -1.0777841 0.6510551 -0.48420352
' 0.12887794 -0.7245925 0.28561354 0.9882822 -0.49994484 0.45337516 0.52037513 -0.11331717 0.87830675 0.5146095 -0.2346417 -0.41404688 -0.21693762 -0.38705736 -0.06449608 -1.1298939 0.37801513 -0.65854913 0.118166484 -1.8877643 1.1985232 -0.30198023 0.67179185 -0.2251803 -0.9511779 0.54576486 -0.08431107 -0.7345903 0.42950198 -0.902084 -0.66851026 0.32266238 0.10172413 -1.6000991 0.30395013 -0.058649655 0.9500203 0.386269 -0.7842895 -0.25031054 0.8507016 -1.7776144 -0.54929924 0.91389596 -0.96903557 -1.1226115 0.10151911 0.25405627 -0.018781414 -0.38968793 -0.80542004 0.08912634 0.57032937 1.4138075 -0.010436829 0.3063947 -0.15050545 -0.83190733 -1.8032142 -0.38920435 1.2409331 0.5808977 -0.9572984 -0.33123514 0.7692466 -0.70021176 -0.53420025 0.8908022 0.78813064 -1.1630763 0.4545955 0.2395172 0.35047498 -0.21540132 0.43863392 0.19666976 -0.76396453 1.0218949 0.6370174 0.56131923 -0.4015599 0.107225165 -0.45549217 -0.112000346 -1.1386554 0.002848473 0.29956585 0.81076676 -0.0037964443 -0.19126639 1.4998724 -0.012824553 -0.17590074 0.3859163 0.6942989 0.9189375 -0.75527704 -1.0160196 -0.7961388 -0.4049175
q 0.45094398 -0.67255825 0.20836504 0.44656566 -0.16851969 0.24184404 0.36958313 -1.0031059 0.97148484 0.32210198 0.68201655 -0.21953797 0.5712425 -0.7957207 1.244473 -0.20836262 -0.60058415 -1.7079014 0.402578 -0.113440625 -0.029974557 0.39261577 -0.861003 -0.25750595 -0.0012416078 -0.36210433 0.9122159 -1.2370949 -0.33457187 0.7353212 1.5559578 -1.3074164 0.2826868 -0.071480475 -0.4000899 0.35897303 -0.20597015 0.7465008 -0.0046014264 0.7785141 0.4050553 0.41498974 0.74845034 0.19958864 0.27661103 0.14719714 0.028058471 0.917266 0.057236306 0.049501374 0.30467743 0.6202266 0.91473067 0.1050838 -0.70340484 0.32268056 0.54029536 0.72182524 -0.35001758 -0.42156613 -0.16661094 -0.8891762 1.0983448 0.46286657 -0.53368694 1.1498252 -0.4476456 1.0595202 -0.3415367 0.35906434 -0.13193353 0.97843605 1.6777645 0.5255255 -0.08929152 0.4694043 0.89959013 0.27512437 0.23699223 -0.53187716 0.51644784 -0.45051655 -0.08614089 -0.13452111 0.5193804 -0.10846103 -0.094923206 0.39765063 0.5157213 0.7678383 1.0018035 0.28905708 -0.43034914 -0.2572522 0.5163695 -0.24506178 -1.0113189 0.051515363 -0.060256526 -0.1686438
j -0.033270713 -0.3477709 0.1693357 0.09853973 -0.073868595 -0.25959057 0.23957516 0.11364019 0.83656365 0.018626524 0.18880609 0.015758362 0.25942683 -0.11441832 0.33577234 -0.4387208 -0.30121386 -0.65147656 -0.00036873837 -0.8915023 0.048432667 -0.011138796 -0.29180202 0.50492924 -0.35275742 -0.21991287 0.642291 -0.47194314 -0.7211482 0.17327166 0.15925533 -0.4249109 -0.11464709 0.32519826 -0.44772947 0.316532 -0.3095962 0.8065606 0.1260705 1.014682 -0.27182248 0.37870243 -0.010292894 -0.059091553 0.08451278 -0.047901895 0.04227153 0.8400782 -0.4307336 0.06706568 -0.71853757 0.1137501 0.3732827 0.3974383 -0.19345017 0.3491072 0.38332608 0.34835944 -0.06037671 0.147737 0.058623064 -0.284809 1.0684018 -0.3113248 -0.38662553 0.6757497 -0.15816735 0.8751351 0.02720322 0.12059769 0.38400805 0.7316782 0.34929028 0.17120373 0.179133 0.065536775 0.06742314 -0.19392253 -0.3618512 0.17735262 0.7008396 -0.13459511 -0.4960175 0.27724895 -0.5128051 0.4189176 0.15323594 0.3091052 -0.16024344 0.54678667 0.2591833 0.13198498 -0.308745 -0.14487047 0.06107566 0.052762367 -0.5490548 0.16665336 -0.58590424 -0.3399141
z -0.004736651 -0.1860163 -0.051220268 -0.27245072 0.16719307 -1.590223 0.58249336 2.1911528 -1.3403004 -1.136052 0.055141184 -0.38139728 0.07478272 -0.32246038 -0.5765116 -0.632177 -1.2781799 -0.5627895 -0.007179786 1.3033857 -0.15187876 -0.14699054 0.15382934 -1.0772668 -0.7736516 -0.0984665 -0.19305019 -0.18777184 0.16844669 0.07787814 1.1965951 -0.6116991 -0.658848 -0.9780698 -0.59987265 0.8550241 1.1043986 0.24570677 0.016446456 -1.0712104 -0.13725843 -0.7972672 0.9937267 -0.15597962 0.26872227 -0.3231529 0.05657947 0.09321891 0.1918804 -0.023453427 0.15350485 -0.06584247 0.3348316 0.38195312 -0.3041178 -0.046559975 -0.24049541 -0.21621808 -0.67239904 -0.50823987 0.5415094 0.96969694 -0.005594427 0.285781 -0.055398397 0.75783193 0.80029786 -0.05393929 -0.5656043 -0.9411533 0.5529802 0.2372837 -0.31052724 0.45051026 1.4262172 -0.32906106 0.83909714 1.7459624 -0.077638574 0.6021462 -0.72740614 0.37702402 -0.48116958 0.90013105 0.23324083 -0.20687534 0.3704635 -0.054987065 0.11219197 0.7154931 0.59797 -0.58113855 0.6577142 -0.16135837 -0.2324945 0.35357088 0.3736056 -0.1387955 -0.5292876 -0.58302164
? 0.41447687 0.48655435 -0.13890018 0.5668835 0.14141604 0.97680014 -1.1489794 -0.3863294 -0.6349615 -0.2722251 0.0029779545 0.14746939 0.04583897 0.19811402 -0.21795239 -0.21903215 1.8768684 0.46815878 -0.6478649 -2.0288281 -0.42702684 -0.5682136 -0.6881984 -0.8162637 0.040580343 0.16597058 -0.2129957 -0.21356876 0.36305946 0.55409455 0.6294492 -0.30438927 -0.5097509 -0.8568027 -0.042191412 -0.05201284 0.6639536 -0.4595742 0.08417695 -0.5482678 -0.25940427 -0.54664856 0.7076515 -0.06119602 -0.48038673 -1.3152817 -0.07410686 -0.94512874 -0.16019829 -0.47944662 0.73807436 -0.036361087 -0.8736243 -0.1845933 -0.5880242 -0.795005 -0.25244886 -0.13876162 -0.1701581 -0.25226948 0.37580544 0.3432833 0.256431 0.59348994 0.04307969 1.1826946 1.2470319 0.12359113 -1.436475 -0.105502985 -0.3335035 0.10549928 -0.1875638 -0.3441193 0.510176 -0.4018251 0.29089263 1.7624251 0.51406574 0.60847664 -0.49264714 0.29233927 -0.018694136 0.3829764 -0.83390063 0.5697782 0.42671052 0.4581468 -0.8193885 0.24642162 -0.9193615 -0.9652928 0.96224046 -0.061208677 -0.82376164 -1.6432055 -1.2925 1.7816135 -0.95775425 0.12832777
: -0.92391294 0.14065251 -0.089784786 0.5087208 0.80278724 -0.108229324 0.43193132 0.25715458 -0.5794795 -0.62255883 -0.024530772 -0.9876526 -0.2234312 0.14222983 0.45784417 0.008653865 0.84112984 0.22596645 -0.21458861 -0.9991636 0.1708804 -0.19163722 -0.080470584 -0.19232339 -0.19424653 0.26841652 -0.023829048 0.081612945 0.11304363 -0.07758802 0.09703065 -0.2607642 -0.17307308 -0.38269183 -0.017190881 -0.220518 0.55378747 0.3513106 -0.3177104 0.016014636 0.3274967 -0.39194515 -0.6107553 0.51005286 -0.1421495 -0.7282315 -0.30759385 -0.55870944 -0.02421838 0.06645399 0.503665 -0.18271658 -0.26341456 -0.11802829 -0.34313098 0.03366866 -0.020201333 -0.20670664 -0.33187234 -0.4212305 -0.17998795 0.20306835 0.068553716 0.04720109 -0.6418507 1.2788173 0.32622394 0.28526956 -0.6697724 0.23543218 0.089670695 0.39266187 0.32421264 -0.08500758 0.20135629 0.0009983964 0.4227536 0.4707682 0.07823265 0.013374008 -1.0671442 -0.15856208 -0.09363094 -0.21669248 -0.74706775 0.2714641 0.121455 -0.11696775 -0.38554373 0.14076754 -0.35456952 -0.21224707 0.28892258 0.24269074 0.38473076 -0.3120548 -0.027349697 0.47784588 -0.2944314 0.08528464
é -0.044326324 -0.10790032 -0.06271286 0.13024487 0.2832408 0.17551935 0.052527554 -0.02722882 -0.27655187 -0.38558215 0.055133298 -0.49963248 -0.21504287 -0.02276234 0.29154783 -0.23608804 0.1912194 0.0629277 -0.07650917 -0.5155572 -0.07557706 -0.1353461 -0.19996516 0.1062855 -0.0018159784 0.08013196 0.29744098 -0.28485653 0.15477012 -0.20129971 -0.21296602 0.10298062 -0.19519594 -0.20484589 0.051150978 0.00470589 0.1589811 0.028920412 -0.011838844 0.07357884 -0.059902396 -0.17391686 0.008785359 -0.021077303 -0.085680135 -0.103508174 0.024983795 0.08045817 -0.08534918 -0.20295776 0.07608574 -0.12967585 -0.10262891 0.081095874 -0.053040713 -0.10064666 -0.06847826 -0.1483526 -0.17835 -0.17530027 0.17973761 0.23496321 -0.19150524 -0.062119618 0.11555455 -0.007645783 -0.0007198215 0.0675936 -0.037371628 -0.18759611 0.04884947 0.09135508 0.0012803026 -0.0031515316 -0.024005882 -0.021420654 -0.040366188 0.1829776 0.16050671 0.054890428 -0.08455478 0.03430793 -0.016680226 -0.10654567 -0.18795726 0.05093894 0.11009152 0.08785768 -0.12752053 -0.10157986 -0.11065892 -0.1202501 0.2328396 0.053723384 0.0882997 -0.10926786 -0.027946368 0.09001957 -0.21072416 -0.13057694
æ -0.06938638 -0.10777471 -0.06531298 -0.018954102 0.20549674 0.021743242 -0.015755862 -0.0066113467 -0.08634637 -0.22951281 0.058721364 -0.2207629 -0.19390106 -0.055317156 0.22481862 -0.059585083 -0.033125345 0.1264627 -0.030624127 -0.124546036 -0.15462403 -0.02237131 -0.15006396 -0.07680334 0.064343706 -0.027696474 0.16995445 -0.16693346 0.027148077 -0.010208076 0.03930253 -0.06824689 -0.1574013 0.0051789843 -0.016302746 0.014347897 0.074771725 0.12549818 0.08085054 0.04037139 -0.031318244 -0.087983415 0.06008991 0.022751147 0.026509305 -0.031059297 0.009941266 0.0123899495 -0.03157315 -0.123217225 0.09102765 -0.055436958 -0.0141017055 -0.028953353 -0.0032200355 -0.09112218 -0.017281378 0.007350932 0.027655303 -0.07045371 0.06045779 0.15273848 -0.0013927782 -0.08073939 0.07306713 -0.043842297 -0.03363908 -0.006975374 -0.075400345 -0.101833045 -0.059113875 0.04850735 -0.013483561 0.0062023676 0.03408369 0.06883413 -0.04805144 0.09686535 0.035288133 -0.13267688 0.13822399 0.09730258 0.009921149 -0.10537183 0.15885319 0.057617962 -0.024652243 -0.010678291 0.059762012 -0.055430505 -0.10942595 0.010116123 0.11410211 0.061318934 0.14294113 -0.054172724 0.024056977 0.13482036 -0.09630004 -0.07517075
ê -0.16662627 -0.0732454 -0.1673331 0.024394749 0.20961463 -0.009420705 0.069299355 0.047938257 -0.2555896 -0.2417584 -0.040274657 -0.26215735 -0.2695441 -0.056461442 0.13495705 7.439116e-05 0.10610257 0.12853338 -0.047037877 -0.27663866 -0.047826037 -0.012283071 -0.10804384 -0.1319416 0.079660185 0.006563198 0.0639587 -0.15482965 0.030981142 -0.046443075 -0.06610272 0.023096507 -0.06577171 0.08974867 0.09298255 0.017211149 0.16689648 0.12726574 0.0974301 0.007943742 -0.17129973 -0.05096278 0.022302667 -0.07224364 -0.11442177 -0.076143235 0.032017022 0.105780184 0.026546905 -0.1379443 -0.038703833 -0.042275824 0.0023341272 0.016483039 0.020094663 -0.00044497845 -0.038965315 -0.1098086 -0.08667135 -0.06011532 0.115510024 0.09975202 -0.008676274 -0.055748712 0.12339675 -0.109961174 0.010222747 -0.08818561 0.02119897 -0.13505955 -0.08323522 -0.110896595 -0.04690784 -0.050409272 -0.049378537 0.014411323 -0.060620096 0.0817257 0.10749161 -0.09781542 0.0021719553 0.050128475 0.03973647 -0.05668023 -0.053445626 0.033876568 0.05163316 0.040132247 0.02890682 -0.068592675 -0.16137992 0.019380623 0.15196218 0.08038897 0.15763721 -0.08657673 0.029564748 0.026066 -0.0060612536 -0.03686492
ö -0.085539974 -0.0070285616 -0.087867536 0.0025318142 0.17157309 -0.07431952 0.034122568 0.105914265 -0.21296917 -0.22608013 0.0065717245 -0.2127431 -0.2407794 0.011062233 0.14728889 0.0032366032 0.0546975 0.14936595 -0.07709503 -0.22040075 -0.09068543 0.011243262 -0.14116628 -0.023351153 0.04098069 -0.036929887 0.0786557 -0.10637779 0.020389063 -0.07532516 -0.057642635 -0.042880278 -0.08594651 0.046865907 0.047463268 -0.016747348 0.13117583 0.08011425 0.0299884 0.02464515 -0.06060324 -0.05891307 -0.039495125 0.0052554943 -0.02485004 -0.028488921 0.0128861535 0.042944994 -0.005375666 -0.08106703 -0.018896293 0.0051282155 0.015637541 0.0035904658 0.022091407 -0.026342161 0.028514205 -0.053774048 0.053645067 0.03340925 0.0810098 0.10644924 0.0030198996 -0.041611537 0.108732946 -0.08040954 0.02870037 -0.022607628 0.046166345 -0.073684305 -0.08224646 -0.09402752 -0.048591603 -0.044117827 -0.0060347635 0.028647428 -0.098862395 0.054169048 0.053176723 -0.1351814 0.0517722 0.057221454 0.024181133 -0.07756574 0.01741911 0.032199632 -0.006881462 0.05249849 0.04618771 -0.021730559 -0.1086987 0.0021654298 0.13624267 0.042852312 0.16672143 -0.08755023 -0.030416444 0.15029058 -0.04884814 0.014993551
è -0.031005401 -0.08135791 -0.09158661 -0.027795952 0.16352513 -0.04545204 0.0069963993 0.018753938 -0.14269854 -0.2071022 0.0036959853 -0.2035812 -0.1922308 -0.03969899 0.14299662 -0.024617314 0.022525787 0.06089952 -0.043352418 -0.15538724 -0.062941484 0.009392608 -0.1322595 -0.02296536 0.006024682 0.0022223445 0.06177991 -0.06074366 0.012915337 -0.03479334 -0.0001624744 -0.049833946 -0.11370169 -0.032569587 0.005712463 0.020907974 0.09444446 0.06958971 0.037920225 0.00030721948 -0.04551542 -0.04814512 0.013222643 -0.012995105 -0.077059634 -0.12443312 0.0031738256 0.015540599 -0.07338465 -0.07930429 -0.01759054 0.019423766 -0.044615336 0.012776767 0.009353357 -0.015457578 -0.00926499 -0.018504992 -0.016836079 -0.021360664 0.052706294 0.07739642 0.012070348 -0.026704943 0.030739473 0.04869021 0.0046883267 0.019160448 -0.008347728 -0.043775927 -0.03921139 0.008261214 0.05199283 -1.8148192e-05 0.011733519 0.035414517 -0.008443055 0.057210356 0.041509274 -0.10494619 -0.0386745 0.047044322 0.015369519 -0.029681103 0.037121516 -0.008034671 0.012265838 0.033546403 0.027150564 -0.029105326 -0.013238515 -0.013833933 0.112897255 0.007890106 0.13281417 -0.04485386 0.02414509 0.07408076 -0.04835384 -0.012255943
ë -0.01170187 -0.0575704 -0.06803196 -0.067577556 0.07448993 -0.052205916 -0.017901152 0.01463373 -0.06416237 -0.10800192 -0.0050141593 -0.06986392 -0.13275945 -0.024645329 0.050242994 0.023577461 -0.0477776 0.046228893 -0.015034605 -0.03693231 -0.070268385 0.041265424 -0.08017855 -0.031417295 0.039084442 -0.038244274 0.09301626 -0.124215186 -0.01209747 0.017617544 0.017060453 -0.018154776 -0.07681275 0.05285434 0.007689134 0.027690513 0.03012314 0.023873258 0.027896505 -0.031875167 -0.05020631 -0.0037967416 0.040961213 -0.0427772 -0.010728617 0.031083867 0.024751898 0.068060264 0.0074681453 -0.050420318 -0.037311852 -0.01192904 0.035630293 0.012433612 0.0384553 -0.010997844 -0.02600969 -0.009510325 0.03564004 0.020557147 0.06845538 0.051309172 0.002525928 -0.046023637 0.094947726 -0.0674745 -0.017224215 -0.009719591 0.0004248856 -0.043341037 -0.03581544 -0.019818677 -0.018982522 0.013453824 -0.0005282925 0.012951257 -0.028279658 0.030263474 0.021839486 -0.067688815 0.07201242 0.049321767 -0.035794605 -0.024646096 0.03637961 0.01959496 -0.020064922 0.037216205 0.005133789 -0.01292641 -0.03804011 0.0046587237 0.07219523 0.002695952 0.062243033 -0.039130617 -0.0017888269 0.034428336 -0.014219433 -0.013448962
à -0.06170211 -0.06622018 -0.14578816 -0.013985677 0.2308953 -0.07678622 0.05700716 0.049171563 -0.2918029 -0.3125454 0.025869612 -0.29892427 -0.28524524 -0.05228645 0.19674267 0.021466587 0.0658524 0.10828318 -0.10028717 -0.26834732 -0.10826893 0.011145225 -0.18776529 -0.050765526 0.06752375 -0.071345665 0.15634333 -0.20427482 0.013853906 -0.07336049 -0.03567797 -0.022520956 -0.13623098 -0.009328211 0.024119604 0.053506177 0.15181427 0.07518098 0.061994564 -0.032849155 -0.068987004 -0.07411383 0.02465482 -0.042020384 -0.012312391 -0.06656548 -0.026421566 0.060545724 0.012097528 -0.08700509 -0.021323 -0.04327285 -0.01445649 0.008058812 0.002937301 -0.014285841 -0.010527263 -0.066675596 -0.023644742 -0.03154538 0.11629866 0.082665645 0.03926774 -0.038881056 0.09456789 -0.022456292 -0.009569884 -0.055252206 -0.029802324 -0.11867151 -0.089803144 -0.050367814 -0.020526841 -0.0060982835 -0.0028181805 0.014153737 -0.022264827 0.10065531 0.047068536 -0.113703206 -0.010927983 0.07087507 -0.031839192 -0.022279976 -0.034631055 0.01410053 0.05249405 0.06800672 0.021090802 -0.027543401 -0.11535077 -0.0046247533 0.17083576 0.035117924 0.19253327 -0.12529774 0.005649582 0.07612923 -0.04529537 -0.018102014
ô 0.042244274 -0.06584111 -0.075864024 -0.037374526 0.10944707 -0.0018170485 0.0020472568 0.022683758 -0.09432719 -0.13422626 0.01489025 -0.1185602 -0.0829051 -0.0039006688 0.06821097 0.03644765 0.03392744 0.036827937 0.010199418 -0.09354894 -0.08032836 -0.042153835 -0.092285216 -0.054632265 0.068419084 -0.013373923 0.09047092 -0.092797615 0.035070304 -0.035832383 -0.042241756 0.028754544 -0.066190876 -0.007034717 0.02129583 0.032824535 0.029264068 -0.0048820684 0.07045425 0.046102032 -0.06718311 0.008263171 0.06371032 -0.058641545 0.0108984625 0.03413869 0.012824767 0.045648932 -0.0060375375 -0.08326646 -0.017585818 -0.0028465714 -0.0059640203 -0.014488341 0.019710299 -0.023130694 -0.0239713 -0.0151056135 0.02571598 -0.0138287945 0.049014956 0.037493497 -0.007004582 0.0067121764 0.068764955 -0.043024328 -0.007766153 -0.026878271 -0.0026354273 -0.022974048 -0.047262043 -0.034997027 0.047417946 0.021759566 -0.036707673 -0.0020787967 0.013828821 0.01823943 0.03698414 -0.08053134 0.048150584 0.016567662 0.017752541 -0.041469686 0.0176278 0.021860022 0.022512646 0.022299549 -0.014399015 -0.02416485 -0.092318594 -0.0052913744 0.053996656 0.027286123 -0.001807384 -0.07609738 -0.026454695 0.05518873 0.008784523 -0.00967391
ñ -0.107314825 -0.030754548 -0.058054794 0.026389938 0.19653392 -0.15040688 0.11624251 0.15244487 -0.24571304 -0.29066402 0.033569954 -0.26722085 -0.15566745 -0.046719663 0.16528545 -0.004663103 0.024484845 0.02251142 -0.053068407 -0.15223168 -0.080286555 0.0049812663 -0.1417907 -0.094407715 0.0012681191 -0.017381452 0.036288053 -0.07166803 0.050455555 -0.047355957 0.04083079 -0.08263491 -0.10507111 -0.0051950323 0.0060938993 0.0037590766 0.12705487 0.09316324 0.038627226 -0.012938393 -0.06469757 -0.046631973 0.03431678 -0.026675008 -0.005176715 -0.06470416 -0.0014118637 0.047743082 -0.006700042 -0.054623377 0.016295068 0.010158119 -0.008266371 0.0047485265 -0.021930257 -0.008220791 0.037452605 -0.021411983 0.02298568 -0.024737211 0.043733142 0.08728014 0.05136622 0.010072105 0.019340666 0.03576384 0.021126127 0.004893927 -0.025786761 -0.04747822 -0.033719055 0.008968463 0.061245523 0.008932929 0.043751672 0.011214091 0.020867879 0.078562364 0.0420036 -0.10258551 -0.05759864 0.015076978 0.020387737 -0.0016635874 0.046291146 -0.03205328 0.022208177 0.02243878 0.049021464 0.010172853 -0.0044009285 -0.017789405 0.1097206 0.03498036 0.12499595 -0.053385828 -0.0064121787 0.104666784 -0.047098603 -0.021479925
ä -0.058457926 -0.054824434 -0.0818225 -0.023150673 0.19417073 -0.06932901 0.06983669 0.07137812 -0.18731971 -0.24795648 0.01286291 -0.25972536 -0.18720704 -0.023645768 0.18441392 -0.035233147 0.08317229 0.10769183 -0.08379228 -0.2988379 -0.084172584 -0.006556154 -0.12126892 -0.02970912 0.016170701 -0.05858905 0.0967952 -0.122619435 -0.045938723 -0.028597126 0.00034719333 -0.04947678 -0.09494957 -0.04154645 -0.017844476 0.06661579 0.112771735 0.11073993 0.0407247 0.043666616 -0.05052487 -0.056581248 -0.018023124 0.008698622 -0.000120886194 -0.0008291733 0.0061181583 0.07673558 -0.0014168648 -0.081537515 0.0023529276 -0.06006295 0.0053119548 -0.010048049 0.021772593 -0.029092407 -0.016041685 -0.040297437 -0.04325887 -0.04838465 0.07679884 0.04803393 0.04061371 -0.05789328 0.062086437 -0.012347598 -0.018595504 0.00979366 -0.042111997 -0.08506351 -0.03700312 0.0052825995 0.011312848 -0.0057487115 0.013155479 0.04529083 -0.0064659417 0.09525314 0.028966017 -0.08597155 -0.002133117 0.06339888 -0.02500551 0.0080001205 2.202284e-05 0.003951562 0.05355236 0.06712138 0.06270002 0.0033924198 -0.029408615 0.018389711 0.12279346 -0.0009051175 0.173437 -0.07278213 0.053912107 0.038336672 -0.00077133207 -0.02244957
ï -0.034807764 -0.01613467 -0.0747136 -0.021185542 0.071599975 0.011685821 -0.033550557 -0.025299838 -0.13047779 -0.109042004 -0.0054416503 -0.100041 -0.100337096 -0.0099372985 0.05849697 0.0039086766 0.08820413 0.055106357 -0.039349705 -0.16481398 -0.0638003 -0.004151538 -0.048313994 -0.035942398 0.04863996 -0.021252967 0.021287534 -0.03373916 -0.024913624 -0.020114593 -0.020301482 0.00462849 -0.060906533 0.018193144 0.024631653 0.022980174 0.019948816 0.0025279324 0.06176723 0.021361357 -0.032674912 -0.017102515 0.008904321 -0.025105307 -0.004787698 0.03723411 0.022413826 0.040720675 0.03957409 -0.05294058 0.009657767 -0.028496904 0.004919322 0.0032178871 0.028712284 -0.021905389 -0.006637322 -0.014193019 0.04413043 0.023902807 0.020396205 0.020223668 0.0074024303 -0.015880736 0.090375185 -0.0690344 -0.0046332097 -0.023983415 -0.028659647 -0.039475687 -0.05320083 -0.026065115 -0.007844028 -0.01703068 -0.019994548 0.011174535 -0.031110344 0.030518254 0.04737451 -0.06534868 0.028279973 0.023055587 0.015282253 -0.031688984 0.025464466 0.010963676 -0.0035960623 0.010619182 0.026288563 -0.023952449 -0.08240956 0.010701182 0.044025715 0.019011501 0.019355718 -0.061859827 -0.008903961 0.046868954 0.011374495 -0.016129734
â -0.03283416 -0.012346893 -0.064042255 0.012899643 0.16509344 -0.031396728 0.0421389 0.05008532 -0.1611694 -0.15979822 0.0021893547 -0.17338659 -0.11961263 -0.026287204 0.12661514 -0.0104189655 0.03132312 0.074261256 -0.07924581 -0.15552601 -0.07863228 -0.004549355 -0.14651836 -0.034676433 0.03348433 -0.052083395 0.046517044 -0.1015346 -0.0076420773 -0.034513853 -0.0010364137 -0.012822881 -0.08306441 -0.024487266 -0.008054264 0.054031268 0.08734138 0.07556901 0.023690635 -0.002168478 0.0067815026 -0.06265466 0.009621361 0.020456066 0.012939078 -0.062285207 -0.04073082 -0.024428748 0.012308942 -0.042671893 0.022509167 -0.042455383 -0.021526685 -0.012768447 -0.0049318965 -0.02555317 0.017751213 -0.0224133 -0.023288988 -0.031184731 0.05283452 0.033137936 0.053411584 -0.008099172 0.020461854 0.05747024 0.02556259 -0.026121508 -0.075960904 -0.061325576 -0.06416356 -0.006315622 0.028435761 0.0046436638 0.034237176 0.012133065 0.041525498 0.080067225 0.027043391 -0.07223524 -0.06865888 0.020222498 -0.0012039989 0.01115546 0.006510017 -0.024953917 0.055010606 0.046707094 0.049454425 8.7651715e-05 -0.039723497 0.023626743 0.10285981 0.021324685 0.14645939 -0.070651166 0.002763263 0.08463565 -0.019078104 -0.006630673
ü -0.030204577 -0.030191507 -0.043231938 -0.021396907 0.11592546 -0.043739706 -0.001029339 0.038293894 -0.064595655 -0.10244792 -0.006688949 -0.09288414 -0.12783267 -0.0010946398 0.08949833 0.01586701 -0.027800422 0.08641694 -0.026418319 -0.0759496 -0.061971948 0.010416966 -0.1052494 0.012017653 0.028422806 -0.037202418 0.083717406 -0.08996753 -0.022855207 -0.028445382 -0.008417881 -0.019693282 -0.06248677 0.052249778 0.0043257703 -0.0002535168 0.049117338 0.07429535 0.026527569 0.013469234 -0.029613784 -0.011137454 -0.021764675 -0.00024939468 0.008779869 0.0046121553 0.0041655404 0.038503118 -0.021181554 -0.039765686 -0.020114042 -0.021358091 0.0054487665 -0.015862256 0.044358224 -0.0067741442 -0.034029778 -0.01074095 0.017880388 -0.01050973 0.05080512 0.06216051 -0.00438285 -0.044558607 0.05593821 -0.0321708 -0.012313527 -0.007994308 0.012011553 -0.037402354 -0.04564511 -0.027457826 -0.018082105 0.006216273 -0.000705725 0.039814927 -0.036550257 0.001965574 0.0034558394 -0.08366963 0.057181925 0.03507432 -0.015632544 -0.02275076 0.016140979 0.02403163 0.0023304431 0.011157183 0.02309945 -0.031379107 -0.0580739 0.012110468 0.06716051 0.027172685 0.096331686 -0.019289602 0.026194355 0.056972448 -0.022180289 -0.014338929
ο -0.11803885 -0.10754847 -0.21952687 -0.06017169 0.35959318 -0.13389139 0.06105698 0.054119408 -0.34149426 -0.43361336 0.009459735 -0.40477267 -0.41409242 -0.07586259 0.31273612 0.064611256 0.04307203 0.17638347 -0.124950334 -0.3107472 -0.21565902 0.012361635 -0.3752374 -0.07258242 0.14263347 -0.09258149 0.18235363 -0.27371547 0.027621053 -0.09534321 -0.08700488 -0.012165363 -0.20997661 0.09255792 0.07303738 0.023662899 0.14528498 0.14376184 0.13322464 0.031026736 -0.20781337 -0.021754382 0.0752108 -0.10872367 -0.01724063 -0.023569835 0.01080085 0.14157848 0.014979364 -0.16332853 -0.045051284 -0.04809245 0.0004874568 -0.018054575 0.07126637 -0.036199074 -0.018343536 -0.06746762 0.046402916 -0.01162682 0.13436016 0.121353865 0.04824123 -0.0898663 0.20559092 -0.17309183 -0.042800378 -0.0859734 0.015268388 -0.13127322 -0.16604124 -0.11419227 -0.025248133 -0.044260312 -0.06898361 0.06625485 -0.08931733 0.049591422 0.09098606 -0.24275254 0.11072823 0.09985469 0.010233054 -0.0963776 0.06760471 0.026064632 0.027329266 0.09935531 0.07183188 -0.055540588 -0.20161378 0.030342255 0.21132989 0.064587235 0.24801818 -0.16256489 0.003048803 0.15027913 -0.036788087 -0.037473172
ἶ -0.061408035 -0.0814439 -0.16713902 -0.026596483 0.26180074 -0.08168323 0.033221893 0.019712811 -0.2119887 -0.26831186 0.019986384 -0.25698146 -0.28659984 -0.04412229 0.21259391 0.04411992 -0.020002458 0.13073409 -0.09644618 -0.15168324 -0.16247262 0.010236831 -0.34748542 -0.0021277731 0.11886818 -0.09862822 0.16704275 -0.2232976 0.018903902 -0.090491116 -0.08258546 0.01473271 -0.1446172 0.053515624 0.050049186 0.01918405 0.112674624 0.11731665 0.09961554 -0.009056401 -0.14506856 -0.019742707 0.06040472 -0.07483884 -0.027945016 -0.07110012 -0.010767004 0.07412629 0.0010158645 -0.11756467 -0.06094167 -0.032935385 -0.0054265196 -0.021214653 0.06686572 -0.022458447 -0.017837366 -0.0342061 0.023325054 -0.0031024828 0.11732404 0.089944825 0.0337735 -0.0743853 0.12521364 -0.13657193 -0.033322457 -0.084157616 0.015752636 -0.11210644 -0.12728073 -0.10089668 -0.04634339 -0.03629439 -0.03852356 0.0423588 -0.09109665 0.026398886 0.04365059 -0.16642885 0.1044388 0.08531345 -0.0033137375 -0.06848851 0.026707726 0.025172703 0.020892505 0.0772969 0.058090534 -0.03139952 -0.16013215 0.034071404 0.171297 0.06873731 0.18217583 -0.13483709 -0.016986035 0.11433936 -0.036437787 -0.027956812
δ -0.03703322 -0.07342215 -0.13727462 -0.03614101 0.24788395 -0.058470137 0.014209085 0.010544673 -0.18815684 -0.24598765 0.012834152 -0.2193135 -0.25650164 -0.0380591 0.19889627 0.045726616 -0.021608371 0.13436858 -0.078168206 -0.14532267 -0.15058917 -0.010216186 -0.2883091 -0.0171156 0.113258585 -0.092892446 0.16555782 -0.21638668 0.010423046 -0.07904684 -0.09463462 0.0066785007 -0.13955128 0.025701681 0.038047638 0.042124633 0.094657 0.105354354 0.097669065 -6.830115e-05 -0.12156335 -0.030560032 0.050616354 -0.053738415 -0.0041958997 -0.059849344 -0.0071630245 0.055568803 -0.008408388 -0.10067965 -0.04429019 -0.018694837 -0.0141282715 -0.013054167 0.0467001 -0.029781267 -0.034845177 -0.038277086 -0.0036501135 -0.0381462 0.11048104 0.10701532 -0.0035201102 -0.055436302 0.097750284 -0.08342659 -0.018467147 -0.07148805 0.016207129 -0.09087344 -0.10605154 -0.08875864 -0.04548001 -0.023697998 -0.035733685 0.024594223 -0.07330412 0.046017475 0.050594166 -0.12934887 0.10295619 0.06862024 -0.020949133 -0.055626273 0.0032329685 0.05891343 0.012927673 0.06910914 0.008952297 -0.030068932 -0.18236311 0.0012464818 0.15357511 0.042268425 0.14701459 -0.11015619 -0.009729317 0.08674743 -0.04348023 -0.030763831
α -0.016394485 -0.07018493 -0.119382866 -0.027498335 0.18827794 -0.050002865 0.03168264 0.013427729 -0.15319161 -0.19220641 0.002107012 -0.19112185 -0.20548505 -0.04240853 0.15526214 0.034789525 -0.0007410989 0.10660173 -0.062332146 -0.13931447 -0.11311728 0.00722223 -0.20543212 -0.017747656 0.08639082 -0.06494955 0.13821924 -0.16095366 0.0029840476 -0.06161057 -0.065203406 7.246791e-05 -0.1109 0.01223791 0.025698029 0.039834023 0.07763448 0.06810834 0.07537271 -0.004726896 -0.10112923 -0.024710402 0.04426091 -0.042192772 -0.0030096935 -0.01693547 -0.015165279 0.04733218 -0.009220711 -0.09464901 -0.037639305 -0.026021564 -0.010307135 -0.028044939 0.051252138 -0.027510576 -0.036219265 -0.039076038 -0.005765767 -0.024604496 0.09011681 0.07267197 -0.009972 -0.04790781 0.08572883 -0.08119234 -0.023555957 -0.048526723 0.0118238665 -0.06799016 -0.09162778 -0.07501821 -0.021205554 -0.009970094 -0.029632056 0.02354837 -0.0427424 0.022501122 0.029591344 -0.11299725 0.08997511 0.061805654 -0.016777428 -0.06054423 -0.0041026217 0.028373733 0.006311421 0.053149708 -0.0039607333 -0.03255522 -0.13670483 0.0033578975 0.11951771 0.04447433 0.1273072 -0.09073069 0.009760011 0.072668895 -0.016209958 -0.027731217
π -0.035562865 -0.071938075 -0.09343632 -0.02678377 0.16000614 -0.064336255 0.03951862 0.03427876 -0.15472719 -0.20186423 0.005620303 -0.19066362 -0.1896439 -0.026407005 0.14146623 0.028326916 0.023283241 0.080980636 -0.05097365 -0.16302277 -0.094856024 0.014005892 -0.1380232 -0.04621281 0.05984385 -0.043439116 0.08904117 -0.121448785 -0.0049243104 -0.04622423 -0.025949178 -0.007079853 -0.08656641 0.037079107 0.012324375 0.04102 0.079731725 0.07739292 0.07496588 0.020501588 -0.06572622 -0.019752055 0.021293757 -0.0433051 0.0012288261 0.02798875 0.0024078446 0.095245734 0.012863574 -0.079330705 -0.040536672 -0.021374103 0.023590425 0.0006981099 0.033703055 -0.005760361 -0.022455188 -0.040831175 0.019157164 -0.011485293 0.07224129 0.06646992 0.0022186493 -0.053829763 0.08316201 -0.078930885 -0.027292024 -0.028189402 -0.0027555956 -0.06150882 -0.06092763 -0.03841867 0.005413516 0.00074765895 -0.01169996 0.026319258 -0.021158163 0.0345463 0.039982446 -0.107377574 0.067145474 0.040164974 -0.0027995799 -0.031150023 0.012842599 0.028527332 0.011135995 0.033540413 0.012313742 -0.037872918 -0.10068029 0.0135541 0.099507436 0.038092 0.084068246 -0.05251625 0.0060062376 0.050130915 0.008966369 -0.02795255
ν -0.04300075 -0.058918472 -0.08004514 -0.045619644 0.13063858 -0.07266433 0.039822064 0.053646665 -0.14584439 -0.18497986 -0.011419887 -0.17368 -0.16614696 -0.038778044 0.11530101 0.029902123 0.03345253 0.07194628 -0.051591784 -0.17132789 -0.06980342 0.015072636 -0.10629767 -0.03755823 0.030474303 -0.03612426 0.06664054 -0.09101986 -0.010142049 -0.016763534 -0.012526568 -0.026448969 -0.07180256 0.039443012 0.02979754 0.022629984 0.047985386 0.056690075 0.05646662 0.028423056 -0.06442616 0.0032310802 0.015893267 -0.04047275 0.0024448738 0.025918657 0.019765299 0.07935031 0.026716914 -0.07515726 -0.024527762 -0.026527543 0.025030488 -0.00014059865 0.026970617 0.004769845 -0.0065010064 -0.02563222 0.048932783 0.016395157 0.044924792 0.04368704 0.020123046 -0.037576497 0.09041033 -0.06029368 -0.032539148 -0.009382124 0.0023761077 -0.041904155 -0.06238925 -0.024421087 0.0313031 -0.0026556798 -0.007825848 0.0300349 -0.008445206 0.009865476 0.023440447 -0.11732926 0.028662778 0.027918907 0.0024829698 -0.028797198 0.029611057 -0.01152835 -1.6827602e-05 0.031225331 0.055398103 -0.029556943 -0.048132155 0.025233865 0.091728695 0.02508352 0.1249954 -0.051695526 0.03384443 0.045055907 0.013101753 0.0054147905
υ -0.04173986 -0.043761957 -0.09140474 -0.031185422 0.1411995 -0.062479027 0.025488734 0.029212238 -0.16788226 -0.19245492 -0.004352535 -0.18322358 -0.17662409 -0.033402927 0.12713069 0.011555441 0.03273538 0.0872981 -0.05003415 -0.17465693 -0.08303875 -0.0007648113 -0.13412128 -0.042426825 0.042734567 -0.027959825 0.06909819 -0.12084167 -0.004786239 -0.025600336 -0.028755672 -0.010342412 -0.08704202 0.04820548 0.035442673 0.011188239 0.06279226 0.07531065 0.06773929 0.019122023 -0.06851911 -0.0107244775 0.033446044 -0.038406227 -0.025873866 8.748134e-05 0.022184478 0.074080884 0.020746676 -0.09101367 -0.03945587 -0.026313636 0.01653257 -0.004863986 0.0475008 -0.023008903 -0.0070760148 -0.026232544 0.02108472 0.007461395 0.069476455 0.049328186 0.025219668 -0.032206412 0.10343958 -0.07251315 -0.019204933 -0.03573483 -0.0010596267 -0.069822 -0.08194436 -0.04554507 0.009711466 -0.016801171 -0.011941235 0.03843971 -0.03737733 0.03678693 0.05112411 -0.11475964 0.045222536 0.049257386 0.008140716 -0.03426137 0.023941241 -0.007151895 0.01714794 0.051042516 0.05625462 -0.032875232 -0.06831184 0.026592158 0.08570339 0.012824714 0.120501265 -0.073972814 0.0039411928 0.055439897 0.00034755998 -0.01889578
ς -0.041860487 -0.02242374 -0.06268997 -0.024893003 0.10785302 -0.06293905 0.03847429 0.048994355 -0.14470956 -0.17988901 0.002477551 -0.16013575 -0.12659243 -0.033452936 0.10893963 0.019934077 0.05885308 0.046357997 -0.035012797 -0.16670893 -0.048070844 0.0067682704 -0.07793354 -0.05001258 0.015249005 0.0020784838 0.02004248 -0.051572755 0.011873263 0.0019271851 0.018361999 -0.040795356 -0.060456857 0.04624215 0.031071402 -0.0028102137 0.044817176 0.046222113 0.038240056 0.031506147 -0.08496891 0.010493514 0.025733085 -0.0470754 -0.0068238154 0.020486787 0.012815305 0.06892327 0.012383538 -0.06186805 0.0004516734 -0.011611019 0.015147941 -0.005456133 0.021943383 -0.014468197 0.031045385 -0.010256051 0.050290957 0.018155787 0.01951559 0.019913623 0.034084596 -0.02198405 0.06619171 -0.06173883 -0.011679532 -0.016340388 -0.0053687175 -0.04078456 -0.0599816 -0.013455192 0.017248027 -0.014328074 -0.017010616 0.019343937 -0.009618379 0.026733719 0.026357323 -0.082259566 -0.0068423445 0.028525664 0.031959664 -0.010189185 0.04013977 -0.013070559 -0.0032309857 0.01943479 0.052655026 -0.033895038 -0.01946904 0.02070139 0.06002777 0.008666527 0.08966768 -0.05218115 0.0051118447 0.05079739 0.0057259006 0.005084095
å -0.018858619 -0.007882659 -0.017292572 -0.023870246 0.040259417 -0.028542124 0.01730328 0.0051520993 -0.035767052 -0.051572032 0.009423286 -0.050508037 -0.06070932 -0.012377258 0.043968476 0.010033291 -0.0014771892 0.025256114 -0.009631316 -0.023940966 -0.03058364 -0.011380738 -0.04922513 -0.008530471 0.0139952935 -0.019172395 0.021702928 -0.019233942 0.0074435 -0.012492154 -0.001622318 -0.011871339 -0.026488615 0.01451017 0.013065632 0.0018917501 0.022280715 0.013434514 0.02628639 0.0019679277 -0.019081037 -0.00074270496 0.013143251 -0.0031199611 -0.002589919 0.008057286 0.002697795 0.033865348 0.0028689075 -0.012835008 -0.011504232 -0.00486467 0.01599 -0.006629952 0.014921059 0.0036501035 -0.0059168832 -0.00043999375 0.0017100407 -0.009795827 0.009998139 0.014947103 -0.013666079 -0.009053804 0.02464614 -0.023223426 -0.0013273141 -0.0032645736 0.015695872 -0.01779117 -0.025575852 -0.007865916 0.0069328565 -0.009300782 -0.0002438773 0.014689602 -0.00022699323 -0.00087958644 0.008404926 -0.023831785 0.03177701 0.010988588 -0.0032456932 -0.0031251842 0.01462621 0.004482524 -0.0056456854 0.011362094 -0.0018539744 0.0027848356 -0.01958677 -0.0049623065 0.0139748845 0.0019301006 0.031935908 -0.003883296 0.008508648 0.011163228 0.013129846 -0.005894999
ç 0.013595727 0.0018835048 -0.008166613 0.0026235986 0.023689205 0.009486325 -0.008066152 -0.00083525805 0.006878038 -0.0066908235 -0.00089910487 -0.00077122735 -0.016641889 -0.003195955 0.006870631 -0.007700877 0.011943571 0.013699397 -0.002789055 -0.010431788 -0.017340507 -0.016702663 -0.013448452 -0.0068948325 0.0036292218 -0.0033909709 0.013445091 -0.025528848 -0.0075405524 0.0038731983 -0.0065457174 -0.0064377463 -0.015044576 -0.014873279 -0.010244535 0.0003588975 0.0059101065 0.0037689318 0.014495472 0.01570671 0.003589519 -0.0015139474 0.0057856096 0.0065861624 0.011512355 0.0029217356 -0.006592394 0.0061473935 -0.0016936664 -0.009766468 0.01359364 -0.004774229 0.010102367 -0.011060304 -0.0047751684 -0.0031550876 -0.012905777 0.010436917 -0.011289446 0.0005614652 0.009064607 0.007349131 -0.015317591 0.0052466467 0.008954519 0.006210493 -0.006114539 0.01862427 -0.0027474228 -0.004629367 -0.006684686 0.004671392 0.013915769 0.0019904103 -0.0071059456 -0.0027429222 -0.0055901865 -0.0012353619 0.0040673134 -0.009511882 0.027563512 -0.008074453 -0.009233725 -0.0012274166 -0.007746567 0.020672925 0.0060286997 -0.00057373056 -0.013302764 -0.0021552974 -0.008486741 0.0004980759 0.01729919 -0.0057070525 -0.007947844 -0.008857706 -0.0031595258 0.013131797 0.0008950342 -0.011824433
î -0.008632314 -0.008895835 0.0012527013 0.009918953 0.043516356 -0.016642155 0.03823471 0.030953053 -0.050710224 -0.047378037 -0.0008642948 -0.049017817 -0.03897112 -0.0047074724 0.04099276 0.0038103738 0.015390008 0.011101589 -0.012973064 -0.06927876 -0.008960573 0.0024762866 0.0018752797 -0.009967715 0.012490701 -0.014891387 0.020430304 -0.017240256 -0.023319868 -0.021078441 -0.018205535 0.00689388 -0.020197498 -0.031723503 -0.013519711 0.031080518 0.026913611 0.021653576 0.011603918 0.028329141 0.038739286 -0.03401568 -0.011947781 0.024289561 0.023752552 0.018921215 -0.016548272 -0.0010447737 0.008164439 -0.0012017244 -0.016444389 -0.014234743 0.008868335 -0.014132529 0.009489109 -0.0049199285 -0.011245476 0.003922064 -0.015278987 0.002822752 0.009673553 0.0019497876 0.015711937 -0.005808464 -0.00336334 0.008045971 0.0047808886 0.016044969 -0.01354913 0.0048274165 -0.0069202203 0.0025555054 0.0143178785 0.0033124909 0.0059451535 -0.008054303 -0.000864348 0.008007626 0.011832169 -0.031119678 0.018759035 0.0075841346 -0.013044189 -0.0005849557 -0.014116162 0.018982353 0.00037426737 0.011134937 -0.0056992127 -0.022375848 -0.024849221 -0.011944787 0.022095038 0.010440047 0.018396143 0.0011083257 0.024827488 -0.019075494 0.019819539 -0.016515927
