60 50
_ -0.73648864 -1.861298 -0.012257299 1.4773502 -0.70154387 1.5046906 -0.5707965 0.17391206 0.012382398 -0.16677791 0.07518248 0.49333936 0.30702573 0.56186676 -0.2936084 -0.031573594 -0.5355179 0.27644014 -0.29041162 -0.6778474 -0.3001012 0.37124616 0.08945264 0.37983084 0.23919438 -0.32236522 -1.3463763 0.4512234 -0.8583952 -0.46194345 -0.39721587 0.039253775 -0.5472526 0.4227073 -0.60799253 -0.5304738 0.13448334 -0.034646317 0.45976588 -0.14392307 0.18784533 -0.3111367 -0.9945515 -0.29529822 1.021271 0.0054734554 0.87120265 -0.26790595 1.3661729 0.42180473
e 0.076383196 -1.2063956 -0.47886264 1.3354046 -0.21581692 0.29900792 0.66307765 0.34110248 -0.17343508 -0.2943917 -0.031790275 0.2553234 0.45194042 -0.17124043 -0.07641316 -0.37911296 0.12067085 0.3868581 -0.46351445 -0.9985265 -0.16352984 0.32998154 0.46777368 -0.044402834 0.014494837 -0.2719717 -0.6342186 0.58695114 -0.59482837 -0.57752365 0.030960068 0.17952818 -0.5489036 0.43957937 -0.9283475 -0.019730892 -0.34536368 -0.48448545 -0.14861585 -0.3458153 0.8354889 0.043300427 0.3653089 -0.5291725 1.4273229 0.2876772 0.43258154 -0.3590393 0.83955675 0.8930232
t -0.18646681 -0.73572475 -0.43399313 0.5714452 0.3698138 0.305871 0.0054686964 0.1515397 0.5012176 -0.224564 0.15606447 0.08423043 -0.87473375 0.6768231 -0.035137042 -0.43806043 -0.24642576 0.4823886 -0.49544284 -0.5345892 -0.24659057 0.42509896 0.05545249 -0.30681327 0.33712098 -0.8174942 -1.3983846 -0.0315617 -0.23377846 -0.6417964 -0.20729966 -0.5353406 -0.22156326 0.58047116 -0.5171008 -0.46567065 0.079281144 0.2372181 0.69448763 -0.2280134 0.098265894 0.0700431 0.35183677 -0.19496983 0.84455264 0.23332246 0.46786648 -0.237294 0.9257169 0.7988247
a -0.38985932 -1.2105889 -0.36019078 1.0025324 -0.34150913 0.3023072 0.37788138 0.46058488 0.12904009 -0.1616162 -0.18068022 -0.19703862 -0.038288493 0.03971088 -0.14969346 0.061329745 0.5300948 0.355669 -0.18950455 -0.36058617 0.34130028 0.55359787 0.41832113 0.6230444 -0.11549498 0.052302267 -1.123549 0.38845593 -0.40928757 -0.56870574 -0.58129567 0.1291099 -0.22422943 0.2307873 -0.8230471 -0.21369977 0.006070769 -0.35147747 0.11464411 -0.093620524 0.79351354 -0.34577402 0.5165473 -0.5857592 1.0328279 0.38910592 0.980674 -0.09628672 1.0975127 0.44642273
o -0.55781907 -0.73832226 -0.77300704 1.0718342 0.18404834 0.5721438 0.26701075 0.3987687 0.42228365 -0.05569254 -0.017683985 -0.02954635 0.17667918 -0.07490544 -0.23620088 0.24097691 0.48481745 0.121848926 -0.002317837 -0.4667968 0.10757014 0.21811754 0.19354403 0.17105478 -0.12936018 -0.79883134 -0.6957309 0.9254913 -0.12429536 -0.70256394 -0.8520346 -0.16248924 -0.83958364 0.0629895 -0.7334374 -0.54714465 0.36081678 -0.27740088 0.15312481 -0.0895213 0.7190212 -0.31857058 0.52938205 0.0737595 1.3652819 -0.034521695 0.88691145 -0.31624603 0.95247227 0.60282886
n 0.78497624 -1.0183504 -0.40059608 0.6537884 0.53531533 0.97522694 -0.22861025 0.32447112 0.27873498 0.10826539 0.2548508 0.53110224 -0.08655791 -0.020133132 -1.075471 -0.5374106 0.123099804 0.5977586 -0.053029034 -1.1183007 -0.07254291 0.15102962 -0.13827522 0.29558152 -0.20535353 0.035811555 -1.3548919 0.286553 -0.62649506 -0.9619309 -0.2396957 -0.22938675 -0.416335 1.0210868 -0.20428543 -0.49927178 -0.41238043 -0.535894 0.31862935 0.3651908 -0.28447068 -0.4012552 -0.2688413 -0.3206315 0.5693205 0.85635704 0.6157982 -0.3510277 0.97967464 0.4524124
i -0.58819044 -0.9807522 -0.119210035 0.5767838 -0.30794653 0.26896036 0.49623644 0.2391934 0.26717097 -0.06919266 0.17376499 0.16723117 0.12076738 0.19789468 -0.4270389 -0.70477545 0.10222591 0.047480308 0.22317655 -0.42548892 0.052419636 -0.19623223 0.87889975 0.25188264 -0.3829296 -0.086217605 -0.46104655 0.20539267 -0.48314387 -0.26689446 -0.22698113 -0.105750166 -0.2818699 0.5115829 -0.9626341 -0.021373142 0.064943574 -0.60815644 -0.029148633 -0.11881157 0.6411372 -0.12541512 0.65011895 -0.85551506 1.0099463 0.37519422 0.92318565 0.016796524 1.4866939 0.233055
s 0.1283321 -0.589874 -0.42804796 0.37074134 0.2253243 0.2974997 -0.23282921 0.5047754 0.69444144 -0.4066786 -0.2269559 0.01423397 -0.31235406 0.34317783 -0.2082318 -0.18798928 -0.048767522 0.32413325 -0.3517777 -0.6759316 0.06700962 0.21286666 0.006642841 0.05420866 -0.124098115 -0.5225779 -1.0699438 0.44695383 -0.41632387 -0.4233843 -0.3964386 -0.34336782 -0.5413117 0.11845456 -0.19671145 -0.45194972 0.33751604 0.19483954 0.51781857 -0.14903322 0.14594331 -0.33658692 0.090772964 -0.1898404 0.9950003 0.24503225 0.32658163 -0.14775436 0.9273693 0.49369
h -0.009011416 -0.2429023 -0.6958907 0.5375324 0.72560453 0.8874344 -0.09542762 1.1824114 0.3811165 -0.041543692 -0.42679864 0.22910644 -0.5247535 0.16206542 -0.7324313 -0.7427083 0.23373093 0.10509715 0.1116092 -0.46458736 0.31928262 0.19432437 -0.075586125 0.44047782 -0.19982591 -0.07102245 -0.4508856 0.27964827 -0.8162039 -0.6645008 -0.5364705 0.6091964 -0.7103197 0.21191695 -0.65225166 -0.3965733 -0.20124145 -0.29957914 0.6666545 0.124947876 0.01686167 -0.2897477 -0.20456639 -0.15625444 1.0611857 0.04817229 0.46978092 0.085916206 1.1843596 0.32968184
r -0.31457055 -0.65362114 -0.17526068 0.06461112 0.5463974 1.0265195 -0.38887185 0.2972002 0.33070144 -0.26132637 0.09115049 0.0834059 0.08739977 0.13771129 -0.43609855 -0.7024735 -0.19917473 0.82749283 -0.70533127 -0.17416619 -0.32120016 0.4392437 -0.15690134 0.35774428 0.11863357 -0.41359118 -0.668966 0.45618355 -0.58936095 -1.1017112 -0.2940821 -0.6428182 -0.51567477 -0.061442267 -0.74054545 -0.4464052 0.27810106 -0.18435773 0.5827659 -0.21199264 -0.09010864 -0.2794537 0.044467926 -0.34128237 1.3779702 0.20259789 0.60723436 0.20159976 1.0115249 0.3477374
d -0.7585361 -0.102551624 -0.07419481 0.6822386 0.3454686 0.58198744 -0.0061892513 0.6017244 0.5437679 -0.9603658 -0.14450175 -0.19959381 -0.34362173 -0.028529782 -0.046693537 -0.38272312 0.2699817 0.45182723 -0.61673266 -0.48740515 -0.09954447 0.65280336 0.64247614 -0.110489674 0.0033357337 -0.290293 -1.2760164 -0.22733925 -0.1757226 -0.3385666 -0.34880328 -0.108073354 -0.34629312 0.48269507 -0.7084267 -0.23284602 0.101696745 0.39494732 1.22614 0.026616326 0.30796114 -0.30355757 0.07514735 -0.4485617 0.94978243 0.03492805 0.44295174 0.06499437 0.8379685 0.50692093
l 0.01915462 -0.60435545 0.019715315 0.7349637 0.44599807 0.85751396 0.43345615 0.44433856 0.27493718 -0.07671648 -0.003048489 0.16488408 -0.06768411 -0.2202822 -0.093298696 -0.490865 0.0804299 0.6017867 -0.73315006 -0.65834486 -0.3561942 0.093590885 0.2884756 0.34286597 -0.03430536 -0.16397755 -1.5707238 0.33031473 -0.8070715 -0.5818707 -0.1545684 -0.41762382 -0.4640334 0.10429227 -0.13423343 -0.39166778 -0.072937995 0.5068746 0.33898327 0.04602477 0.33195356 -0.33102694 -0.29714432 -0.40437502 0.6312198 0.42990908 1.148329 0.004070485 0.68107057 0.09488278
u 0.3451188 -0.98065585 0.96441627 0.7828808 -0.21902159 0.7680541 0.66672474 -0.270579 0.6438146 0.20041901 0.2963711 -0.24516055 -0.021714527 0.38881448 -0.24154909 -0.7487019 -0.18673334 0.48671445 0.130497 -0.4847899 -0.037634045 0.23749696 0.3942969 -0.07290846 -0.13833387 0.19112909 -0.77623016 -0.22270954 -0.18578015 -0.8147199 -0.6288759 0.09723589 0.037113935 0.29662895 -1.0696585 -0.08447855 0.34507117 -0.61328954 -0.82142496 -0.56412137 1.2611257 -0.767826 0.4260408 -0.9221445 1.2565494 0.9911274 -0.26353502 -1.0562651 0.522077 0.35755625
m 0.19033775 0.24816924 0.48721507 0.56549335 0.40139654 0.8233767 0.065221526 -0.16565679 -0.057630908 -0.006196338 0.21343908 -0.116950184 -0.1598953 -0.004840591 -0.2459852 -0.40344754 0.14157587 0.543218 -0.7311904 -0.5731324 0.15717597 0.81331456 -0.019013813 -0.30984893 -0.0063005025 0.17497729 -0.6637774 0.06991984 -0.014740421 -0.69505787 -0.37217188 -0.22176157 -0.69608384 0.07009401 -0.47504765 -0.70606846 -0.48212078 0.52963656 0.49646717 -0.16968893 0.5890476 -0.2259369 0.16866542 0.1264784 0.6660035 -0.27261105 0.5272786 0.07290619 0.8293156 0.49899995
c 0.14565086 -0.7655184 -0.17789027 0.7301295 -0.12764043 0.59977806 -0.06986184 0.5477522 0.35760847 -0.7343574 0.05416336 0.1453095 0.024912057 0.2519283 -0.016896108 -0.038827166 -0.5643643 0.29530865 0.0093897665 -1.0466222 -0.19752845 0.16871406 -0.021615854 -0.27150965 0.14758278 -0.43011373 -1.2460757 0.62343895 -0.005588395 -0.4877501 -0.2497821 -0.4299525 -0.389435 0.2353909 -0.37962556 -0.2856736 0.2285511 0.61344546 1.3283074 -0.38991335 0.3086994 -0.32519603 0.083088055 -0.23973474 1.0215486 0.062766515 0.35971138 -0.064565346 0.85621494 0.78352314
f 0.21732026 -0.5976877 -0.04141733 0.5552612 0.17257611 0.52292275 0.6387552 0.28086042 0.06434718 0.549158 -0.4277972 0.5735474 -1.0833662 0.4705337 -0.47717938 0.257211 -0.39203322 -0.07372344 -0.42291087 -0.6542787 0.05946005 0.86527824 0.40886903 -0.33977827 -0.11072408 -0.14827135 -0.70733243 -0.42769274 -0.038864125 -0.74963313 -0.52114916 -0.28972787 -1.0101308 0.1850078 -0.28449157 -0.83639556 -0.18860467 0.09423301 1.5303109 0.14189646 0.1548665 0.015424151 0.23957755 0.14887647 1.1671015 0.09733251 0.15844429 -0.40001696 1.2377627 1.1570694
w -0.08946445 -0.4903042 -0.19850104 0.8836105 0.06451066 0.37382096 0.6256697 0.2294311 0.4963075 0.16771989 -0.074198306 0.16280219 -0.29433697 0.07388705 0.34657675 -0.1353354 -0.23949794 0.01612261 -0.29386443 0.0024805404 0.6883497 1.0863763 -0.41409102 -0.36525932 0.09510486 0.53584766 -1.2418486 -0.3371255 -0.010791999 -0.94627947 -0.7746767 0.33866906 0.46856293 0.9144096 -0.40724042 -0.061392907 -0.64097244 0.6061265 1.4125271 -0.21292883 0.1926386 0.15655199 0.7024477 -0.08720385 0.56418335 -0.21411064 0.41320634 0.01683175 0.85743296 0.119454846
y -0.22404867 -0.5509639 0.017802501 0.40792862 0.2176434 0.67402 0.843061 0.76740235 0.33423635 -0.59854484 -0.28168455 0.26584408 0.6381769 -0.68942654 0.04844881 0.5063046 0.14207137 0.014428458 0.022177536 -0.84237623 -0.7479854 -0.004333104 1.3096112 -0.039490625 -0.21203195 -0.662391 -0.92634434 0.29928166 -0.32461962 -0.39563933 -0.19896813 -0.12212943 0.051807016 0.01879513 -0.12708087 0.07110648 0.26887354 -0.218464 0.60126966 0.5010749 0.37004554 0.06519659 -0.042568967 -0.20133469 1.6219597 0.41045374 -0.4738045 0.036226325 0.3295521 0.6532357
g -1.0747037 -0.4374736 -0.03582333 0.56006676 -0.18621035 0.04432517 0.13827994 0.7376395 -0.40229574 -0.31976086 -0.05921822 -0.46269462 -0.30719852 0.08085779 -0.00040940807 -0.028401945 -0.35540006 -0.29185393 -0.097689345 -1.0097333 0.26695102 0.7358671 0.19538161 -0.6297977 0.14575215 -0.3893195 -1.4175162 0.3609332 -0.1354822 -0.72479767 0.088346034 -0.35482198 -0.25152123 0.8821621 -0.7635093 0.15293847 0.21945992 0.9109497 1.3637817 -0.61311567 0.8478532 -0.4772033 0.016384942 -0.4444622 0.14752834 -0.42849973 0.55329823 0.39022592 1.0060265 0.68289137
p 0.605443 -0.4052224 -0.07511885 0.5296037 -0.22923169 0.34464535 -0.25632983 -0.25123766 -0.10473501 -0.5195704 -0.09686867 0.7569627 -0.44216102 0.15185317 -0.43431246 -0.011952538 0.0013247348 0.14893125 -0.37681705 -0.73854727 0.17204538 0.43504477 0.2771289 -0.37737733 -0.11563724 0.29474792 -0.7708005 -0.043378837 0.22289012 0.1290259 -0.29174638 -0.17421898 -0.91980577 -0.0144801615 -0.16461593 -0.93687224 -0.22550246 0.3848154 1.3520215 -0.15652718 0.11652895 -0.3712849 0.2390847 -0.17894016 0.99482596 -0.27884066 0.38269457 -0.355703 1.3134776 0.635916
<s> -0.11279452 0.66454846 -0.13373443 -0.07686719 -0.24537295 0.079945534 0.32466704 0.9093002 -1.5498979 0.2511062 -0.5738688 1.004484 -0.5414441 0.98723346 0.6681582 -0.83270544 -0.2971147 0.79350924 -0.13825165 -0.44664153 -0.3477277 -0.93193406 0.1581377 0.26603523 0.4005832 -0.19439802 -0.12667173 0.5233049 -0.18817581 0.060679004 -0.4488906 0.1821721 1.0514921 -0.20589629 0.4094995 -0.2654305 0.37790278 0.20179959 0.57008576 -0.67621434 -0.8316647 -0.0074094804 -0.29486224 0.55277735 0.16654336 -1.0276159 0.41666514 -0.23121691 -0.47829354 0.37542287
</s> -1.8878372 1.8786583 -0.6627009 1.2601621 -1.1612897 -0.025751714 1.0715797 -0.750926 -2.2925506 0.22622234 2.0969834 1.3275363 -2.1863036 0.87338006 0.28418818 -0.15643294 -1.6696559 -0.48730016 2.009879 0.64266145 0.45545134 -1.420795 -0.84715724 1.3758758 -0.029239185 0.51951504 1.5870686 1.0589776 1.3541005 0.45512602 1.7362555 -0.64462084 -0.38868737 -2.5516152 1.0941224 0.12121282 -1.2372776 0.06293951 0.08993849 -0.82476896 -0.8427582 0.6506008 -0.8411045 1.2523812 -1.9004737 -0.008731125 -1.7461159 -0.96278167 -1.0937438 -2.1337967
, -0.7531884 -0.6172665 -0.50055784 1.5758656 -0.21119352 0.78934896 0.8954909 1.1194427 -0.46421704 -0.518171 0.16686505 0.64411825 -0.566857 0.56376517 -0.38241524 -0.77000284 -0.3724906 1.0819197 -0.6984742 -1.978045 -0.16373605 0.068013504 0.82644576 1.1753762 0.06259763 0.0011333425 -1.370373 0.8063082 -0.7351927 -0.57693946 -0.4991264 -0.2005298 0.11467878 0.24408074 -0.9924273 -0.87074924 0.071261756 0.18780869 1.1853443 -0.50560457 0.1951399 -0.041089337 -0.17204505 -0.06255512 1.2733959 0.20674409 1.5556371 -0.99163735 1.1683946 0.5206647
b 0.0077535827 -0.62352175 0.4399296 0.4790231 -0.067995235 0.90492207 0.16827661 0.97613996 0.49229532 -0.034197956 0.08777159 -0.42650062 0.011036698 -0.26948205 -0.061079036 0.33091986 -0.24568824 0.58643734 -0.30212697 -0.096731365 -0.07191909 0.66506547 0.32472232 0.26593468 -0.64087784 0.3217715 -0.65392923 0.055995222 0.11587307 -1.0437312 -0.9151941 -0.18165903 -1.1449442 0.53679633 0.058802597 -0.25915635 -0.32831946 0.030272147 1.3766229 0.34461948 0.0987023 -0.3300735 -0.104485095 0.18073454 0.61952424 0.27215272 0.5861906 -0.1679942 0.30870512 -0.20992047
v 0.21393882 -0.39873853 0.71869665 0.35437438 0.35084924 0.64044374 0.14132127 0.09303946 0.5706441 -0.2481276 -0.5302931 -0.5535329 -1.5915872 0.6297666 -0.4354156 0.4014302 0.24768752 0.8878556 -0.24083424 -0.09894999 -0.4772525 0.6998026 0.115960926 0.0024016353 1.0067424 0.20896047 -1.0864074 -0.12892501 0.08953061 -0.4658844 -0.35212183 0.31516957 -0.31119367 -0.16245006 -0.30942577 -0.9228483 -0.5946392 0.27354506 1.5837222 -0.07149543 0.2522882 -0.09417167 -0.08912439 -0.5902296 0.13129458 0.04606252 -0.1855142 0.11198618 0.32726914 0.6357992
. 0.016351376 -0.24224144 -1.1836789 0.2127865 0.49017614 0.2264452 -0.4557254 -0.96517533 0.17755492 1.5755736 -1.6940459 0.4732357 0.55327874 0.88773316 -0.21891215 0.6490237 -0.31465852 0.6898197 -0.4707732 -0.5043168 -0.2608101 -0.39605486 -0.074107684 -0.14421538 1.0271086 -0.5065308 0.88419515 0.35045844 -0.7384197 0.6987094 1.0197968 -0.095990576 -0.7518938 0.23724969 -0.48448431 -0.32468155 0.23033217 0.60433406 0.5434501 0.1633732 0.51391643 -0.16704504 0.80765796 -0.08397879 0.5613388 0.917095 0.86776054 -0.91668224 0.33551064 -0.022902891
k -0.51405233 0.39303705 -0.0012349136 0.6103338 0.7210792 0.671727 -0.025312692 0.56461394 0.23095739 -0.039268207 -0.6169024 0.027093207 -0.8782936 0.3756703 0.1335822 -0.68529147 0.41423586 -0.22683327 -0.24845277 -0.03078228 0.66733295 0.56800914 0.078466184 0.15490794 -0.24596341 -0.2716718 -1.6885152 -0.790509 -0.7493661 -0.15335132 -0.47170788 0.23008901 0.71168846 0.09074182 -0.57901543 -0.13847192 0.5180972 0.5796809 -0.3216297 0.42896387 0.3735642 -0.4674105 0.06196863 -0.23269036 0.78146243 0.8638743 0.08707262 -0.12422838 0.996102 -0.09741989
; -0.6479289 -0.8628101 -1.0737345 1.6803733 0.19946083 0.9387112 1.3888763 1.198468 -0.15143448 -0.34557906 0.18947421 0.6835699 -1.0337307 0.74714065 -0.15464099 -0.8198065 -1.0613763 1.4476621 -0.5560939 -2.1398675 -0.56517303 0.31377202 0.7165048 1.0943323 0.21421441 -0.26469433 -1.4817212 1.2180547 -0.7221288 -1.3665688 -0.48635897 -0.30563632 -0.20075054 0.12647505 -1.2484729 -0.8679009 -0.13885173 0.14370857 1.4171311 -0.70491207 0.78383636 0.18460219 0.067472346 0.56494516 2.6196964 0.07874696 1.2376796 -1.5843824 1.362982 0.78183174
" 0.6397683 1.906779 1.9730468 -2.3854892 -0.6136834 -2.051367 0.33163527 0.14987488 -0.4584391 -1.6395879 2.4527314 -1.2411768 1.0673659 -1.444676 0.7020115 1.3955705 1.2459797 -0.1208884 -0.41926527 -0.15427403 0.58160245 0.05023697 1.0547098 0.30992445 -0.22550102 2.656546 1.4258407 -0.7811348 1.0444336 1.1134648 -0.3911904 0.26116213 3.015755 -0.7091055 1.3906897 0.28261098 1.0461854 0.18467194 -1.1617379 0.58645815 -1.1824151 0.789846 -1.8050537 1.1558073 -1.6249815 -0.8189194 -0.9141692 -0.1720075 -2.19945 -0.86188245
x 1.1224419 -0.5057111 0.4153961 -1.1164829 -0.5022571 -0.6250293 -0.51541805 -0.30268553 1.0441715 -1.1145093 -0.4151394 -0.40880528 -0.89218414 1.078318 -1.0551245 -0.12711793 0.05223096 0.8420809 0.21924685 -0.95909894 0.001339479 -0.1920669 0.5910861 -0.02403105 0.18712272 0.043899905 -0.333352 1.3082836 -0.11429414 0.4042212 0.0021567151 -0.55984914 -0.6533297 -1.1800934 0.359161 -0.9432527 -0.14362977 -0.0819176 0.40244016 -0.6074111 0.4535882 -0.269386 0.43458885 -0.61148113 0.9184565 -0.6603455 -0.43493268 0.95677876 1.5496923 0.82624155
' -0.13550146 1.6512502 0.56939375 0.8004726 -1.5549525 -1.6988573 -0.98210293 0.19407831 -1.2366424 0.10971079 -1.3502475 -1.2335217 0.15469365 0.12944698 0.10763143 -0.21461432 -0.31451344 0.5419448 0.2747276 0.8789696 0.52620256 1.0923846 -0.2756511 -0.8868663 -1.5405474 0.9836979 -1.5418352 1.1994691 -0.36127374 0.418919 -1.2184347 -0.5925819 1.5815969 1.3275536 0.48762906 0.81577617 0.65637475 -0.13313113 -0.8924129 1.5296204 0.27271128 -0.8289233 -0.59726506 1.2280339 1.3675302 0.31798705 -0.94737774 -0.8088432 0.6375957 -2.696211
q 0.34194404 -0.94177693 0.50010645 -0.28882006 -0.13840586 -0.16671634 -0.5736241 1.620881 0.7391364 -1.7418807 0.71690005 -0.917095 -0.8785124 -0.5230665 0.83245176 0.8066721 -0.3759249 -0.34239292 0.53796697 -0.3426206 -1.0023258 -0.1893922 0.5143317 -0.19174534 -0.67308366 0.7752507 -1.0427171 0.75099343 0.6003637 0.035574652 -0.25243726 -0.267427 -2.5446763 0.4300531 0.9905683 0.8478411 -0.05483297 0.84124386 1.7612954 1.5082557 0.94509417 -1.2129759 -1.3896377 1.1176193 -0.17631544 -0.5371586 0.96665186 0.31737897 0.6836231 0.24413513
j 0.1325255 -0.05348066 0.7229952 -0.27867857 0.50224984 -0.034801845 -0.31263065 0.47323954 0.03296244 -0.6616372 0.50488025 -0.6489683 -1.0313418 0.0030355058 0.9047547 -0.20638332 0.22046623 0.13107915 -0.3647868 0.58219844 -0.6064955 0.2295975 0.053618986 0.095993124 -0.32592508 0.43187377 -0.52436584 -0.08605114 0.13684373 -0.27932736 -0.3360981 -0.33127394 -1.0863022 -0.4329231 0.2684411 0.6004872 0.52078164 -0.008101482 -0.87521476 1.1482121 0.8350917 -0.94286096 -0.91148645 1.0562994 0.36691064 0.16859972 0.20528816 -0.2508515 0.10231629 0.3321081
z -0.82531977 -0.6954148 -0.5639108 -1.5917318 0.3477263 0.8065417 -1.0104402 0.33964923 -0.98248124 0.36157745 0.38903224 -0.48902532 0.10683722 -1.3545809 -0.2770891 0.41549414 1.5535829 0.87088674 0.0038389773 -0.48511177 1.0470967 0.9164361 1.8044184 0.4266411 -1.0073302 -0.15484986 -1.928282 -1.1586676 -0.02222102 -1.3116865 0.64311713 0.36147225 0.45913497 1.6262366 0.7877202 0.25607166 -0.9293289 -0.68231785 -0.72519976 -0.6534661 0.24928223 -1.3205779 0.05264413 -0.36072725 -0.9787206 -0.26436162 -0.65354913 -0.4359254 -1.0284746 -1.3078678
? 0.37586328 -0.42036524 -0.38722637 -1.7073263 0.63739514 -0.99317104 -0.99586576 0.03209782 0.74054605 1.1036737 -1.5030317 -1.1446053 2.0508597 0.20491946 -0.06918602 1.2341775 1.0659319 0.9085635 -1.7757691 -1.2235914 0.602555 0.6369157 0.92353976 -0.02489759 0.8835088 0.89088804 1.0131141 -0.4968301 -1.5231689 0.9197116 -0.0304333 0.6804158 1.002642 1.2707223 -0.8212736 0.020863587 1.7656507 0.79465306 -0.6379896 0.5536532 0.9713184 -0.5776319 0.0074824984 0.27621996 0.50767666 0.24993883 2.1361003 -1.0011239 0.10230619 0.20961592
: 0.2847187 0.33509278 0.15455523 -1.0026003 -0.05029611 -0.58350194 0.42241457 0.722922 -0.041895512 -0.29356313 0.63727134 -0.367359 0.89607847 -0.25536 0.14179705 0.61411715 0.33035824 0.6609122 -0.51646656 -1.5253015 0.13681854 -0.24254894 1.2724423 0.60928184 -0.22531144 0.5214601 0.5433817 0.29793426 -0.14924957 0.16278537 -0.52847546 -0.011505495 1.232194 -0.003439006 0.17758816 -0.373497 1.079194 0.030753566 -0.53550035 -0.053821083 -0.052421365 0.2737965 -0.46692723 0.9187832 0.6720997 -0.22555313 0.49710044 -1.0336372 -0.5503192 0.053614497
é -0.035697863 0.046420928 0.10472405 -0.19192131 -0.27907312 -0.41057223 -0.1545164 0.025477529 -0.49780354 0.10979815 -0.31653568 -0.1270432 0.2777347 0.19167553 0.36403155 0.19982101 0.15767841 0.258568 -0.13621677 -0.02729375 -0.17344174 -0.24284074 0.25986186 -0.15478733 0.18110155 0.08481743 0.14889191 0.25571316 -0.15931009 0.36008233 0.079286896 0.076073594 0.30810657 0.07204764 0.15145472 0.19197743 0.41165665 0.009668432 -0.3713441 0.09004962 0.114643924 -0.18970174 -0.24242271 0.20897628 0.062794335 -0.12798283 0.026080176 -0.24493922 -0.26766962 -0.09332142
æ -0.063901216 -0.061265834 0.073334455 -0.09897051 -0.14742222 -0.22151446 -0.09631784 -0.013466666 -0.3458354 0.0049244277 -0.11297191 0.0026030478 0.17337328 0.11094778 0.24999298 0.033227686 0.16098277 0.17151906 -0.1699699 -0.038872015 -0.17732815 -0.21452826 0.23445886 -0.14164352 0.1879269 0.022612033 0.10441227 0.11950135 -0.15805256 0.24297047 0.19546743 0.038642786 0.03394487 0.09171827 0.07953353 0.19214179 0.16406526 0.0011894662 -0.25627035 0.036807172 0.12691562 -0.117483824 -0.15201367 0.02097682 -0.042315714 -0.06975349 0.10920835 -0.05694193 -0.13510162 0.07011395
ê 0.016277011 -0.06798804 0.030809388 -0.08987622 -0.14273308 -0.11966602 -0.16074342 0.018990343 -0.36472818 0.2374928 -0.223022 0.007315409 0.19771695 0.21147287 0.13694468 0.05785599 0.2368297 0.196669 -0.18657185 0.047172945 -0.13825801 -0.19982278 0.017953688 -0.1218508 0.21623735 -0.105795406 0.1358643 0.17663506 -0.19177514 0.12681974 0.0136530055 0.02978434 0.07549888 0.09306401 0.105730675 0.03913563 0.16976319 -0.13152921 -0.22442661 -0.017757332 -0.14645715 -0.03545319 -0.1507619 -0.0020331729 -0.12289423 -0.13006175 0.13924968 0.050676133 -0.17179845 0.124435216
ö -0.03106372 0.06865871 0.07328212 0.06265466 -0.12210688 -0.10113651 0.031045273 0.092624135 -0.38845274 0.13311303 -0.10024508 0.032844145 0.09575401 0.12513717 0.1789719 -0.035306152 0.12932579 0.12001985 -0.19472045 -0.044913057 -0.07210853 -0.13460469 0.06983622 -0.1358455 0.0779722 -0.07026788 0.05012149 0.18283601 -0.12676637 0.051592775 -0.08601753 -0.015110854 0.08675257 -0.003769595 0.07807162 -0.019565793 0.19503716 -0.03633079 -0.20579593 -0.055753846 -0.052763287 -0.040861484 -0.14459328 0.0824537 0.024318404 -0.14104009 0.082720205 -0.019460175 -0.08862893 0.13916002
è 0.0046206852 -0.04321708 0.028610924 -0.017956462 -0.05726892 -0.07986693 -0.050604604 0.037500296 -0.20923403 0.14530984 -0.10118796 -0.01100318 0.064004846 0.13465528 0.19593276 0.15409222 0.1178641 0.11376428 -0.10833421 -0.047237393 -0.058640007 -0.08155762 0.10407893 -0.13988249 0.16882235 0.028929014 0.11952646 0.01107034 -0.076095596 0.09957499 0.050250128 0.11324628 0.0066725216 0.13247517 0.06554192 0.0511726 0.08976585 0.051438507 -0.019224506 0.04485918 0.041020256 -0.06079467 -0.12768656 0.09769018 -0.05097237 -0.09319844 0.039469145 -0.12917727 -0.1269186 0.10430179
ë 0.013353469 -0.057061326 0.12549551 0.0067841457 -0.116466425 0.0067546233 -0.024139918 -0.013743329 -0.21916264 0.10703413 -0.047406003 0.071909934 0.09298035 0.08808916 0.15672737 -0.056679863 0.094941065 0.041692242 -0.07049882 0.09098821 -0.05405177 -0.14773235 0.007917027 -0.17429826 0.08004606 -0.080787055 -0.029083006 0.046896122 -0.065655746 0.02906519 -0.025156505 -0.0009000379 -0.008894484 0.0592812 0.11113735 0.062095653 0.048824754 -0.015557902 -0.12167823 -0.050422646 -0.08230671 -0.04562565 -0.037291147 -0.06919807 -0.102382705 -0.106234 0.042238954 0.114245445 -0.1021024 0.06394241
à -0.030303044 0.0068202117 0.19128413 -0.10992996 -0.21051493 -0.16980039 -0.12321423 0.105596706 -0.41362977 0.11450948 -0.09464616 -0.036718965 0.14016466 0.19651338 0.25363412 0.03459927 0.2488756 0.20355909 -0.18813092 0.02745146 -0.10410496 -0.21460415 0.15247096 -0.19140045 0.19504057 0.029119637 0.075224094 0.18750016 -0.09843203 0.13034867 -0.013469028 0.04400236 0.07543911 0.06739669 0.18429795 0.03527753 0.17993107 -0.026120571 -0.11052575 -0.05377398 -0.077560954 -0.110575825 -0.19025321 0.015000159 -0.14131717 -0.27234393 0.1389378 0.07008604 -0.17614701 0.11647013
ô 0.031896517 -0.012603504 -0.005180645 -0.0059927134 -0.06330612 -0.059528243 -0.03601194 -0.006173946 -0.15113263 0.03928102 0.023894396 0.050016593 0.006616836 0.1101793 0.16170135 0.050849404 0.08808572 0.07105086 -0.008858385 0.040003955 -0.046486653 -0.14441954 0.0024372223 -0.11961751 0.10559129 -0.025736362 0.06603815 0.09626271 0.03514904 0.07638485 0.035676684 0.00012243274 -0.040709075 0.02889848 0.11153937 0.04105032 0.010776154 0.024389047 -0.018551636 0.0017486134 -0.018704616 -0.037791897 -0.03177126 0.031565752 -0.12188318 -0.08010614 0.0372042 0.04659895 -0.09893072 0.064559564
ñ -0.07825512 -0.025008114 0.06618958 -0.06402626 -0.11306533 -0.07075445 -0.046970934 0.099340715 -0.41950184 0.095458224 -0.08198691 0.008413245 0.07872423 0.081534594 0.21161892 0.046535395 0.19564159 0.18025585 -0.116715565 -0.04829239 -0.061944593 -0.1330126 0.16797666 -0.027069598 0.12568057 0.0010581475 -0.013558381 0.09396489 -0.06103868 0.051866293 0.016185382 0.08917205 0.04125921 0.063751094 0.13435273 0.048074476 0.07930488 -0.031246077 -0.14318429 -0.056997474 0.004946544 -0.11571175 -0.14493158 0.029078528 -0.15636049 -0.21916202 0.15277083 -0.005748333 -0.1966328 0.06819924
ä -0.058981672 0.0070267534 0.055786267 -0.0031986255 -0.14187777 -0.125397 -0.017126694 0.050523 -0.38626722 0.08693006 -0.06485726 -0.0012525991 0.06852045 0.18469757 0.25082144 0.00025578565 0.2065456 0.23193303 -0.139148 -0.0032292341 -0.077686265 -0.20142338 0.15963648 -0.13624029 0.1261364 -0.037198476 -0.023104502 0.20030983 -0.090058014 0.07913965 0.004079737 -0.016951142 0.11657697 -0.0012486426 0.10923748 0.044317085 0.17688757 -0.033597067 -0.15396632 -0.06826165 -0.019797713 -0.097571515 -0.097224854 -0.0039338823 0.007785966 -0.11371268 0.06381368 -0.023548394 -0.12454416 0.08022386
ï -0.044759896 -0.040443785 0.10471162 0.056278087 -0.1096141 -0.0059110913 -0.05309921 -0.021472178 -0.17326058 0.070818275 -0.011245507 0.020386577 0.00859649 0.14677575 0.16086704 -0.023187928 0.068537414 0.040872842 -0.036140263 0.06798385 -0.0262052 -0.10623389 -0.031047422 -0.117580466 0.10424718 -0.0073133553 0.027863521 0.08028252 -0.018569097 0.038854666 0.034224268 0.0067982585 -0.057904035 -0.028037718 0.04018673 0.0040497356 0.060234997 0.030630646 -0.08397572 -0.04155751 0.0012239359 -0.033400342 -0.053670526 -0.05215596 -0.09687527 -0.08710803 0.05207175 0.04790161 -0.045336843 0.061012138
â -0.06446938 -0.013706124 0.06456887 -0.0405169 -0.09380211 -0.055568386 -0.008991823 0.09314882 -0.22050971 0.073951475 -0.066858135 -0.013682903 0.045600336 0.13255413 0.13241248 0.018485298 0.12925619 0.091246404 -0.07049374 -0.009000507 -0.039495457 -0.10532677 0.100865476 -0.071835555 0.12846409 -0.016420053 0.06864718 0.06245563 -0.08060283 0.056274068 0.0010193324 0.055342276 0.06763164 0.054097578 0.034995623 0.037419185 0.09694508 -0.0021583196 -0.104488015 -0.04604442 0.0062028747 -0.0786496 -0.096059434 -0.023342295 -0.068577036 -0.09434135 0.094755724 -0.006822382 -0.09885329 0.09234803
ü -0.07531486 -0.03157277 0.10588048 0.025438018 -0.14306976 -0.058536127 0.013834289 0.02923127 -0.26926836 0.046866305 -0.01603852 0.029597558 0.06937699 0.105895415 0.15578741 0.017048191 0.14641972 0.12334891 -0.13718207 0.03854924 -0.096957065 -0.1374088 0.06926863 -0.0958346 0.10144801 -0.09304222 0.046981093 0.08975712 -0.043760397 0.034259655 0.035574283 -0.0024073438 -0.03341566 -0.021551114 0.09220966 -0.0017097365 0.09842107 -0.04899357 -0.07252275 -0.05722219 -0.051860806 -0.04060448 -0.052276067 -0.068480104 -0.04903788 -0.10761526 0.070325255 0.07712843 -0.07640061 0.09985908
ο -0.040225074 -0.023024233 0.24850364 -0.046325233 -0.27183422 -0.13329391 -0.11499064 0.12106827 -0.63512874 0.24991688 -0.05630525 0.05508631 0.10557105 0.41934878 0.44745862 -0.06386906 0.3076473 0.25089592 -0.18080077 0.11470566 -0.15589389 -0.49216664 0.09404478 -0.29784292 0.33890924 -0.11024255 0.13105787 0.3023153 -0.12956603 0.16691142 0.016152471 0.05836032 0.005977685 0.061269436 0.29709688 0.07398216 0.22606374 -0.002314927 -0.2383016 -0.16532919 -0.1460043 -0.18359616 -0.22325854 -0.054866802 -0.32503986 -0.36635688 0.2482304 0.17214313 -0.24372515 0.22531106
ἶ -0.0093366355 -0.019672517 0.1636352 -0.04109989 -0.18434145 -0.081603974 -0.11803001 0.08601347 -0.39629593 0.16790424 -0.07668673 0.053767536 0.07685722 0.26807234 0.26970485 -0.04522506 0.2021422 0.14692897 -0.0946414 0.06587089 -0.105023175 -0.31397897 0.005169964 -0.21312983 0.2041238 -0.07698148 0.06631804 0.15343028 -0.07826839 0.12888807 -0.014171545 0.0676631 0.0034713936 0.05042019 0.18245894 0.07705879 0.15061851 -0.004031789 -0.16050844 -0.13325626 -0.1008901 -0.1183746 -0.13828646 -0.036994003 -0.26684844 -0.2681867 0.15579455 0.12653011 -0.1754275 0.14713882
δ -0.022403348 -0.0375154 0.12375483 -0.036340345 -0.15581544 -0.0792252 -0.117450535 0.05944845 -0.3660225 0.14910172 -0.041832484 0.024537157 0.08258785 0.2446848 0.27152184 -0.029820804 0.1879706 0.0882333 -0.079994544 0.06431271 -0.086331986 -0.28994244 -0.010620596 -0.18135034 0.18761086 -0.06589794 0.062134698 0.14171958 -0.067346476 0.11160521 -0.006785943 0.09017077 0.0280799 0.079956695 0.15512018 0.06357429 0.13043338 0.021270953 -0.15188123 -0.09033007 -0.106356725 -0.09952393 -0.1198744 -0.032408804 -0.24832357 -0.23908937 0.123831406 0.14239481 -0.1714334 0.14027546
α -0.037944194 -0.028942725 0.10967483 -0.0224814 -0.1365462 -0.0658431 -0.07276887 0.07889845 -0.34871382 0.16590519 -0.05225116 0.041374773 0.10598415 0.22621189 0.23409787 -0.04178565 0.19858138 0.10105615 -0.06900025 0.046287525 -0.027237302 -0.272087 0.042467836 -0.18276078 0.15481378 -0.06388895 0.071834244 0.15185447 -0.08645685 0.11124895 -0.021236345 0.07779267 0.04595514 0.088628836 0.15218304 0.07284448 0.11397564 0.007501977 -0.14605542 -0.08788685 -0.07614805 -0.0986037 -0.12956996 -0.025735864 -0.20892447 -0.21117835 0.15904537 0.106567025 -0.11688014 0.120282024
π -0.017815309 0.011714391 0.108670786 -0.0114485705 -0.121612206 -0.06365315 -0.054017678 0.027717717 -0.3072057 0.09312955 -0.026402816 0.008144016 0.040799417 0.17101553 0.1989566 -0.024097193 0.17778705 0.1268817 -0.09249181 0.09212354 -0.05483412 -0.21959777 0.03477491 -0.15350832 0.13123776 -0.05944704 0.07210928 0.13973786 -0.059640817 0.081402026 0.0027489087 0.024270544 -0.008519032 0.026020916 0.14072888 0.030064337 0.08907362 0.005819271 -0.12304137 -0.04933785 -0.04929185 -0.09160251 -0.08923101 -0.03807208 -0.13694717 -0.1386959 0.078445636 0.083689116 -0.09791274 0.082284115
ν -0.031038594 -0.006044891 0.08225244 0.012107125 -0.09870166 -0.053627014 -0.04012028 0.007542758 -0.26726353 0.12530768 -0.03919626 0.013613198 0.0376608 0.18619001 0.17617615 -0.050263528 0.13187116 0.10676693 -0.08718988 0.06839797 -0.08368696 -0.17669992 0.022506023 -0.104924805 0.13743375 -0.06495746 0.027376786 0.12708515 -0.07548553 0.06500301 0.029317949 -0.0009014716 -0.01244807 0.0028449015 0.091822386 0.014964069 0.084918424 0.017840168 -0.10258036 -0.07660584 -0.05958329 -0.07554246 -0.10149862 -0.02661909 -0.13562712 -0.11847206 0.08782593 0.06229288 -0.09374703 0.09455406
υ -0.023327805 -0.009561321 0.11944755 -0.006972099 -0.10822538 -0.053871732 -0.026566865 0.036910333 -0.2964247 0.120918654 -0.042750172 0.015014442 0.04207919 0.16681665 0.19299802 -0.044945795 0.11682798 0.122265756 -0.06664348 0.067264035 -0.063007414 -0.19748001 0.03645014 -0.14891791 0.11251025 -0.07143078 0.030329036 0.12836094 -0.045105577 0.04362076 -0.022127988 0.001865309 0.012395759 0.007250578 0.14736134 0.015232148 0.08183739 -0.020279603 -0.1097385 -0.056854665 -0.06116118 -0.069567114 -0.07854884 -0.025989711 -0.110575944 -0.116279036 0.080185235 0.07418612 -0.13031372 0.070786245
ς -0.030937942 0.018484859 0.040822722 -0.008195398 -0.070009135 -0.04661345 -0.021473138 -0.0027172796 -0.18499424 0.08852527 0.020060368 -0.008252846 0.06490642 0.14959599 0.13518468 0.045783542 0.17578875 0.11696682 -0.07865747 0.037487753 0.022255115 -0.13092196 0.07483699 -0.11405769 0.14089431 -0.008637408 0.06784547 0.10470178 -0.055884026 0.047682416 0.082606174 -0.007339795 -0.0021313406 -0.032855988 0.08094439 0.03267409 0.0886632 0.008933115 -0.06741063 -0.029821243 -0.062973075 -0.030335166 -0.05685133 -0.054809652 -0.043617126 -0.014826436 -0.0032641778 0.02814277 -0.043705206 0.050149802
å -0.018041546 -0.008053813 -0.0035737066 -0.00898827 -0.012327239 -0.017100533 -0.031766444 -0.011518066 -0.04855594 0.04099519 0.0055512465 -0.012048397 0.0065515046 0.041166764 0.011288032 -0.0018985299 0.009306662 0.009080286 0.008647684 0.028924689 0.013664464 -0.03794774 0.01327992 -0.031224731 0.031003777 -0.007672706 0.011901967 0.010118585 -0.025202082 0.019076755 0.015251001 -0.0037312813 -0.02441206 0.029539812 0.0067145987 -0.005273472 0.014313552 0.0037208742 -0.00721338 -0.014143752 -0.013594067 -0.0036764876 -0.023098463 -0.017715191 -0.029793575 -0.02268785 -0.015687604 -0.012818039 0.011710556 0.019093772
ç -0.0075278995 -0.04113685 0.0072324676 -0.02120479 0.008893163 -0.0021863447 -0.025166443 -0.0010120372 -0.03964614 0.02998696 -0.0273347 -0.0038648727 0.003592835 0.0396411 0.038487036 -0.015984723 0.02103334 -0.028651133 -0.006159882 0.00868365 -0.023565942 -0.034427 -0.010202634 -0.008011437 0.03219514 0.009315689 0.021980643 0.008507764 0.00018981835 0.01651534 -0.010455094 0.0352434 -0.04297927 0.008445667 0.027641151 0.018356103 0.016609637 -0.022121303 -0.015661363 0.019366423 -0.007397916 -0.030015847 0.003557708 0.00643137 -0.037222702 -0.013456948 0.0051456373 0.022062782 -0.025754243 0.009868704
î 0.016545452 -0.0031147006 0.02730781 -0.003138459 -0.04072082 -0.034935493 -0.0030432914 0.013670721 -0.04765525 0.031495348 0.008146722 -0.008074198 0.041912902 0.057144925 0.06987168 -0.0071053538 0.043220136 0.023826994 -0.03505611 0.057756986 -0.015398647 -0.047162533 -0.013710973 -0.06151887 0.022376064 -0.02669294 0.03748509 0.032780733 0.003011922 0.028050182 -0.027159603 0.005843379 -0.014740785 0.016657159 0.049537078 0.03364949 0.011498684 0.0027559567 -0.03170509 -0.012378741 -0.039061833 0.010193559 -0.01266423 0.006945651 -0.050977636 -0.03428043 0.027832396 0.024695527 -0.062172428 0.027742164
