60 50
_ -0.11126173 -0.0067136833 1.1447397 1.3415401 -0.61405927 -1.2798301 0.11110745 -0.58404076 0.6664745 -0.31310448 0.27676675 -0.3431459 0.17515086 0.10767663 0.61314505 0.06441168 0.6267126 0.52603036 -1.1906219 -0.31047216 1.065469 0.83231944 0.71764404 -0.33519566 0.6544117 0.21068013 -0.4709405 0.5343369 -0.13904202 0.24335308 0.32732296 -1.3980548 -0.23934332 -1.5331949 -0.5318503 -0.42487827 -0.4271979 0.042769738 -0.2620959 0.017499816 0.7035383 0.3089444 0.2760182 -0.41035128 -0.02665072 0.62403697 -0.52657044 0.47260824 0.8739263 0.59866345
e 0.4304782 0.28680626 0.419744 0.57612586 -0.21081226 -1.7228998 0.47637612 -0.559508 0.7598518 0.024499403 0.008313226 -0.3011921 0.42341474 0.19538267 -0.11109064 -0.57294035 0.40024498 0.6073907 -0.7404571 -0.26436356 0.6646628 0.22690612 0.05565231 -0.7353076 0.32969344 0.36137748 -0.21495073 -0.05749579 -0.4001561 0.11552647 0.1427666 -0.39742514 -0.107942596 -0.32425767 -0.0013137084 -0.25852525 -0.61770177 -0.3962173 -0.44028315 -0.12653193 -0.021062845 0.31479266 1.44497 -0.36525422 0.35036168 0.9810513 0.08354176 0.04995618 0.85413975 0.3357374
t 0.58260643 0.1309609 0.9717552 0.64175403 0.15026663 -0.4204213 0.40206763 -0.16554087 1.0066831 0.22459005 -0.1570572 -0.54715157 0.0041011865 0.2864384 0.324247 0.10093746 0.45138198 0.18564497 -0.9793761 -0.30981964 0.60860527 0.28586897 0.6964042 -0.5832279 0.5546472 0.15144336 -0.49083486 0.25536275 0.2641363 0.1257841 0.0005448011 -1.186547 -0.43504247 -0.7681592 -0.5304572 -0.5728998 -0.13320458 0.18267903 0.5967487 -0.32627186 -0.22675432 0.45232832 0.61906147 -0.36025938 -0.27851433 1.1161702 0.3024348 -0.13041995 -0.14976966 0.40082002
a 0.34499782 -0.025833506 0.23542456 1.1110648 0.017253613 -0.7785347 1.142493 -0.5427644 0.12960793 -0.26821733 -0.030662095 -0.48485786 0.2610454 -0.017405946 -0.17618807 -0.22153355 0.8923488 -0.11549064 -0.47273147 -0.030792957 0.38818753 0.5844169 0.3643761 -0.5675723 0.12626617 0.6177462 -0.41959667 0.089367 -0.013371979 0.017384343 0.13956155 -0.58164823 -0.5125701 -0.5430951 -0.2681977 -0.47034225 -0.6626867 -0.18574263 0.02972818 -0.14386396 0.4293178 0.18274902 1.1891457 -0.79994375 0.33312201 0.42813253 0.49995816 0.35622603 0.73219395 0.47495344
o 0.89349896 0.31523517 0.37260285 0.73809785 0.24454175 -1.0572138 0.8788106 -0.10070989 0.23968878 -0.4931297 0.33797452 -0.36294445 0.5647272 -0.16696125 0.2566267 -0.29131857 0.9343069 0.034287337 -0.7288616 0.19653548 0.46694258 -0.041288503 0.001412128 -0.11777769 0.2542582 0.32982373 0.3255874 0.19928464 -0.20789702 0.10302749 0.10606323 -1.0805827 -0.5034018 -1.2968081 -0.4461984 -0.6184963 -0.27541438 -0.044941694 -0.09899521 0.19803442 0.1913893 0.63363785 1.3469313 -0.0893294 0.523023 0.9360953 0.82315284 0.6176866 0.6978633 0.6263391
n 0.59164304 -0.0363023 0.912234 0.7769932 -0.5206969 -0.21193448 -0.14866415 -0.45879385 0.1616467 -0.38876292 0.24770546 -0.30610973 0.54795814 0.4729843 -0.2695291 0.35658714 0.64846426 0.19232835 -1.2061982 -0.3691776 0.5894651 1.0280982 1.122191 -0.5862706 0.0371105 0.2803677 -0.15408011 0.19526416 0.045182545 -0.13444734 0.2698662 -1.0292323 -0.5448629 -0.11307455 -0.4465962 -0.61728156 -0.8752241 -0.17960562 0.4831987 -0.35912922 0.004526103 0.6336369 1.2078462 -0.28755257 0.16132873 0.276734 -0.24841537 0.52932405 0.6648806 -0.12265151
i 0.049845736 0.07469871 0.6065566 1.2938747 0.0924398 -1.1408509 0.88206524 -0.32345596 0.24842079 0.29011723 -0.02397421 -0.23957561 0.15045552 0.13779372 -0.16672046 -0.35231045 1.0135394 -0.2593607 -0.8492323 -0.14703478 0.76739097 0.51944673 0.4005836 -0.15798019 0.18950805 0.8751928 0.3137471 0.10948611 0.13901256 -0.0124763595 -0.4246564 0.09244602 -0.5788328 -0.6275622 -0.012024292 -0.74650335 -0.5312562 -0.25168335 -0.38276938 0.40866366 -0.0021264069 0.39976335 1.1930703 -0.11389943 0.38070816 0.34536994 0.20697935 -0.1856091 0.13205965 0.35559246
s 0.52063125 0.12906405 0.49105033 -0.019170577 -0.04143664 -0.4789674 0.18090121 -0.2032572 0.75195843 -0.4209199 0.122003414 -0.38557717 0.27294648 0.071134046 0.4029979 0.38566166 0.685974 0.19584998 -0.54463243 -0.16340564 0.7258503 0.13186802 0.6634457 -0.37360373 -0.11063946 0.116056725 -0.22402896 0.51820123 0.34983 0.18159047 -0.13615955 -0.9760511 -0.25616392 -0.67564213 -0.2733779 -0.42680943 -0.23165077 0.0062628076 0.06958663 -0.5386314 0.3979158 0.28975296 1.075586 -0.5282436 0.26098084 0.54404396 0.25108865 0.095405556 0.33957502 0.21237521
h 0.67241704 0.48110926 0.44370562 0.5284616 0.17652968 -0.3063539 0.462318 0.75499076 0.63691634 -0.3407229 -0.103223234 -0.6708109 0.19546051 1.1285317 -0.6097384 0.03232203 0.90644425 -0.06545722 -0.33812976 0.0017307703 0.7165755 0.63740706 0.77264315 0.21263495 -0.08922802 0.15510331 0.022503002 0.27313995 -0.17119719 -0.47217494 0.11383857 -0.73286194 -0.6610662 -0.9422486 -0.7383762 -0.651627 -0.47001755 -0.29872337 -0.08409222 -0.4248125 0.6753003 0.039857853 1.0733207 -0.27982318 0.51250696 0.31550777 -0.45380363 0.809046 1.0440749 -0.2423059
r 0.8659943 -0.18140227 1.0138502 0.44934297 -0.18291348 -0.58238935 0.25608268 -0.503526 0.24054085 -0.24705449 0.47001618 -0.5532301 0.481191 1.072982 -0.17441146 0.0842854 0.74168617 0.0970364 -0.7797495 -0.36454773 0.6097686 0.48917273 0.28724247 -0.269321 0.31828478 0.14567602 0.04018855 0.6408749 0.42077893 0.12876248 -0.37895623 -1.1382393 -0.26648864 -1.1359748 -0.35721397 -1.1018527 0.13802606 0.128889 -0.5046647 -0.3333788 0.25672787 0.63980395 0.6393018 -0.19560602 -0.11054452 0.338368 -0.032620892 0.21673042 -0.30298328 0.61056566
d 0.49693117 0.3922718 1.085339 0.6695514 0.6439453 -0.6452013 0.22686556 0.10897562 0.6115251 -0.50579244 0.18170474 -1.1408871 -0.023280738 0.46470726 0.1795604 -0.13759834 0.8685589 -0.4501817 -0.75360024 -0.25496897 0.7058384 0.6472186 0.53567934 -0.75063515 0.517859 0.40823632 -0.45643857 0.31473675 0.50304836 0.05791334 0.05941182 -0.64366716 -0.26301888 -0.37280214 -0.69200015 -0.31284797 0.2721852 0.20991881 -0.1899855 -0.16624014 0.29138908 0.05206829 0.60269696 -0.5122693 -0.15745707 0.45546454 0.099933065 0.115809664 0.01662514 0.5587649
l 0.9871026 -0.09867185 0.594322 0.7057357 -0.50924116 -0.9125971 0.18244386 -0.18731837 0.00040328913 -0.37698746 0.47350198 -0.7031762 0.07460936 0.21799791 0.2675254 0.12269867 0.8994613 -0.23028122 -0.56242174 -0.3717855 1.1008705 0.60639834 0.3067512 -0.9963323 0.313513 0.5774185 -0.29574645 0.6019976 -0.040081367 0.24764633 -0.1712555 -0.6323901 -0.64953893 -0.3574459 -0.30279884 -0.70030516 -0.2526625 0.14104468 0.14009686 0.057789255 -0.107577235 0.12629887 0.16429548 -0.6469301 0.08859325 0.5304206 -0.07914251 0.51350737 0.59956074 0.19573078
u 0.52706206 -0.5561104 0.01516255 1.3191633 -0.14194359 -1.1340332 0.83142227 -0.21032152 0.61744934 0.6166106 0.45632952 0.39647964 1.2341987 0.04490019 0.7144617 0.5490308 1.3161328 0.25229424 -0.7564087 -0.7360764 0.4317425 0.16466194 0.7671323 -0.59760505 0.21870476 0.48218653 -0.42934334 -0.120966986 -0.069511965 -0.29246426 0.24509451 0.43495443 -0.21949221 -0.20115787 -0.06735928 0.06579393 -0.8988134 -0.26567248 -0.34861127 0.1212735 0.78098196 0.35314 0.92254657 -0.4287398 0.66540945 1.1223519 -0.50725704 -0.43754998 -0.02512751 0.02799416
m 1.140787 -0.18851936 0.1552414 0.53761137 -0.06322947 -0.7103421 0.16998018 0.21255004 0.04860511 -0.48951706 0.5141151 -0.65271854 -0.37939367 -0.026921283 -0.45108187 0.213919 0.66033953 0.17176683 -0.46564278 -0.69879526 0.33385295 0.59326875 0.030854395 -0.79608756 0.25662524 -0.28492427 -0.60170066 0.6466821 0.05956752 -0.23853159 0.050679322 -0.60418105 -0.22311822 0.14808707 -0.7781241 -0.20642304 0.46618864 -0.10907444 0.12764177 -0.04186646 0.27200872 0.16706288 0.23419057 -0.35674608 0.015430998 0.8862449 -0.2590171 0.0959735 0.16779514 0.8614991
c 0.46842787 0.5253148 0.84558624 0.95243436 -0.11245975 -0.6512311 0.29396272 -0.43966395 1.0466758 -0.54110277 0.22300422 -0.40704876 0.07587964 0.27028215 0.5000193 0.33861312 0.33811486 -0.2061136 -0.43503475 -0.37255028 0.4889213 0.2554134 0.28365993 -0.945931 0.3648991 -0.21848312 -0.38466313 0.5634009 0.55603516 0.25607973 -0.047410183 -1.4773632 -0.18680121 -0.86633855 -0.6836639 -0.5317682 0.14240767 0.20677325 0.27363953 -0.50412774 0.078051805 0.46014526 0.6685512 -0.45203802 0.44229776 0.7504412 -0.3631591 0.008338307 0.17650416 0.55874664
f 0.3926862 0.372955 0.31349355 1.082178 0.31194368 -0.038443673 0.21083121 -0.5070006 0.770052 0.006285705 0.37293965 -0.2350901 -0.36682415 0.41519237 -0.5569586 0.2548324 0.27633366 0.09095668 -0.77579176 -0.29188007 0.33178538 1.004377 0.18723793 -0.851594 -0.05229817 -0.18000811 -0.6137816 -0.16964824 0.54090434 -1.0950643 -0.012571558 -1.1972516 -1.0573686 -0.40065375 -0.29062793 -0.40452507 0.23831087 0.24937451 0.65381384 -0.16915955 0.36862263 -0.15995967 1.0028981 -0.27407908 0.48605478 1.209955 -0.36141738 0.13153051 0.6438925 0.45880657
w 0.07315375 0.20716298 0.81116515 1.4685819 -0.3306896 -0.3031933 1.1633956 0.1104016 0.63104665 0.19976784 -0.2330798 -1.0469619 0.038468957 -0.09644104 0.09155714 0.20567836 -0.008716541 -0.39273125 -0.054026596 -0.13989803 0.30236995 0.60276675 -0.015957082 -1.086844 0.2423257 0.021266965 -0.71565026 -0.13567466 0.15658912 -0.49391654 -0.3376131 -1.0004389 0.4935978 0.049813833 -0.7879841 0.282955 0.024080405 0.113236815 0.64218473 -0.49724212 -0.0827573 -0.022603922 0.35969266 -0.4275655 -0.59192353 0.8652664 0.074720494 0.30766302 0.23142354 0.10980967
y 0.39863008 0.7428072 0.59277785 -0.10552573 0.67793775 -0.56979364 0.22413534 -0.82603693 0.5620948 -0.4014916 -0.019301506 -0.49276206 0.8145486 -0.06411695 0.3309546 -0.25096208 0.7939464 0.029629659 -0.98122984 0.18682507 0.16910703 0.17638145 0.49889016 -0.66956025 -0.26072824 0.29937834 0.09155161 -0.68589085 0.086621806 0.231281 0.19846849 -0.18351834 -0.16739994 -0.87503976 0.47971734 -0.3720987 -0.25514886 0.86591053 -0.42751133 0.088049255 0.6036254 -0.050301645 1.2798175 -0.16218457 0.58702105 -0.070295006 -0.34795958 0.64861226 0.08470083 -0.14419927
g -0.30060753 0.36355442 0.5690899 0.70805293 -0.18394367 -0.74806184 0.27166638 0.04374058 1.0272629 -0.43615985 -0.23530836 -0.6587597 -0.93800724 0.14777176 0.0018140632 0.01634177 0.3473832 -0.8096067 -0.78919154 -0.30166513 0.3326811 0.4227513 0.61402047 -0.7526623 0.21370915 -0.068355896 -0.45554605 0.5088885 0.28542018 0.39315394 0.30910566 -0.881184 0.03740907 -0.28246537 -0.7424358 0.5481202 0.80425584 0.33895668 0.15901366 -0.29558298 0.059573762 0.57564247 0.8081985 -1.0295539 -0.044169176 0.91041785 -0.0754449 0.5205085 0.39452097 0.89350086
p 0.20144525 0.29971623 0.7468705 0.57672125 0.43472302 -0.096789636 0.047346022 -0.046933237 0.8766814 -0.7091022 0.19253781 -0.44156873 -0.044021543 -0.42889154 -0.18005939 0.120622665 0.16104104 0.16030304 0.13762431 -0.43631154 0.24511766 0.80445504 0.28521657 -0.86802894 0.15059301 -0.16196595 -0.60738426 0.37023595 0.6474917 -0.112312146 -0.13852824 -0.97834516 -0.67698073 -0.09529076 -0.76285565 -0.8817123 -0.42663938 -0.6216049 0.4172474 -0.13174714 0.19345795 -0.010955363 0.2799493 -0.17908302 0.98473704 0.116779335 -0.47772363 -0.5126002 0.57179374 0.68276006
<s> -0.6525265 1.0134362 0.10132953 0.18177584 -0.08106056 0.258806 0.42772695 0.7037845 -1.0452441 0.40437776 -0.16838479 0.2089925 -0.29667774 1.1033574 0.563894 -0.6879642 -0.30787852 1.0113125 -0.6157949 -0.17895208 -0.6807631 -0.8941384 0.13832313 -0.05253675 0.29034647 -0.8865958 -0.35949552 1.2881367 -0.24694492 -0.5072718 -0.12150151 -0.6020582 0.32417637 -0.6497201 0.30977017 -0.12987006 0.69327766 0.42315087 0.34605476 -1.1389306 -0.48497036 -0.3026838 -0.6161223 -0.016734762 0.576946 -0.7386937 0.3067223 0.24567652 0.17752054 -0.034479238
</s> -1.5558221 1.6524818 -1.920923 0.18165603 0.35070908 0.83435714 0.8205597 0.48849362 -3.222446 -0.71938366 2.059205 1.0782127 -2.8261392 -0.13594726 -0.061174214 -0.24179189 -1.997182 0.12588865 2.516995 0.6874138 -1.1138862 -1.4155607 -1.391428 1.023221 0.13737275 -0.4179949 0.6040753 1.550262 0.7503726 -0.7056825 2.3837962 0.057178754 -0.8609229 -0.99945724 0.96435577 0.6517113 -1.1937381 0.122170925 1.0614985 -0.0794363 -0.5815063 0.020106046 -1.2980837 1.3314254 -0.2170456 0.102631874 -2.1185417 -0.7985778 -1.2663985 -1.6947669
, 0.12894177 1.3204088 0.64572614 1.6169431 -0.15917535 -1.486299 1.2579695 -0.21697964 -0.34405294 -0.78035814 0.5449265 -0.63155323 -0.3599014 0.35372147 -0.09822452 -0.3889905 0.8134696 0.63982344 -1.3226501 -1.2711794 0.81190616 0.69829094 0.94798315 -0.72332925 0.50226194 0.8043273 -0.8449848 1.1723158 0.043392576 -0.12622076 0.40792426 -1.1703036 -0.0054376386 -1.1350414 -0.4304707 -0.9875662 -0.44353777 0.42846859 0.58695966 -0.81092936 0.14092734 0.24011496 1.2431164 -0.5297987 1.0037524 0.7002581 0.1638998 -0.15255694 1.1775156 0.079135574
b 0.5850016 0.24699688 1.1643891 1.051566 -0.058836784 -0.59628093 0.2031076 -0.1283131 0.74557173 -0.7005392 1.1985477 -0.9412593 0.25580686 0.6208316 0.03218128 0.31583238 0.13118464 0.12544063 -0.52633417 0.23847863 0.63305455 0.8928686 0.051993243 -0.5800135 -0.26800412 0.6763073 -0.20067461 0.34523967 0.8713254 -0.55614847 -0.5664011 -0.8317489 -0.70073426 -0.17772786 -0.1099132 -0.025738059 0.036369357 0.26419446 0.3651901 0.06767576 0.886615 -0.1814015 0.08948061 -0.36609912 -0.23765738 0.2720951 0.32225972 0.62235034 0.71500033 0.23641665
v 0.95422596 -0.46883306 0.8435632 0.337929 0.5783439 0.61711204 0.33365005 0.12732562 0.6196306 -0.21983881 -0.053592462 -0.66556716 -0.894631 0.089036204 -0.26976994 0.07079167 0.83070326 -0.033211082 -0.37722883 -0.43780318 -0.102113314 0.6307075 0.54104555 -0.90834856 0.46335298 -0.08274491 -1.1597172 0.36514965 0.5959931 -0.26583385 0.4424492 -0.28266236 -0.9032775 -0.5472632 -0.6009168 -0.37802684 -0.27637735 0.42539185 0.75193715 -0.52005637 1.0235358 -0.4164729 0.2996435 -0.9076612 -0.39362225 0.31213987 -0.5033323 0.056776784 -0.06800679 0.6454996
. 0.2678456 -0.3349881 -1.2831029 0.40345 0.3198481 0.29565105 -0.82190335 -1.414637 0.1627491 0.7780953 -0.80258644 0.48119986 0.28395578 1.0409015 -0.40673554 -0.23722571 -0.30429742 -0.01892627 -0.53617066 0.014214897 0.3739454 0.46736017 -1.5671618 0.12439555 0.8279807 -0.15438336 0.36047307 0.42573705 -0.7624046 0.40531728 0.37496775 -0.21653874 -0.121049486 -0.23530419 -1.235015 -0.9050197 0.38179046 0.9363803 0.26422372 -0.037874695 0.44679984 0.4639004 0.5282113 -0.5886941 1.0749459 0.8047443 0.85620314 -0.18352178 1.0216546 -0.31962293
k -0.09385762 -0.020774797 -0.34799904 0.54143417 0.2819417 0.10867878 -0.046903636 0.48680753 -0.48238122 0.31751606 -0.8888707 -1.1618214 0.21871942 0.289002 0.5189415 0.87580335 1.6263454 -0.30322528 -0.25956327 0.07192056 1.1784847 0.16507715 1.2659044 -0.41608134 -0.12525012 0.2746247 -0.42524272 0.15061738 -0.17828426 -0.3189218 0.28847125 -0.8329048 -0.19611077 -0.15909295 -0.009079604 0.18364862 0.26613113 0.050794408 -0.3391265 -0.5019438 0.42099306 -0.7921908 0.89002407 -0.30892882 -0.35413393 0.71715707 0.35362205 -0.089648254 -0.18179888 -0.5483007
; 0.82378685 1.4770939 0.43997893 1.4262612 0.03797914 -2.0222116 1.6967849 -0.17040938 0.34261972 -0.35609984 0.93706226 -0.75971895 -0.030642357 1.0081065 0.08984154 -0.21160205 0.60887617 1.2095643 -1.6015435 -1.4881837 1.0282139 0.40827778 0.8650116 -0.6846765 0.4426805 0.6494384 -0.83204216 1.1743423 0.1089374 -0.24572319 0.6204596 -1.527265 -0.31974268 -1.8779849 -0.27934635 -1.0191195 -0.6251081 1.013 0.89061606 -0.9484074 0.552692 0.53143895 1.3196558 -0.2710749 0.8061316 1.3853179 0.22612737 0.15602289 1.0430281 0.058043458
" -1.2728403 0.45620582 -0.10654151 -3.2781913 -0.09391997 0.44704595 0.68513304 1.3017579 -1.3388151 -1.7821895 0.88286793 -0.45132646 0.29464725 -2.5355031 -0.48583102 1.2010046 -0.6084963 0.74096406 1.2562373 -0.9614099 -1.473531 -0.2366291 1.0508163 0.87966603 -0.8753598 1.0743372 0.6416527 -1.5572275 -0.09502769 0.21135557 -0.7246974 2.9043677 2.7313623 2.1268232 1.0640434 1.1598177 1.127101 0.2909882 0.42369315 0.2986723 -0.24675632 -1.0560216 -2.3020494 0.9531765 -0.35323757 -2.6220393 0.009077427 -0.6528999 -1.4543762 -0.30623215
x 1.1221199 -0.5490384 0.69265145 -0.67302436 0.01377604 -0.038673732 1.0171176 -0.3268898 0.9269902 -0.09178196 -0.5880434 0.2745707 -0.4991722 -0.66437423 -0.42302167 0.37660596 0.42190698 0.31236953 0.39334506 -0.850363 -0.28291598 0.16783339 0.35927472 -0.4075604 -0.46228862 -0.54349947 -0.22456099 0.9075301 1.1896826 0.30923176 -0.890488 -0.3564309 -1.2211921 -1.1370744 -0.46315813 -1.6870437 -0.98491645 -0.5225169 0.34659845 -0.3925715 1.1597236 0.34817615 1.1750846 0.19919173 1.1107817 -0.4118255 -0.734882 -1.2618911 -0.5261157 1.0636649
' -0.7868274 0.3429317 -0.07297003 -0.45515767 -0.6568524 -0.7333619 0.40574953 1.2903304 -1.5900766 0.12907055 -1.7311482 -2.2987747 1.104781 -1.0253203 0.5225418 0.2683091 -0.79060864 0.06240183 -0.35836878 0.67969394 -1.0991518 0.42463836 1.2662889 -0.09443173 -2.388545 0.6747969 -0.4932569 1.3417181 -0.19133155 0.62014025 0.07325841 -2.0859 0.32008204 1.4988668 0.0771789 2.169729 0.1868651 -0.63393843 -0.8108476 1.8685503 1.5059825 0.4476564 -0.62840396 1.2824383 0.30526227 0.6554548 1.2530541 -0.6819965 -0.7012552 -2.1308715
q 0.5868664 -0.044936948 1.716552 -0.48936152 0.15529133 -0.0657611 -0.36576223 1.134411 2.069363 -1.9846212 1.1357421 -1.4289236 -0.34612906 -0.07416357 0.17955469 0.4192823 -0.47476706 -0.5790866 0.36516634 0.007750051 -0.39125824 0.21489257 0.45689693 -0.9926397 -0.44749498 0.9769085 0.47892246 0.23025191 1.0739778 0.9406248 -0.01944242 -0.74594915 -2.0045154 -0.6678531 0.090723015 -0.025300736 -0.021995723 0.50311595 1.5157565 1.1269138 0.6237446 0.3281938 -1.1615702 0.09845562 0.9562083 -0.30479518 0.24090149 1.0698286 1.1686075 1.033569
j 0.7371833 -0.9494282 0.25730026 -0.15975656 -0.17807332 -0.15387073 -0.19402657 1.0131108 0.25881422 -0.64662963 0.69563645 -0.80862397 0.11290797 0.39823452 0.25566795 0.71574295 0.27184093 0.24872541 0.6374372 -0.27129325 -0.39591044 -0.699965 0.2981383 -0.6135866 -0.14505382 0.6386017 0.09919267 0.07222581 0.2721245 0.14255126 0.38807088 0.0355524 -1.1497422 -0.105629526 0.861638 0.6655059 0.30698186 -0.24480897 0.03289118 0.4973074 0.38836023 -0.36841694 -0.7761862 0.2803471 0.42161736 0.68118274 -0.0130865285 -0.17497075 -0.058564257 0.526578
z -1.1078434 -0.010563001 -0.41603252 -0.39741415 0.5232308 -1.1108416 -0.14745851 -0.004484743 -1.0654255 -0.38838285 0.255646 -0.346947 0.35771164 0.06718647 -0.13922691 0.7652857 0.48063278 -0.40265426 -0.92180485 -0.15967026 0.30534813 1.3874744 1.7603258 -0.2994109 0.2731636 0.31735462 0.8218123 -0.3336052 0.0793886 0.54547185 1.1685116 -0.010741826 -0.20356089 1.2441684 -0.24288963 1.0190914 -0.33561027 -0.08145851 0.29701075 0.05591058 0.9396323 0.77676356 0.5442194 0.024844006 -2.5961547 -1.6580404 1.1880871 1.3882431 -0.6339492 1.4875987
? 0.23058896 -1.1511923 -0.3972668 -1.3421608 -0.13106395 -0.57902753 -1.1206219 -0.31970304 1.2864963 0.7176643 -1.6952116 -0.62389386 1.7031196 0.5318996 -0.61979103 0.39746955 0.20339635 0.9190276 -1.4226826 -1.2353117 0.6157902 0.96401465 0.029862072 0.48527765 0.81205267 1.1936623 0.6293742 -0.74067646 -1.6946172 1.3425367 -0.84674066 1.706129 1.4209845 1.227322 -1.3131938 -0.5431221 1.1107 0.96596134 0.2841887 0.31703958 0.806605 0.027153922 -0.49372345 -0.48875526 0.806501 -0.45172974 2.5133257 -0.40771505 1.2285464 0.28850305
: -0.18552648 0.5351366 0.15832984 -1.1777785 -0.21368021 -1.2557429 0.56565005 0.50664645 -0.22870399 -0.32167095 0.36830053 -0.27339074 0.94934255 -0.6163025 0.20375341 0.4406662 0.012852059 1.1640581 -0.700178 -1.2044007 -0.12638207 -0.051702917 0.82585657 0.28298855 -0.33111784 0.83203286 0.3130702 -0.06462571 -0.2716272 0.32287833 -0.6993109 0.97950935 1.2729216 0.5621593 0.41959065 0.09752545 0.58947945 0.47509986 0.10140844 0.24534228 0.27129623 -0.00835647 -0.60162264 0.6206873 0.56638753 -0.6180498 0.7320395 -0.57678473 -0.21063717 -0.11704628
é -0.25122017 -0.09115234 -0.2850027 -0.475379 -0.095552035 -0.16164339 -0.059959203 0.27263162 -0.21118188 0.15200707 -0.45802292 -0.06648923 0.3410776 -0.1086282 0.111501746 0.046742026 -0.07763088 0.3825336 -0.16599676 -0.10503045 -0.25589573 -0.16872288 0.10984005 0.06603032 -0.08298792 0.097532034 0.21646582 0.15094143 -0.39746657 0.27333465 -0.093522936 0.283457 0.19610064 0.30550355 0.012408177 0.14751226 0.23259741 0.048251305 0.06848926 0.1720072 0.11741766 0.0030764067 -0.24951743 0.12545589 0.48850337 -0.2593955 0.5070636 -0.14613459 0.14476348 -0.06903708
æ -0.11500029 -0.1863542 -0.07128507 -0.11903548 -0.0845576 0.028035278 -0.13290161 0.09216647 -0.09126184 0.11036163 -0.110213526 0.19676699 0.14160325 -0.049631957 0.15844905 -0.09933326 0.04152762 0.16593589 -0.06617534 0.09171075 -0.24417928 -0.21820642 -0.068981215 -0.12923741 0.15615502 -0.17249656 0.06252164 0.07233444 -0.2801894 0.079251334 0.0019734385 0.19287094 -0.030129127 0.14529933 0.07679221 0.098117046 0.10361394 -0.13645287 -0.076801196 0.08124524 -0.14103313 -0.0027947521 -0.23317304 -0.10103499 0.2897676 -0.120333716 -0.015803993 0.05875653 0.06586831 0.16278425
ê -0.21695922 -0.1634158 -0.17505647 -0.13716772 -0.14008254 0.14617565 -0.13785139 0.12973455 -0.3444811 0.23095348 -0.2217869 0.13748786 0.14675738 0.1503255 -0.007354203 0.001178868 0.09792972 0.29782015 -0.33669424 0.06685525 -0.19443391 -0.043923434 0.141595 0.12646084 0.018340867 -0.09846374 0.1353979 0.0960045 -0.3474996 -0.059128843 -0.008854382 0.122597724 -0.0064196466 0.16647822 0.023383778 0.12023237 0.16327298 -0.09140188 0.0016577918 0.017968947 -0.041644234 0.006633798 -0.13126156 -0.021631565 0.17880973 -0.16238965 0.19494218 0.07499853 0.07034631 0.0030177168
ö -0.18201242 -0.07678045 -0.061627455 -0.06163279 -0.13197412 0.06755486 -0.007411875 0.20384815 -0.28366902 0.08656216 -0.12654747 0.043616947 0.12474996 0.0042393985 0.088768 -0.025712052 0.0893462 0.18935408 -0.1784221 0.00895761 -0.14213845 -0.10256492 0.0839661 0.03142095 0.03859298 -0.08623401 0.08962354 0.12165824 -0.28764993 -0.060793262 -0.13815682 0.06933978 0.08919384 0.055276062 0.04418709 0.011207526 0.21712446 -0.08338777 -0.0290261 0.003569364 -0.13252234 -0.068294674 -0.24618964 0.005796208 0.22847354 -0.2020449 0.12953348 0.10653192 0.12673017 0.08273536
è -0.1673831 -0.06783606 -0.103595585 -0.20349853 -0.06936495 -0.020930098 -0.07976557 0.105505094 -0.06977148 0.10433191 -0.124623284 0.10275878 0.19503218 -0.031390153 0.15302403 -0.0061501227 -0.0060193995 0.28940144 -0.21257052 -0.034081094 -0.21880338 -0.15601525 0.09076706 -0.020551395 0.047855113 -0.075605676 0.07548664 0.014902488 -0.2780583 0.07287304 0.02102459 0.16162075 0.08191128 0.132726 0.082175136 0.14316623 0.14246187 0.03690349 0.055236656 0.038157698 -0.034465086 -0.012908397 -0.20729253 -0.029250657 0.24848768 -0.1457692 0.12841403 0.022893758 0.07002495 0.07150677
ë -0.04395947 -0.118525 0.009197478 -0.025977276 -0.085708454 0.062334746 -0.059668943 0.014078706 -0.08693883 0.12814325 -0.12911555 0.09527326 0.12128183 0.018398665 0.08346436 -0.033447698 0.05599767 0.08078078 -0.10344347 0.108920336 -0.07963156 -0.08012302 0.0077001234 -0.08790795 0.038217828 -0.09131856 0.057253007 0.053351793 -0.14427234 -0.006073645 -0.070377454 0.03146873 -0.08781298 0.052561052 0.041768834 0.044367917 0.019209187 -0.096950874 -0.030793553 0.024146086 -0.09598392 0.0019374326 -0.03345815 -0.06634597 0.12197048 -0.10478681 0.045720555 0.10235164 0.028566992 0.051349893
à -0.20541775 -0.08561624 0.027376188 -0.17222042 -0.19861485 0.029595181 -0.019528259 0.18009742 -0.35036257 0.077411085 -0.064228565 0.115588665 0.15975265 0.03413731 0.119798064 -0.06351715 0.1118397 0.42747146 -0.32552806 0.002308334 -0.29221672 -0.18705516 0.17192675 -0.045347974 0.08224759 -0.10546074 0.08598696 0.23340702 -0.29152924 -0.009645118 -0.09138435 0.099238895 0.00906981 0.0387241 0.14739312 -0.00058318366 0.20838155 -0.08656102 0.071435355 -0.040809922 -0.13173896 -0.040308364 -0.28134972 -0.09208046 0.32831296 -0.32949698 0.19452727 0.12371755 0.096193865 0.18296513
ô -0.08052368 -0.051925402 -0.038433135 -0.055337805 -0.042769574 0.0847971 -0.031221421 0.023891037 -0.052196044 0.04185574 -0.048495095 0.09124456 0.0047385246 -0.0034688837 0.017055692 -0.015456144 -0.046750672 0.06159496 0.0024164985 0.1507811 -0.12579069 -0.050181493 -0.08732082 -0.01945935 0.037189413 -0.07310404 0.12807153 0.0034244189 -0.07151986 0.003617133 -0.057560742 0.06021955 -0.04388895 0.06635513 -0.00412184 0.036619626 0.042334836 -0.06249933 0.06015225 0.058187928 -0.067972265 -0.0037797655 -0.09230227 -0.038393535 0.07897837 -0.082003586 0.017196426 0.07924619 0.006173042 0.04089715
ñ -0.2263157 -0.04388045 -0.056273002 -0.056353558 -0.0775269 0.015861088 -0.091475025 0.09217936 -0.20007592 0.024448266 -0.06805441 0.097407825 0.04061415 -0.005357022 0.09677856 -0.004596754 -0.03252057 0.14496854 -0.11794809 -0.020379739 -0.14493668 -0.054052956 0.091041274 0.015097024 0.08624155 -0.042652577 0.052733827 0.056390963 -0.14883645 0.04910684 0.030474374 0.111382924 -0.0014830279 0.088926926 0.08127167 0.112533435 0.10750476 -0.010436577 0.07228119 0.027890356 -0.05956154 -0.015544048 -0.21965851 -0.015386494 0.041504286 -0.25282195 0.15508598 0.10490819 0.06593453 0.13410476
ä -0.14492996 -0.081568815 -0.014442508 -0.07154395 -0.09804054 0.03827153 -0.017516803 0.105455376 -0.23473692 0.06682815 -0.13414979 0.03522623 0.11543596 -0.00084810227 0.16511099 -0.008183749 0.08721493 0.24238206 -0.20947653 0.057988472 -0.20176664 -0.12376406 0.12425243 -0.08754132 0.039891914 -0.091417395 0.036967844 0.19108678 -0.19624335 0.03421301 -0.051094227 -0.008247123 -0.017418796 0.010178762 0.050760835 0.04354499 0.14627638 -0.07625427 0.03938624 0.018412545 -0.07457501 -0.0068211155 -0.18531898 -0.059425287 0.26270622 -0.1547907 0.11269641 0.0498963 0.031693604 0.11393705
ï -0.098141044 -0.08975058 0.02796778 -0.09965149 -0.050711732 0.06912594 -0.047355566 -0.007027267 -0.08236851 0.039246194 -0.05942275 0.011985211 0.022674209 -0.019086475 0.058987703 0.053940658 -0.006121867 0.027490119 0.057588723 0.09072692 -0.05499682 -0.021409107 -0.051661443 -0.08363946 0.047431484 -0.027238164 0.10246668 0.042620778 -0.025292465 0.01653818 -0.020375594 0.06947305 -0.024697568 0.07876053 -0.022804836 -0.004549691 0.03571062 -0.038740087 0.020285979 0.018076813 -0.025854172 0.009887467 -0.065484636 -0.048894435 0.0022408925 -0.12616491 -0.008798417 -0.010431098 -0.08400195 0.025931343
â -0.16739602 -0.05343171 0.001256444 -0.129681 -0.11002123 0.027876263 -0.015025469 0.10142431 -0.17324358 0.05246475 -0.08919057 0.06664718 0.08358893 0.034087963 0.105196245 0.010540545 0.042743813 0.19687751 -0.14641543 0.030674595 -0.13958491 -0.09136436 0.066530265 -0.040687256 0.09905968 -0.07780643 0.13440318 0.1191936 -0.18663353 0.046961855 -0.06485413 0.080899596 0.030702313 0.050694514 0.0368418 0.014325349 0.104330055 0.0075274594 0.045155402 -0.013349434 -0.063815646 -0.013849932 -0.16824618 -0.06309173 0.1329367 -0.20782778 0.15533242 0.08665712 0.03888202 0.13285665
ü -0.119225584 -0.06245515 0.041529663 -0.046077892 -0.04500291 0.01616189 0.00031199725 0.034188744 -0.061982706 0.024131432 -0.058964394 0.061978173 0.02622147 0.007194749 0.07400589 -0.04399859 0.046757624 0.14101258 -0.13046786 0.0872069 -0.14401455 -0.08559131 0.007048826 -0.040543348 0.065666 -0.09767729 0.06259335 0.034516178 -0.10398879 -0.0037241457 -0.0062521053 0.038508095 -0.045663223 -0.015007499 0.050868575 0.007735513 0.10770666 -0.06913165 0.020192634 0.005125636 -0.06646678 -0.017639816 -0.06485983 -0.103892714 0.13003647 -0.113758676 0.06757309 0.08391435 0.051772766 0.13364473
ο -0.25762272 -0.16163652 -0.042101312 -0.12997039 -0.2085752 0.15366264 -0.049567092 0.13055706 -0.39410353 0.20426084 -0.13955969 0.1950765 0.06643308 0.1386207 0.17383566 -0.100342296 0.06042901 0.42913285 -0.29242092 0.1694762 -0.3068403 -0.26834872 0.058851697 -0.072956555 0.19219379 -0.2039428 0.16349788 0.32105625 -0.37320805 -0.010618177 -0.050204284 0.09483888 -0.121775396 0.011116099 0.13803747 -0.0072876425 0.16774958 -0.10175426 0.11951971 -0.07358663 -0.2170896 -0.05292138 -0.28868812 -0.18969764 0.3486411 -0.33885473 0.20607731 0.16817215 0.14988516 0.17003748
ἶ -0.16860852 -0.12069112 -0.047397435 -0.15159859 -0.1469826 0.09793105 -0.055835404 0.083407365 -0.24446306 0.17448305 -0.13842687 0.15961304 0.0552987 0.074958175 0.11455257 -0.057719722 0.032851472 0.27603662 -0.15324976 0.16840012 -0.22834802 -0.20449112 -0.047754433 -0.099321984 0.10899061 -0.15906112 0.14474416 0.15886262 -0.24823186 0.010375171 -0.06332552 0.109173715 -0.10041395 0.044959575 0.10564146 0.058732536 0.11227032 -0.082471125 0.08309224 -0.07155172 -0.17165121 -0.028665101 -0.16600245 -0.15022263 0.14650908 -0.25962037 0.12783076 0.15669312 0.048678882 0.1135367
δ -0.1860398 -0.13891703 -0.058556747 -0.16097414 -0.12479683 0.08363331 -0.052986693 0.07206707 -0.2335912 0.16487253 -0.118854485 0.11989788 0.07560904 0.05885663 0.14495865 -0.03087851 0.03664223 0.20581481 -0.1272466 0.16658579 -0.2210512 -0.2029536 -0.046936102 -0.094858 0.105960816 -0.15282103 0.16072173 0.13889037 -0.22929516 0.01090199 -0.059863843 0.15118472 -0.07227224 0.09412257 0.07853509 0.057434063 0.0984314 -0.061068386 0.07268073 -0.030465785 -0.16742943 -0.020594353 -0.14506632 -0.13429561 0.13553494 -0.2517144 0.092924386 0.16927303 0.011972304 0.11643655
α -0.16461597 -0.11729039 -0.06131819 -0.087429255 -0.12668018 0.08928757 -0.02527655 0.07964537 -0.24565591 0.17179084 -0.12820385 0.15569304 0.06095529 0.06373664 0.11905692 -0.077613376 0.03266411 0.19509985 -0.1290114 0.10992996 -0.17247947 -0.19466053 0.006749852 -0.08910001 0.0719591 -0.16768609 0.10905192 0.16276695 -0.22031198 0.026743973 -0.048490915 0.08961305 -0.066892244 0.057882756 0.09616274 0.050281532 0.06290189 -0.0502634 0.07177537 -0.050016236 -0.13810244 -0.02008437 -0.16709651 -0.11188145 0.13605389 -0.23098285 0.14361376 0.1480973 0.08352525 0.116992414
π -0.1410678 -0.088205054 0.033850443 -0.11224737 -0.1135839 0.07346496 -0.017948618 0.09901172 -0.19412698 0.07117241 -0.08753478 0.05238288 0.051287826 0.0010303244 0.083116464 -0.027909718 0.058677778 0.19358073 -0.11834897 0.1290503 -0.1737727 -0.14279327 0.039417688 -0.07535309 0.05878952 -0.14206302 0.12368222 0.119801655 -0.17401311 -0.008131295 -0.07866182 0.092198744 -0.05203837 0.06975024 0.07388361 0.025763713 0.07990121 -0.0909808 0.024323933 -0.009485079 -0.107695036 -0.04162339 -0.15224786 -0.093452215 0.13051076 -0.19521609 0.035118595 0.099253304 0.014821334 0.098931044
ν -0.15470971 -0.08215476 0.014340554 -0.083457746 -0.08698967 0.0678369 -0.007499237 0.06846611 -0.1758348 0.0909841 -0.07549313 0.03669327 0.04272891 0.04044604 0.074118085 -0.03886096 0.06084901 0.21589048 -0.13773395 0.11806304 -0.17634852 -0.0933017 0.043202393 -0.049024493 0.08709121 -0.118470155 0.07870365 0.13950837 -0.19385786 -0.02575775 -0.038628064 0.042926844 -0.058574256 0.014087981 0.03263562 -0.004827451 0.096400544 -0.07344596 0.05309203 -0.0329264 -0.12024998 -0.03186731 -0.17318971 -0.10178192 0.16726011 -0.15027003 0.025281692 0.07493777 0.035532128 0.100412935
υ -0.12035867 -0.10393448 0.028579228 -0.10839771 -0.07919603 0.065167256 -0.015886603 0.089591675 -0.1380895 0.105451986 -0.107379295 0.044745695 0.058989417 0.006241833 0.07939829 -0.0381723 -0.00242548 0.14742054 -0.08241396 0.096535265 -0.1480793 -0.10534705 0.03860716 -0.0718296 0.029871725 -0.12537585 0.06129623 0.07783761 -0.13994737 -0.023052992 -0.0724346 0.059493095 -0.023534022 0.06618283 0.08121802 0.033042826 0.059353877 -0.08680705 0.033161618 -0.0014516066 -0.09221605 -0.017459666 -0.123135194 -0.07436589 0.10804067 -0.14085266 0.0503152 0.088254586 -0.011865335 0.06092847
ς -0.080688 -0.08121879 -0.013232315 -0.02687031 -0.10998236 0.06308694 -0.020584607 0.057040397 -0.14598498 0.08773676 -0.079716034 0.08496709 0.04867894 0.055456433 0.06415942 -0.048841424 0.06416946 0.16065954 -0.11446785 0.04292619 -0.1111153 -0.114125855 0.047772184 -0.017268961 0.081465706 -0.11594042 0.033100657 0.11415132 -0.15202631 0.004166996 -0.02079708 0.044536248 -0.017147938 -0.02291155 0.049360637 0.0030652157 0.079977915 -0.064600475 0.0042591114 -0.035816092 -0.12086425 -0.0019767417 -0.12316727 -0.08869363 0.1426464 -0.13038482 0.049859267 0.07282319 0.06761534 0.12014428
å -0.072040424 -0.044345137 -0.028117087 -0.020792495 -0.028564336 0.023961855 -0.03448872 0.0030600824 -0.025540784 0.049237404 -0.032465227 0.02847001 -0.0010774157 0.010748811 -0.01746126 -0.036176644 -0.044342015 0.016853018 0.0021650633 0.043834675 -0.043378685 -0.038409676 -0.0095433155 0.027796676 0.026319627 -0.040468946 0.026736548 -0.004543032 -0.07372331 0.020639187 -0.00997832 0.035985325 -0.0058014197 0.038764775 -0.015326772 0.008266796 0.030221483 -0.01697691 0.008529214 -0.0028049478 -0.032140255 0.013617463 -0.06382806 -0.03445298 0.009704169 -0.06203406 0.013585617 0.00839202 0.044799928 0.04225437
ç 0.0065566674 -0.009384473 -0.0027452074 0.0015971576 0.029794436 -0.006847355 -0.014242027 0.009720763 0.0035941377 -0.009554339 0.012916421 -0.014228354 0.011438654 0.01425218 0.010656179 -0.013584094 0.0051022517 -0.04461769 0.008779828 -0.005971181 0.003906896 -0.006053146 -0.024891522 0.008589337 0.003359524 0.03585142 0.015184179 0.006083116 0.017948758 0.00063116173 -0.012580178 0.019458957 -0.03880859 -0.007926391 0.024665777 0.0059223976 -0.0025023043 -0.01203998 0.007701542 0.045418512 -0.014221472 -0.004268246 0.011247088 0.024170488 0.005180392 0.018681886 -0.02258949 0.023946764 -5.6500183e-05 -0.020124538
î -0.03996117 -0.01579457 0.006702346 -0.039419223 -0.043545276 -0.0034710192 0.025474025 0.0620412 -0.058899418 0.010629818 0.00021421886 -0.006286858 0.020991668 0.017489528 0.030721506 -0.0031226308 0.018730594 0.06543943 -0.02979873 0.05070922 -0.04310747 -0.029573377 0.006172579 -0.036227454 0.008526377 -0.052441694 0.045827895 0.050435398 -0.044520993 -0.013507856 -0.0481747 0.027179575 -0.018036187 0.023513338 0.02623007 0.03009521 0.024624499 -0.033138145 0.0042230967 -0.012993476 -0.05239258 -0.00055941386 -0.04388254 -0.005672738 0.041203875 -0.04956223 -0.008195009 0.015348344 -0.028552305 0.027404625
